0.082928 0.161737 -0.270860 -0.000000 0.175585 0.209067 0.113392 0.199240 -0.154404 -0.277149 0.094104 0.234635 -0.191713 -0.174088 -0.000001 0.189621
-0.379316 -0.060158 -0.451593 0.000000 0.277748 0.393630 -0.048011 0.370934 0.338118 -0.312904 -0.074977 0.557997 0.028847 -0.139622 -0.000000 0.357089
-0.014688 -0.017274 0.000815 0.000000 0.006570 0.014121 -0.003508 0.003682 0.014767 0.003629 0.001608 0.005122 -0.000168 0.006321 0.000000 0.000834
0.061201 0.054342 -0.041570 -0.000001 -0.006853 0.010086 0.071931 0.080556 -0.058292 -0.005796 0.040043 0.035720 -0.068350 -0.064620 0.000001 0.023743
-0.040775 -0.033374 -0.045994 -0.000001 0.022626 0.020390 -0.010598 0.031512 0.083337 -0.061238 0.010706 0.070531 0.015550 -0.035071 -0.000001 0.014425
0.070323 0.060112 -0.047385 0.000000 0.071971 0.086850 0.124843 0.111052 -0.091036 -0.074204 0.106881 0.101027 -0.111253 -0.079318 -0.000001 0.088641
-0.033106 -0.046358 -0.016597 0.000001 0.023884 0.035244 -0.019868 0.012760 0.049779 -0.026843 -0.071480 0.016591 0.009728 0.038549 -0.000000 0.041635
-0.000000 -0.000000 0.000000 -0.000001 -0.000000 0.000000 0.000000 -0.000000 0.000000 -0.000000 -0.000000 0.000000 -0.000000 0.000001 0.000000 0.000000
-0.000001 0.000001 -0.000000 -0.000001 -0.000000 -0.000000 -0.000000 -0.000001 0.000000 -0.000000 0.000000 0.000000 -0.000000 -0.000000 -0.000001 -0.000000
0.056508 0.088554 -0.085619 -0.000000 0.014166 0.018813 0.055314 0.059536 -0.052195 -0.096727 0.078923 0.077015 -0.048202 -0.059412 0.000001 0.009308
0.001469 -0.000016 -0.000935 0.000001 -0.000005 -0.000002 -0.000000 -0.000573 0.000938 0.000674 0.000378 0.001130 0.000087 -0.005117 0.000000 -0.000003
0.227581 0.024053 0.165280 -0.000000 0.167872 0.176782 0.273250 -0.045902 -0.214874 0.136176 0.015011 -0.128375 -0.228848 0.179563 0.000001 0.159685
0.025889 0.014715 0.035398 -0.000001 -0.038153 -0.064312 -0.023039 -0.012622 -0.023174 -0.014562 -0.013113 -0.051936 0.028662 0.042412 -0.000001 -0.041855
0.382887 0.274088 0.132925 0.000000 0.190158 0.183543 0.306376 0.127921 -0.146192 -0.358798 0.216228 0.056464 -0.161537 -0.217448 -0.000000 0.182523
0.030973 -0.004811 0.114704 0.000000 0.057090 0.046655 0.076246 -0.119061 -0.082457 0.076923 -0.000148 -0.085972 -0.114573 0.041420 0.000001 0.038392
0.006492 -0.029191 0.001657 0.000000 0.030352 0.011783 -0.012987 0.041835 0.013138 -0.055400 -0.021747 -0.033657 0.018508 0.032525 0.000000 0.000456
0.139629 0.409218 -0.118044 -0.000001 -0.090128 -0.054254 0.036710 0.054051 0.002467 -0.050319 0.389558 0.232373 -0.003078 -0.294151 0.000000 -0.069707
-0.062455 -0.084957 -0.028201 0.000000 0.154889 0.087735 -0.061433 0.039694 0.099361 -0.182267 -0.066432 0.065425 0.024910 0.062839 0.000000 0.110608
-0.301649 -0.385528 -0.334415 0.000002 0.160431 0.160468 -0.111027 0.553281 0.159589 0.107256 -0.357352 0.088087 0.157133 0.410073 -0.000001 0.115201
0.081313 -0.025525 0.111587 -0.000000 0.028874 0.024573 0.054680 -0.071367 -0.055242 0.084391 -0.008334 -0.055246 -0.060085 0.023652 0.000000 0.029724
-0.008651 -0.013297 -0.021885 -0.000000 -0.010095 -0.023260 -0.018444 0.031935 -0.009017 0.035333 -0.009226 -0.008830 0.022106 0.010991 -0.000001 -0.015049
0.012909 -0.003049 0.033628 0.000000 -0.136487 -0.142611 -0.097194 0.102649 -0.068795 -0.140417 -0.058567 -0.164345 0.157509 0.041269 -0.000000 -0.119119
0.846590 0.444592 0.778609 0.000000 -0.627000 -0.660178 -0.431896 -0.259128 0.275690 -0.569817 0.203483 -0.964872 0.880760 -0.017272 0.000001 -0.619378
-0.042503 -0.067842 -0.066129 -0.000001 -0.023100 -0.013763 -0.023452 0.030751 0.007270 -0.004916 -0.043608 -0.026768 0.009445 0.018982 -0.000000 -0.012176
0.158580 -0.191293 0.300378 -0.000000 0.049962 0.014436 0.131027 -0.316047 -0.020737 0.109387 -0.157050 -0.243755 -0.165556 0.095127 0.000001 0.074000
0.073587 -0.147308 0.160338 0.000000 0.020571 -0.021850 0.071301 -0.108012 -0.116738 0.152615 -0.101198 -0.193559 -0.057019 0.151099 -0.000000 0.029766
-0.042481 -0.062674 -0.020338 0.000000 0.145662 0.095956 -0.011959 0.045229 0.090336 -0.133304 -0.078964 0.066164 -0.015619 0.067726 0.000001 0.152345
0.003656 -0.299647 0.062108 0.000000 0.087283 0.061958 0.011183 0.008939 -0.083024 0.071599 -0.280046 -0.182340 0.032625 0.259964 -0.000000 0.085017
-0.032956 0.227304 0.112799 0.000000 -0.155253 -0.151434 -0.063757 -0.251397 0.259906 0.044179 0.230842 0.206461 0.057158 -0.356134 0.000001 -0.123613
0.108083 0.292247 -0.315404 0.000001 0.277782 0.411682 0.145233 0.422873 -0.122689 -0.293039 0.268977 0.382712 -0.149962 -0.152449 0.000000 0.270197
0.084516 0.017871 0.058595 -0.000000 0.056598 0.036240 0.116246 0.017163 -0.087158 -0.010782 0.030319 0.001889 -0.120386 -0.013871 0.000000 0.044669
-0.063506 -0.053223 -0.142501 -0.000000 0.173099 0.128498 -0.060588 0.130458 0.078301 -0.213741 -0.074411 0.070570 0.025808 0.019019 -0.000000 0.099453
0.309883 -0.087013 0.544472 0.000000 -0.139132 -0.276693 0.148105 -0.170081 -0.432783 0.413902 -0.155563 -0.579647 0.167916 0.256428 -0.000001 -0.175257
-0.066720 0.079595 0.028492 -0.000001 0.019180 -0.035997 0.068781 -0.191114 0.011695 0.236848 0.099337 0.069642 -0.106035 -0.047861 -0.000002 -0.032490
-0.253970 0.033929 -0.151937 0.000001 -0.001382 0.012322 -0.155012 -0.064024 0.301969 0.024757 0.084395 0.426247 0.031595 -0.099898 -0.000000 -0.018364
-0.224801 -0.085465 -0.107739 -0.000002 0.009667 0.102181 -0.136081 -0.002139 0.282381 0.048674 -0.011231 0.398420 0.044186 -0.006001 0.000000 0.059457
0.252242 0.179665 -0.046241 0.000002 0.252517 0.234265 0.353245 0.112925 -0.320069 -0.152843 0.162623 0.057324 -0.314392 -0.086190 -0.000000 0.207406
0.119638 0.130609 0.081808 0.000000 0.113521 0.155223 -0.029917 0.036996 0.129283 -0.385091 0.126499 0.123089 0.066299 -0.071495 -0.000001 0.150200
0.156452 0.062520 -0.059140 0.000000 0.450043 0.450706 0.463689 0.059597 -0.196591 -0.074810 0.011894 0.179822 -0.405364 -0.123022 0.000000 0.429556
0.064309 0.041571 0.066611 0.000000 -0.030950 -0.025286 -0.014051 -0.042366 0.036064 -0.068426 0.068261 -0.034714 0.014397 -0.034454 0.000001 -0.046907
0.153894 -0.145662 0.261047 0.000001 0.138718 0.102746 0.211423 -0.177738 -0.110028 0.187980 -0.095479 -0.179905 -0.194336 0.153369 -0.000000 0.146867
0.023871 -0.305370 0.221089 -0.000001 0.057687 -0.012742 0.165820 -0.130198 -0.342788 0.454695 -0.241024 -0.405131 -0.078509 0.324899 0.000001 0.034065
-0.012999 -0.116382 -0.061775 -0.000000 0.001614 -0.035942 -0.015649 0.115435 -0.109931 0.030949 -0.145064 -0.096758 0.082284 0.131194 0.000001 -0.034040
0.004135 0.016452 -0.007565 -0.000001 0.011741 0.007786 0.004617 0.006385 -0.021259 -0.006755 0.013442 0.003323 -0.009103 -0.022004 0.000001 0.005049
0.084867 -0.453534 -0.309425 0.000001 -0.120755 -0.128516 0.375488 0.655218 -1.271140 0.572800 -0.472734 -0.322146 -0.139278 0.665231 0.000000 -0.119577
0.094332 0.177713 -0.061543 -0.000000 0.240173 0.220964 0.255114 0.024720 -0.080516 0.030987 0.244013 0.348749 -0.285976 -0.127426 -0.000001 0.248458
0.022894 0.338017 -0.295951 -0.000001 0.169277 0.157013 0.100834 0.274308 0.042051 -0.339275 0.283159 0.479923 -0.030615 -0.266249 0.000000 0.161630
-0.008363 -0.042645 -0.057032 -0.000000 -0.023898 -0.026031 -0.024715 0.043518 -0.054525 0.030117 -0.031373 -0.039507 0.024459 0.048491 -0.000000 -0.037590
-0.122607 -0.109922 -0.177111 0.000000 -0.104046 -0.086044 -0.055791 0.128750 -0.185444 0.243043 -0.095711 -0.000171 0.050657 0.113970 -0.000000 -0.091869
0.003372 0.012647 -0.025895 0.000000 -0.026131 -0.017373 -0.012200 -0.012613 0.026155 0.012695 0.013780 0.063486 0.005380 -0.047451 0.000001 -0.009867
0.000000 0.000000 0.000001 0.000000 -0.000001 0.000000 0.000000 -0.000000 0.000000 0.000000 0.000000 -0.000000 -0.000000 -0.000000 -0.000000 -0.000000
0.074029 0.127278 -0.090886 -0.000000 0.046704 0.060893 0.140186 0.084891 -0.168495 0.053336 0.108089 0.064013 -0.144603 -0.083614 -0.000000 0.053933
-0.016000 0.010443 0.016830 -0.000000 0.007636 0.001572 0.003998 -0.028078 -0.001594 0.034128 0.018751 0.019034 -0.019883 0.015143 -0.000001 0.012462
0.217126 0.312540 0.215367 0.000001 -0.308334 -0.304076 -0.099321 -0.152228 0.129464 0.059453 0.327738 -0.159676 0.142535 -0.204937 0.000001 -0.287746
0.007063 0.051673 -0.076945 -0.000000 0.237827 0.200659 0.091750 -0.022152 -0.022459 -0.104974 -0.017953 0.047973 -0.118377 -0.061212 0.000001 0.183370
-0.176631 -0.107817 -0.098505 0.000000 0.062537 0.105670 -0.197801 0.075166 0.250953 -0.129186 -0.107941 0.105850 0.126872 0.059805 0.000001 0.030078
0.011579 0.018975 -0.026934 0.000001 0.020331 0.009725 0.001981 0.025621 -0.033226 -0.019861 0.004408 0.018331 -0.008495 -0.014655 -0.000001 0.012577
-0.414395 -0.186995 -0.130377 -0.000002 0.035302 0.027041 -0.254331 0.019429 0.426286 0.032775 -0.102901 0.257123 0.180997 0.016677 0.000000 0.041632
-0.002429 -0.005614 -0.012982 0.000000 -0.002427 -0.025426 0.005329 0.016065 -0.060498 0.023462 -0.009046 -0.058445 0.005803 0.028653 0.000000 -0.020644
0.013304 -0.145045 0.093879 -0.000000 0.072714 0.097725 0.073351 -0.130484 -0.023613 0.056348 -0.067264 -0.105100 -0.091019 0.110151 0.000000 0.057622
0.003990 0.015600 -0.012592 -0.000001 0.001354 0.002122 0.012214 0.012569 -0.003692 -0.004982 0.023928 0.012415 -0.002534 -0.005993 0.000000 0.001606
-0.199237 -0.203337 -0.154496 -0.000001 0.353703 0.299335 -0.076573 0.078982 0.175571 -0.279827 -0.206885 0.176994 -0.019146 0.152759 0.000001 0.246764
0.000000 0.000001 -0.000000 0.000000 -0.000000 0.000001 -0.000000 -0.000001 -0.000000 0.000000 -0.000000 0.000000 -0.000000 0.000000 -0.000000 0.000000
-0.003155 -0.008693 -0.007177 -0.000001 -0.003757 0.003382 0.011426 0.011885 -0.015336 -0.002319 0.006427 0.003673 -0.001920 0.002959 0.000000 0.002296
0.021037 0.003983 0.018276 0.000001 0.006644 0.022475 0.023368 -0.032603 -0.011261 0.015359 -0.003188 -0.016819 -0.031495 0.006022 -0.000000 0.028591
1.742235 1.692798 -1.247954 0.000001 1.386715 1.319429 1.768574 1.824376 -1.471828 -1.535214 1.703174 1.546541 -1.496184 -1.412147 -0.000002 1.328101
0.011655 0.022109 0.004724 0.000000 -0.031668 -0.038937 -0.051417 -0.041173 0.050726 0.011703 0.037930 0.019015 0.005093 -0.021381 0.000000 -0.053738
0.058677 0.098018 -0.025440 0.000001 0.012074 0.047853 0.107470 0.082974 -0.094783 -0.071832 0.111746 0.059066 -0.065483 -0.058663 -0.000000 0.048965
0.028116 0.007928 -0.000000 0.000000 0.009327 0.011711 0.007100 0.011927 0.000007 0.000001 0.012823 0.004779 -0.000000 0.002593 -0.000001 0.001034
-0.003557 0.388831 0.116623 0.000000 -0.140858 -0.085032 -0.118712 -0.260875 0.359307 -0.097638 0.385475 0.202180 0.088312 -0.379020 -0.000001 -0.118576
-0.012218 -0.000001 -0.006889 0.000000 0.028576 0.012638 -0.007922 -0.003755 0.013338 -0.028085 -0.000003 0.007289 -0.002119 0.003352 -0.000000 0.014152
0.067278 0.075497 -0.060480 -0.000000 0.040334 0.047368 0.103428 0.069181 -0.087140 -0.068231 0.078336 0.058052 -0.077904 -0.041267 -0.000000 0.044162
-0.003212 -0.121062 -0.054723 -0.000000 -0.099475 -0.100449 -0.063764 0.152252 -0.194998 0.045403 -0.213463 -0.136447 0.113252 0.159167 0.000001 -0.086710
-0.280689 -0.079563 -0.181190 0.000001 0.107772 0.183791 -0.160207 0.063071 0.200630 -0.132153 -0.034903 0.267011 0.051257 -0.019642 -0.000001 0.123113
-0.009392 0.008763 0.028461 -0.000000 0.018726 0.008717 0.011171 -0.050035 0.014892 0.030688 0.013600 0.019754 -0.027098 -0.000915 0.000001 0.025894
-0.474587 -0.197788 -0.666119 -0.000001 0.354318 0.449486 -0.214198 0.668726 0.296331 -0.366910 -0.132642 0.490142 0.128276 0.076218 0.000001 0.407103
-0.318335 -0.188167 -0.126134 -0.000000 0.103958 0.165772 -0.224434 0.043796 0.273482 -0.109760 -0.142816 0.180534 0.118074 0.069853 0.000000 0.117228
0.177815 0.026147 0.125331 -0.000000 -0.000959 0.025724 0.192166 0.034037 -0.286278 -0.019844 -0.042185 -0.256567 -0.074746 0.112623 0.000000 0.023999
0.172181 0.098576 0.169665 0.000000 -0.105100 -0.107667 -0.063579 -0.109787 0.030715 -0.150175 0.034532 -0.133475 0.119282 -0.057017 0.000000 -0.093297
-0.000001 -0.000000 0.000000 0.000000 0.000000 -0.000001 0.000000 0.000000 -0.000000 -0.000000 -0.000000 -0.000001 -0.000000 -0.000000 -0.000000 0.000000
-0.000930 -0.026774 -0.041071 -0.000001 -0.002999 -0.033852 0.009828 0.010187 -0.050122 0.028642 -0.003300 -0.047123 0.010736 -0.014515 0.000001 -0.029478
-0.002618 0.051621 -0.041468 -0.000001 0.002297 -0.008884 0.059667 0.002979 -0.021517 0.001361 0.061598 0.069321 -0.033686 -0.076013 0.000000 -0.017089
-0.029216 0.123727 -0.324838 0.000000 -0.157734 -0.165843 -0.138587 0.222710 -0.059725 0.013575 0.092623 0.153857 0.200949 -0.128198 -0.000000 -0.194469
-0.059615 -0.064830 -0.010441 -0.000000 0.015785 0.014941 -0.085410 0.016693 0.073203 -0.017006 -0.027273 0.038810 0.026808 0.042497 0.000000 0.000987
0.109194 -0.057142 0.297339 -0.000000 0.174517 0.138449 0.251600 -0.130258 -0.173753 0.252120 -0.054967 -0.168117 -0.183103 0.127118 0.000002 0.153284
0.003091 -0.103975 -0.162123 0.000000 -0.123844 -0.131715 -0.040029 0.170514 -0.171901 0.082245 -0.100868 -0.112283 0.072096 0.144315 0.000000 -0.136364
-0.032850 -0.095432 -0.010564 0.000001 0.016846 0.015796 -0.065842 0.016692 0.002924 -0.028918 -0.066294 0.014220 0.032122 0.041369 -0.000000 0.007050
-0.333397 -0.140091 -0.036428 -0.000001 0.038060 0.051559 -0.119949 0.006051 0.275799 0.316107 -0.017306 0.287637 0.053512 0.020341 0.000001 0.023699
-0.000000 0.000000 0.000001 0.000000 0.000000 0.000000 0.000000 0.000000 -0.000000 -0.000000 -0.000001 -0.000000 -0.000000 0.000000 -0.000001 0.000001
0.005245 -0.000434 0.009432 -0.000000 0.002896 -0.008917 -0.004888 0.006982 -0.015881 0.004544 -0.006050 -0.004771 0.000078 -0.004252 -0.000001 -0.003767
0.018402 -0.102169 0.026203 -0.000000 0.002902 -0.010674 0.070353 -0.011719 -0.114846 0.106046 -0.068282 -0.132645 -0.090937 0.090583 -0.000001 -0.013249
-0.058114 -0.061293 0.022351 -0.000000 0.065453 0.083235 -0.039703 0.019158 0.049141 -0.032980 -0.053187 0.038012 0.023004 0.073031 -0.000001 0.050990
-0.005338 -0.068099 -0.011683 -0.000001 -0.062988 -0.070299 -0.021515 0.085102 -0.158110 0.040835 -0.060076 -0.159910 0.053202 0.140084 -0.000000 -0.068439
0.203457 0.226727 0.265457 -0.000000 -0.022317 -0.057537 -0.016820 -0.223859 0.212599 -0.090468 0.236769 -0.086000 0.113082 -0.085075 -0.000001 -0.017247
-0.044753 -0.066347 -0.013642 -0.000001 0.047722 0.026289 0.011530 0.008665 0.066442 0.010990 -0.089647 0.003312 0.003780 0.079410 0.000000 0.079839
0.088515 0.013854 0.143726 0.000001 0.068235 0.046549 0.225908 -0.172088 -0.105753 0.222243 0.086676 -0.004678 -0.204431 -0.012920 -0.000000 0.068377
0.007971 0.077549 0.056855 -0.000000 -0.064474 -0.043969 -0.030395 -0.094730 0.080974 0.030282 0.115324 0.096744 0.003783 -0.090719 -0.000001 -0.021188
-0.041292 0.057101 -0.019642 -0.000000 -0.035025 -0.014944 -0.012388 -0.069589 0.056402 0.066868 0.082243 0.101833 -0.018009 -0.035641 0.000001 -0.021882
0.026855 0.022914 -0.061058 0.000001 0.043686 0.049124 0.062183 0.045811 0.005117 -0.068621 0.025666 0.057165 -0.020818 -0.085012 0.000000 0.044145
0.000001 0.000001 0.000000 0.000000 -0.000000 0.000000 -0.000000 -0.000001 0.000000 0.000001 0.000000 0.000000 0.000000 -0.000000 0.000000 0.000000
-0.000001 0.000000 -0.000000 -0.000000 -0.000000 0.000000 -0.000000 -0.000000 0.000001 -0.000000 0.000000 0.000000 0.000001 0.000000 -0.000001 0.000000
0.069441 0.081502 0.140739 -0.000001 -0.046899 -0.077917 -0.021124 -0.107848 0.075198 -0.013686 0.071607 -0.028390 0.033906 -0.059926 0.000000 -0.063841
-1.066728 0.293929 -1.037080 -0.000001 -0.738147 -0.555190 -0.634563 0.393063 0.495899 0.813970 0.415660 1.094617 0.686929 -0.387254 -0.000000 -0.632059
-0.033504 0.054203 -0.038908 -0.000000 -0.048430 -0.054985 -0.023334 -0.019542 0.064149 0.082581 0.062147 0.105556 0.004853 -0.124043 0.000001 -0.071735
0.021139 -0.018308 0.082522 -0.000000 0.021784 0.008082 0.049301 -0.055265 -0.045561 0.029424 -0.013311 -0.034820 -0.074152 0.015754 -0.000001 0.030816
0.032801 -0.096138 0.116984 0.000000 0.063896 0.009483 0.054104 -0.085873 -0.096073 0.112241 -0.073330 -0.106286 -0.060800 0.069621 0.000000 0.049015
0.009598 0.013967 -0.019352 -0.000000 -0.005928 0.002803 0.029085 0.009071 -0.001097 -0.013646 0.024908 0.019062 -0.013829 -0.028059 -0.000001 0.008814
-0.000002 -0.002983 0.000000 0.000001 -0.006512 0.000643 -0.000002 -0.009647 0.002998 0.007460 0.008027 0.010345 0.000328 -0.007002 -0.000001 -0.003556
-0.000361 -0.011604 -0.015696 -0.000000 -0.004735 0.000168 -0.012696 0.024995 -0.019639 0.017106 -0.022673 -0.007210 0.015089 0.016291 -0.000000 -0.001875
0.089663 0.084282 -0.071261 -0.000001 0.032599 0.020154 0.117158 0.178025 -0.164649 -0.076565 0.023669 -0.020896 -0.065610 0.003510 -0.000000 0.030134
0.183512 0.022311 0.306699 0.000001 0.262782 0.305755 0.170687 -0.265444 0.186033 -0.064448 -0.005027 -0.038051 -0.279889 -0.003340 0.000001 0.317989
-0.018267 0.235524 0.057629 -0.000001 -0.132609 -0.129053 -0.076358 -0.186356 0.222359 0.004537 0.219997 0.083177 0.074440 -0.259083 0.000000 -0.123800
0.143221 0.102891 0.201905 0.000000 -0.054803 -0.038649 -0.053676 -0.123291 0.118756 -0.148267 0.102467 -0.057728 0.059846 -0.069905 0.000000 -0.057209
0.193644 0.121469 0.191262 -0.000000 -0.136259 -0.144768 -0.169300 -0.167800 0.152903 -0.119718 0.073688 -0.138152 0.066291 -0.064171 -0.000000 -0.130775
-0.149046 0.077307 -0.051976 -0.000001 0.150392 0.136429 0.095015 -0.151544 0.237311 0.242756 0.126202 0.401750 -0.163661 -0.069025 0.000001 0.214679
0.000000 0.000000 0.000001 0.000000 -0.000001 -0.000000 -0.000000 0.000000 -0.000000 0.000001 0.000001 -0.000001 0.000001 0.000000 -0.000000 0.000001
0.000000 0.000000 -0.000000 0.000001 0.000001 -0.000000 0.000000 -0.000000 -0.000000 -0.000000 -0.000000 0.000000 -0.000000 -0.000000 -0.000000 0.000000
-0.000000 0.000000 -0.000000 0.000000 0.000000 0.000000 -0.000001 0.000000 0.000001 0.000000 -0.000000 0.000000 -0.000000 -0.000000 -0.000000 -0.000000
0.008231 -0.010077 0.046292 -0.000000 0.021780 0.022173 0.038092 -0.017029 -0.023433 0.014931 -0.002321 -0.022407 -0.037554 0.020626 0.000000 0.022759
-0.008868 -0.024345 -0.066879 -0.000001 -0.089367 -0.072433 -0.037824 0.053880 -0.083670 0.063224 0.011329 -0.029410 0.092757 0.058702 -0.000000 -0.076786
0.005924 0.006656 0.000961 -0.000000 0.000007 -0.000002 -0.003663 -0.008208 0.005011 -0.005264 0.008142 0.000003 0.002604 -0.005391 -0.000000 -0.000000
0.038038 -0.088279 0.081203 0.000000 0.050412 0.019905 0.058894 -0.055992 -0.081924 0.081740 -0.056022 -0.077597 -0.064166 0.044483 0.000000 0.017782
0.110725 0.247908 0.094373 0.000001 -0.115402 -0.059903 -0.022594 -0.096316 0.106974 -0.166585 0.190987 0.094621 0.013966 -0.242903 0.000000 -0.113008
0.009050 0.015588 -0.012501 0.000001 0.011931 0.009777 0.006190 0.009596 -0.017595 -0.012985 0.007574 0.004371 -0.012320 -0.022160 0.000001 0.003326
0.027589 -0.154662 -0.046158 0.000000 0.010816 -0.029154 -0.014436 0.136554 -0.148272 -0.000705 -0.166645 -0.154333 0.072450 0.168595 -0.000001 -0.023424
0.123519 0.063269 0.000316 -0.000000 -0.137287 -0.108783 -0.025539 0.152237 -0.244528 0.016726 -0.039998 -0.201688 0.113790 0.077485 0.000001 -0.091178
0.000000 0.000000 0.000000 -0.000000 0.000000 -0.000000 -0.000000 -0.000000 -0.000000 0.000001 -0.000001 0.000000 0.000000 -0.000000 0.000000 -0.000001
0.007369 -0.095032 -0.001960 -0.000000 -0.049426 -0.055620 -0.013119 0.054676 -0.149474 0.044600 -0.072992 -0.176183 0.025888 0.140445 0.000000 -0.054119
-0.049702 -0.036462 -0.177886 -0.000000 -0.046881 -0.009039 -0.023826 0.155505 -0.134859 -0.004851 -0.050943 0.007363 -0.000547 -0.000744 -0.000000 -0.010318
-0.038189 0.166360 -0.134853 0.000000 -0.103309 -0.085546 0.025186 -0.066804 0.007900 0.195623 0.267903 0.258104 -0.063335 -0.246148 0.000001 -0.084227
0.042159 0.027061 -0.004567 -0.000001 0.075114 0.064665 0.097296 0.021169 -0.115094 -0.008703 0.030754 0.000699 -0.089817 0.010568 -0.000000 0.055083
-0.371326 -0.166543 -0.453314 0.000001 -0.040332 -0.014623 -0.230397 0.372248 -0.157276 0.226935 -0.114400 0.172337 0.132301 0.196157 0.000000 0.010556
-0.063998 0.042278 -0.001120 0.000000 -0.066158 -0.045807 -0.036828 -0.043628 0.034704 0.085404 0.069312 0.109178 0.000597 -0.059436 0.000001 -0.047107
-0.104080 0.072969 -0.223832 0.000000 0.066271 0.064064 -0.005281 0.116376 0.074725 0.036296 0.077913 0.291565 -0.006375 -0.076276 -0.000001 0.027981
0.042022 0.042783 -0.045763 -0.000000 0.064525 0.065424 0.088535 0.085036 -0.088110 -0.074250 0.083845 0.072848 -0.104923 -0.077669 -0.000000 0.057658
0.174930 0.302774 0.259404 0.000000 -0.329165 -0.289178 -0.272272 -0.329458 0.357259 -0.173387 0.217181 -0.099633 0.164952 -0.298467 0.000000 -0.277650
-0.007213 -0.008975 -0.019026 0.000000 -0.018555 -0.022111 -0.003821 0.013463 -0.005935 0.033581 -0.008707 0.013420 0.018520 0.001504 0.000000 -0.018044
0.025417 -0.082211 0.080262 0.000000 0.058225 0.053142 0.074471 -0.122265 -0.009355 0.070979 -0.041100 -0.068531 -0.090643 0.067868 -0.000001 0.045736
0.117469 0.229347 0.068164 -0.000001 -0.154277 -0.164611 0.045944 -0.096392 -0.042236 0.037718 0.156063 0.003193 -0.007421 -0.158246 0.000001 -0.165525
0.100844 0.018405 0.057644 0.000000 -0.127110 -0.138247 -0.121550 -0.041107 0.046735 -0.067007 0.006962 -0.157881 0.068257 -0.001260 0.000001 -0.126914
-0.148188 0.092922 -0.053110 -0.000000 -0.150317 -0.098972 0.012143 -0.148520 0.131155 0.283598 0.174544 0.282583 -0.062422 -0.244149 0.000000 -0.082059
0.129627 0.049935 0.177267 -0.000000 -0.029754 -0.033237 0.015936 -0.118386 -0.005154 0.010369 -0.012997 -0.133992 0.012760 -0.004038 0.000001 -0.045903
0.110277 -0.283353 0.379483 -0.000001 0.211196 0.172524 0.253502 -0.315593 -0.151335 0.269932 -0.197781 -0.321585 -0.241463 0.274699 0.000001 0.151848
-0.080613 0.021497 -0.050141 0.000000 -0.129934 -0.134072 -0.081464 -0.081295 0.023399 0.117231 0.065454 0.047050 0.015306 -0.007784 0.000000 -0.123858
-0.000000 -0.000000 -0.000000 -0.000000 0.000000 0.000000 -0.000000 0.000000 0.000000 -0.000000 -0.000000 0.000001 0.000000 0.000000 -0.000000 -0.000000
0.000001 0.000001 -0.000000 -0.000000 0.000000 0.000000 -0.000000 -0.000000 -0.000001 0.000001 -0.000001 0.000001 0.000000 0.000000 -0.000001 -0.000000
0.100565 0.099178 0.119257 -0.000000 -0.061632 -0.055380 -0.047519 -0.078492 0.053353 -0.096107 0.078040 -0.061745 0.065984 -0.061853 0.000000 -0.040383
0.106156 0.031380 0.070438 -0.000000 -0.064909 -0.089187 -0.046903 0.016822 -0.003271 -0.040104 0.001012 -0.192415 0.116481 0.035409 0.000000 -0.056024
-0.278019 -0.304181 -0.069150 -0.000001 0.192419 0.230236 -0.191012 0.148146 0.232041 -0.255034 -0.283355 0.082555 0.127251 0.207616 0.000000 0.172015
0.022919 -0.074284 0.113161 -0.000000 -0.037706 -0.002709 -0.120129 0.033738 0.145389 -0.167714 -0.096876 -0.113617 0.197201 0.159151 -0.000000 0.004089
0.001068 0.001134 -0.003701 0.000000 0.004423 0.005283 0.000172 0.007343 -0.013093 -0.008925 0.000384 0.002044 -0.009986 -0.008065 0.000001 0.006464
0.009903 0.002633 0.017758 -0.000000 -0.016602 -0.020435 0.007225 -0.005229 0.009126 0.025324 0.011675 0.002848 0.017679 -0.010704 0.000000 -0.011547
0.000001 0.000000 0.000001 0.000000 0.000000 0.000000 0.000000 0.000000 -0.000000 -0.000000 -0.000000 0.000001 0.000000 0.000000 0.000000 -0.000000
-0.000000 0.000000 -0.000000 -0.000000 0.000000 0.000000 0.000000 0.000000 -0.000001 0.000000 -0.000001 0.000000 0.000001 -0.000001 0.000000 -0.000000
0.022646 -0.025153 0.007317 0.000000 0.010580 -0.006666 0.001979 0.006573 -0.004893 0.022562 -0.037799 -0.039667 0.007474 0.042793 0.000001 0.025401
-0.081112 -0.088486 -0.024777 0.000001 0.236426 0.190827 -0.033794 0.094746 0.200801 -0.269025 -0.109587 0.110973 -0.009810 0.097485 0.000001 0.241267
-0.058968 -0.136249 0.116291 -0.000001 0.190236 0.128317 -0.004528 -0.083378 0.079406 -0.072983 -0.139719 0.005287 -0.061982 0.126627 -0.000001 0.155798
-0.000000 -0.000000 0.000000 0.000000 -0.000000 -0.000000 0.000000 -0.000000 -0.000001 0.000000 -0.000000 -0.000000 0.000000 0.000001 0.000000 -0.000001
0.030971 -0.041545 0.011847 -0.000000 0.024318 0.025182 0.043800 -0.049950 -0.007101 0.040246 -0.012687 -0.035979 -0.031109 0.028331 0.000000 0.011242
0.054945 0.035127 0.003970 -0.000000 -0.012265 -0.001835 0.006732 0.016687 -0.003114 -0.017427 0.040606 0.028204 0.001238 -0.050907 0.000000 -0.006535
0.027698 0.038534 -0.011985 0.000001 0.008806 0.006510 0.017119 0.036263 -0.013997 -0.019830 0.031059 0.029183 -0.025014 -0.016984 -0.000000 0.026937
-0.016062 0.012999 -0.013717 -0.000000 0.000414 -0.005878 0.000002 -0.002652 0.007115 0.000652 -0.009279 0.007587 -0.008291 0.007003 -0.000000 -0.007487
-0.022460 -0.050584 -0.068115 0.000001 -0.038329 -0.061146 -0.026334 0.093477 -0.041569 0.027776 -0.056484 0.015078 0.072103 0.058007 0.000001 -0.034255
-0.102836 0.088589 -0.026450 -0.000000 -0.064526 -0.048472 -0.047660 -0.064359 0.088848 0.116322 0.117929 0.193339 0.000639 -0.110889 -0.000000 -0.058739
0.063696 0.062469 0.113811 -0.000001 0.000072 0.000017 -0.005378 -0.043158 0.065397 -0.079081 0.041416 -0.000106 0.018567 -0.054623 0.000001 0.000003
0.011379 -0.186255 0.180599 -0.000001 0.205106 0.151966 -0.063304 0.060262 0.135641 -0.090399 -0.247295 -0.125949 0.126288 0.269716 -0.000001 0.196836
-0.718522 -0.557101 -0.577729 0.000001 0.082517 0.177543 -0.507892 0.503426 0.330282 -0.033940 -0.460334 0.243982 0.384344 0.337423 0.000002 0.097277
0.016074 -0.009947 0.032515 -0.000000 0.005862 0.005852 0.041507 -0.025402 -0.011134 0.025903 -0.014905 -0.047993 -0.036483 0.011613 0.000000 0.027634
0.161521 0.165549 0.284291 0.000000 0.196722 0.134952 0.380694 -0.200268 -0.265703 0.559386 0.204697 -0.078076 -0.173830 0.055368 -0.000001 0.134752
-0.044554 0.694423 -0.340158 -0.000001 0.773869 0.972136 0.946428 -0.036633 -0.164325 0.450787 0.804951 1.424873 -1.130307 -0.584704 0.000003 0.822276
-0.012427 -0.054535 -0.045808 0.000000 -0.061873 -0.046531 0.060662 -0.024245 -0.159132 0.191476 0.019199 -0.064600 -0.020324 0.085342 -0.000001 -0.054425
-0.360154 -0.018859 -0.291802 0.000002 -0.135947 -0.084706 -0.219876 0.003995 0.291069 0.243890 0.049188 0.375606 0.187470 -0.039594 -0.000001 -0.139044
0.092759 0.048194 0.109670 0.000000 0.001582 -0.034512 0.005811 -0.091851 0.062688 -0.063013 0.025256 -0.088153 0.023229 -0.032191 0.000000 -0.014662
0.094021 0.183580 0.222369 -0.000000 -0.194317 -0.183264 -0.257858 -0.278979 0.382787 -0.178740 0.123159 -0.143500 0.092319 -0.118916 0.000000 -0.182089
0.091953 -0.101369 0.205534 0.000000 0.140556 0.097538 0.188098 -0.087248 -0.106857 0.163852 -0.060245 -0.076212 -0.103812 0.122132 0.000000 0.077475
-0.062627 -0.034365 0.012297 0.000001 0.023183 -0.006620 0.024153 -0.156257 0.014532 0.233810 0.019979 0.157650 -0.078136 0.056748 0.000001 0.001307
-0.014068 -0.024684 -0.018935 -0.000000 -0.018499 -0.025204 -0.012917 0.035335 -0.034745 0.023960 -0.020256 -0.013939 0.021463 0.017337 -0.000000 -0.011645
0.059290 0.201087 -0.749308 0.000001 0.702901 0.841975 0.547203 0.849667 -0.445808 -0.610228 0.205255 0.726611 -0.556794 -0.043597 0.000001 0.646940
0.065608 0.090195 0.210567 0.000000 -0.099661 -0.099006 -0.124694 -0.064257 0.272348 -0.174237 0.049454 -0.106288 0.205706 -0.052084 -0.000000 -0.038695
-0.005675 0.208951 -0.065903 0.000001 -0.192877 -0.252092 0.016775 -0.155542 0.039121 0.278168 0.264690 -0.010218 0.081342 -0.166887 -0.000002 -0.240371
0.000000 -0.000000 0.000000 0.000000 0.000000 0.000001 -0.000000 -0.000000 0.000001 0.000000 0.000000 0.000000 0.000000 -0.000001 0.000000 0.000001
-0.000000 -0.000000 -0.000000 0.000001 -0.000001 0.000000 0.000000 0.000000 -0.000000 0.000000 0.000000 -0.000001 -0.000000 0.000000 -0.000001 -0.000000
0.050277 -0.081709 0.108703 -0.000000 0.064034 0.083201 0.084904 -0.140234 0.010662 0.057266 -0.020567 -0.049664 -0.095710 0.067681 -0.000000 0.090574
-0.000001 -0.000001 -0.000000 -0.000000 0.000000 0.000001 0.000000 0.000000 0.000000 -0.000001 -0.000000 0.000000 0.000001 0.000000 -0.000000 -0.000001
0.125919 0.128854 0.166093 -0.000000 -0.064903 -0.080419 -0.040717 -0.115884 0.115656 -0.138803 0.076140 -0.125011 0.057643 -0.100798 0.000000 -0.079996
0.002222 -0.007260 -0.003204 -0.000000 -0.007563 -0.011274 -0.001307 0.006578 -0.009052 0.016718 -0.001092 -0.002855 0.002585 -0.000193 -0.000000 -0.013367
0.162454 0.324541 0.176540 0.000001 -0.200922 -0.180163 -0.059390 -0.153558 0.218144 -0.053986 0.254172 -0.007385 0.088414 -0.217908 0.000001 -0.191259
0.020137 0.043060 0.063144 -0.000000 -0.013088 -0.016963 -0.003761 -0.051752 0.023799 -0.043879 0.018891 -0.001801 0.023767 -0.024803 -0.000000 -0.010596
-0.031774 -0.064525 -0.042253 0.000000 0.047771 0.047545 -0.043744 0.065099 -0.005949 -0.050513 -0.050312 0.041312 0.000659 0.024517 -0.000000 0.053390
0.126373 0.165756 -0.114043 -0.000000 0.112568 0.114973 0.198707 0.161276 -0.119149 -0.162843 0.163530 0.121335 -0.155733 -0.138939 -0.000001 0.072824
-0.034864 0.007301 -0.029541 -0.000001 -0.000298 0.004003 0.000021 -0.005885 -0.009138 0.056104 0.014368 0.054417 -0.002471 -0.049796 -0.000001 -0.007155
-0.000001 0.000000 0.000001 0.000001 -0.000001 -0.000000 -0.000000 -0.000000 -0.000000 -0.000000 0.000000 -0.000000 0.000000 -0.000001 -0.000001 -0.000000
0.032357 -0.059699 0.086943 -0.000000 0.040496 0.049996 0.089541 -0.063244 -0.075944 0.071613 -0.087931 -0.099172 -0.059738 0.038439 -0.000000 0.026393
-0.106334 -0.023256 -0.129383 0.000000 0.005049 0.001072 -0.012417 -0.001973 -0.025243 0.112719 -0.046110 0.015371 0.007163 0.044491 -0.000001 -0.042826
-0.055334 -0.060337 -0.027722 -0.000001 0.039154 0.019077 -0.006093 0.023501 0.075030 -0.005011 -0.076986 0.020189 0.020010 0.071906 0.000000 0.064656
-0.009827 -0.007655 -0.027320 0.000000 -0.010782 -0.008348 -0.027838 -0.013230 0.034698 0.005331 -0.007955 0.057705 0.005301 -0.042079 0.000000 -0.013717
0.005544 0.068846 -0.117344 0.000000 0.079827 0.147581 0.059959 0.157528 -0.015266 -0.122479 0.011315 0.105607 -0.032782 -0.035406 0.000001 0.107221
-0.411065 -0.400902 -0.528249 0.000000 0.177583 0.246208 -0.268236 0.815511 -0.149841 -0.200645 -0.419200 0.163347 0.299105 0.477804 0.000000 0.193823
-0.010042 0.006849 0.000535 -0.000001 0.022191 0.005414 -0.001854 0.003161 0.016927 -0.005603 0.000905 0.011763 -0.001412 0.009408 0.000000 -0.001478
-0.000282 -0.138447 0.141686 0.000001 0.120035 0.069440 0.032302 -0.085651 -0.019472 0.094374 -0.102658 -0.060388 -0.037963 0.103660 -0.000001 0.101942
-0.632289 0.095047 -0.920795 -0.000001 0.105299 0.344337 -0.267227 0.729402 0.377987 -0.282107 0.120369 1.112373 0.032241 -0.206475 -0.000001 0.220406
-0.128963 0.008979 -0.048394 -0.000001 -0.102667 -0.093216 -0.103297 -0.058391 0.187445 0.125397 0.050377 0.149089 0.061630 -0.114203 0.000000 -0.116911
0.034508 -0.099853 0.067352 0.000001 0.053954 0.048928 0.089493 -0.093390 -0.029401 0.020047 -0.072381 -0.044523 -0.083125 0.020754 0.000001 0.077989
0.000863 -0.025630 -0.030636 0.000000 -0.016496 -0.023318 -0.007821 0.045455 -0.056799 0.020139 -0.038792 -0.052776 0.025175 0.046905 -0.000000 -0.006349
-0.031181 -0.030831 -0.009180 -0.000000 0.026636 0.044004 -0.005796 0.020015 0.029756 -0.006946 -0.027841 0.018068 0.010148 0.029209 -0.000000 0.028778
-0.006496 -0.001961 -0.005909 0.000000 0.000011 0.000003 -0.000006 0.012111 -0.024177 0.012062 0.000432 -0.000005 0.008270 0.010898 0.000001 -0.000002
0.138440 0.088134 0.255773 -0.000001 -0.098872 -0.113551 -0.018692 -0.203072 0.030514 -0.008233 0.077382 -0.261112 0.025236 -0.058792 0.000001 -0.144783
0.012314 0.010805 -0.000000 0.000001 0.002107 0.008279 -0.000270 0.003188 -0.000007 -0.000001 0.000135 0.009224 -0.000000 -0.000206 -0.000000 0.000144
-0.126199 0.111193 -0.096766 0.000000 0.022632 0.076274 0.049858 -0.039688 0.040129 0.149927 0.161189 0.232645 -0.101113 -0.195063 0.000000 0.040364
-0.093566 0.054446 -0.186763 0.000001 0.216305 0.203303 0.100591 0.141070 0.098113 -0.207052 0.065323 0.359202 -0.098696 0.052209 -0.000000 0.222500
-0.112328 -0.272799 -0.006376 -0.000001 0.046300 0.073050 -0.053917 0.077671 -0.052444 0.020676 -0.230278 -0.177347 0.038097 0.250305 -0.000000 0.079174
-0.043357 0.179941 -0.050241 0.000000 -0.332843 -0.351512 -0.140932 -0.014461 -0.019357 0.083755 0.150087 -0.022731 0.259289 -0.153937 -0.000000 -0.305219
-0.343236 -0.047953 -0.299114 -0.000001 -0.051559 -0.038533 -0.093153 0.006850 0.167259 0.235649 -0.012559 0.305575 0.052988 -0.081997 -0.000000 0.027169
0.267437 0.283815 0.227510 0.000000 -0.132756 -0.083659 -0.054253 -0.193872 0.234648 -0.305372 0.193409 -0.112256 0.092056 -0.232612 0.000001 -0.111079
0.023239 0.058552 -0.013561 -0.000001 0.060735 0.041272 0.071275 0.036416 -0.078182 -0.038852 0.049378 0.031317 -0.073023 -0.010731 0.000001 0.029689
0.172298 0.251125 -0.122693 0.000001 0.087890 0.108198 0.217199 0.179347 -0.171381 -0.122995 0.209545 0.152175 -0.169422 -0.191702 -0.000001 0.089778
-0.003223 -0.078434 -0.005089 0.000001 -0.072445 -0.079901 -0.028526 0.086135 -0.164041 0.035650 -0.070956 -0.178146 0.044327 0.136024 0.000000 -0.079567
0.059656 0.047783 -0.058156 -0.000001 -0.004063 0.022605 0.072470 0.106561 -0.110967 0.020658 0.045713 0.023325 -0.010252 -0.041895 -0.000001 0.003612
0.035670 0.007401 0.025977 0.000000 0.004763 -0.002912 -0.004963 -0.019289 -0.008880 -0.021631 0.012931 -0.015821 -0.013218 -0.011532 -0.000000 0.000332
0.078421 0.093720 0.062486 -0.000001 0.123108 0.111313 0.209861 0.019714 -0.186618 0.018572 0.066154 0.012178 -0.181836 0.023455 -0.000001 0.105289
0.062378 0.044064 0.067890 -0.000000 -0.069274 -0.070712 -0.067111 -0.077595 0.092135 -0.052023 0.012497 -0.043036 0.032322 -0.000139 0.000001 -0.067906
0.047770 -0.035841 0.048807 -0.000000 0.014838 0.004067 0.007944 -0.085610 -0.030090 0.064872 -0.015908 -0.038477 -0.031831 0.030149 -0.000000 0.031252
-0.114451 -0.167345 -0.154477 -0.000001 -0.059185 -0.034883 -0.034934 0.159895 -0.077923 0.073412 -0.152418 -0.037939 0.094808 0.135948 0.000001 -0.032481
0.021478 -0.035302 0.149923 0.000000 0.140896 0.085355 0.073923 -0.058011 0.003520 0.062332 -0.041523 -0.005601 -0.048218 0.070077 -0.000002 0.121074
-0.176216 -0.128464 -0.064708 0.000001 0.162299 0.170705 -0.108319 0.101677 0.164288 -0.198447 -0.159933 0.083035 0.082701 0.122938 -0.000001 0.135251
0.000825 -0.040979 0.008080 -0.000000 0.142349 0.225321 0.029677 0.097753 0.082107 -0.220361 -0.099140 0.056226 0.030843 0.008937 0.000001 0.206428
0.248330 0.308624 0.115886 0.000001 -0.116904 -0.093984 0.034004 -0.096955 0.172816 -0.135706 0.199341 -0.029583 -0.009675 -0.214962 -0.000000 -0.091129
0.027197 0.012316 -0.022838 -0.000000 0.012624 0.019231 0.033340 0.047255 -0.028537 -0.001191 0.011732 0.029246 -0.030559 -0.012378 -0.000000 0.023636
-0.006909 0.059310 0.069913 0.000000 -0.048385 -0.058587 -0.093120 -0.004135 0.141823 -0.062524 -0.001237 -0.034718 0.068199 0.006015 -0.000000 -0.027311
-0.227837 0.026934 -0.171343 -0.000001 -0.073556 -0.019239 -0.067768 0.011163 0.080118 0.198496 0.051213 0.150802 0.033722 -0.009739 0.000000 -0.028897
0.054511 0.107921 0.193360 -0.000001 0.311165 0.338912 0.188813 -0.005418 0.197834 -0.228026 0.057737 0.180092 -0.158787 0.023895 -0.000000 0.302338
0.025670 0.023729 0.061429 0.000000 0.000107 -0.000006 -0.000002 -0.040880 0.019598 -0.032055 0.016002 -0.000149 0.020548 -0.010795 -0.000001 -0.000003
0.162064 0.228642 -0.080051 -0.000001 0.095460 0.129333 0.243959 0.170630 -0.173766 -0.178558 0.164694 0.098280 -0.174874 -0.121342 0.000000 0.109792
0.046717 0.040861 -0.023770 -0.000000 -0.004423 0.004434 0.074547 0.005781 -0.013160 -0.017564 0.021288 0.020684 -0.038973 -0.059315 -0.000000 0.006314
0.016170 -0.060312 0.060802 -0.000000 -0.000629 0.015496 0.058767 -0.057259 -0.060707 0.054890 -0.047913 -0.073485 -0.064556 0.060485 0.000000 0.024820
0.075156 -0.038623 0.140639 0.000000 0.054460 0.060516 0.084066 -0.113823 0.009513 0.002748 -0.005330 -0.104709 -0.073393 0.060386 -0.000000 0.060897
0.282390 -0.557297 0.881151 -0.000000 0.637917 0.483130 0.678754 -0.522036 -0.482773 0.685200 -0.536289 -0.556099 -0.592315 0.612283 0.000000 0.559355
0.194021 0.063789 -0.028211 0.000000 -0.068908 -0.065368 -0.030376 0.097853 -0.071251 0.030517 0.041845 -0.055175 0.042617 0.062753 -0.000001 -0.060877
-0.033766 0.032755 -0.028385 0.000000 -0.028673 -0.013348 -0.000477 -0.029666 -0.023979 0.064015 0.075394 0.073629 -0.011717 -0.043218 -0.000000 -0.034344
-0.019662 -0.079657 -0.092257 0.000001 -0.101431 -0.102847 -0.035130 0.105037 -0.095988 0.138874 -0.067706 -0.013341 0.083705 0.057259 -0.000000 -0.069231
-0.039304 0.046443 -0.031902 0.000001 -0.061306 -0.048501 0.047459 -0.129340 0.028967 0.245746 0.196777 0.172265 -0.122976 -0.090388 0.000001 -0.058068
-0.163742 0.117625 -0.122134 0.000000 -0.069920 -0.080983 -0.037413 -0.085398 0.076299 0.192436 0.131573 0.228525 -0.046780 -0.144302 0.000000 -0.037736
0.044194 0.029076 0.014484 0.000000 0.055188 0.058311 0.084445 0.008584 -0.083851 0.013263 0.048341 0.025174 -0.060401 0.001967 0.000000 0.061325
0.009004 0.015017 -0.024470 0.000001 -0.025588 -0.014188 -0.005676 -0.008453 0.024430 0.010192 0.017641 0.062764 0.004919 -0.042486 0.000000 -0.005320
-0.112288 -0.064633 -0.067394 0.000000 0.126047 0.129788 0.012595 0.069707 0.051713 0.013850 -0.042285 0.216879 -0.064031 0.111085 0.000000 0.081799
-0.372016 -0.475937 -0.284233 -0.000001 0.198848 0.184966 -0.135830 0.391282 -0.245752 0.148131 -0.437437 0.037547 0.021055 0.496374 -0.000000 0.274336
0.019537 0.069963 0.039978 -0.000000 -0.077246 -0.089135 -0.051518 -0.090832 0.090926 0.031008 0.080104 0.045876 0.036293 -0.078423 0.000000 -0.096854
-0.495883 -0.195818 -0.507561 -0.000001 0.282858 0.519983 -0.439264 0.534808 0.575460 -0.460083 -0.264102 0.622251 0.147655 0.055005 -0.000001 0.356822
-0.100510 -0.090530 -0.085607 0.000000 0.106194 0.135149 -0.069334 0.133240 0.066247 -0.112303 -0.086658 0.077170 0.015899 0.068983 0.000000 0.121219
0.306239 0.187335 0.176347 -0.000001 -0.444219 -0.554164 -0.223157 -0.008286 0.004993 -0.017084 0.112312 -0.553914 0.499937 0.000581 -0.000000 -0.503180
0.071538 0.038442 -0.028650 -0.000001 0.006945 0.035916 0.085134 0.058175 -0.098211 0.017871 0.055823 0.018239 -0.023555 -0.046564 0.000000 0.016179
-0.191170 0.124939 -0.148528 0.000000 -0.129067 -0.098174 -0.085104 -0.107592 0.131951 0.034131 0.181335 0.090585 0.023369 -0.173590 0.000000 -0.148805
0.013568 -0.000006 0.035062 0.000001 0.008895 0.025053 0.006274 0.001389 -0.033539 0.044066 0.001922 0.013297 0.001367 0.012048 0.000000 0.009606
0.254709 0.245992 0.210574 0.000000 -0.121875 -0.154718 -0.118279 -0.150924 0.123505 -0.248935 0.173888 -0.115028 0.061745 -0.170008 -0.000000 -0.111904
0.166715 -0.115966 0.363926 0.000001 0.214514 0.169963 0.312142 -0.365171 -0.239647 0.319327 -0.107122 -0.302554 -0.299554 0.170409 -0.000001 0.172261
0.016671 0.015606 0.037081 0.000000 -0.000013 0.000003 0.000001 -0.012289 0.012959 -0.029648 0.005781 -0.000267 0.009578 -0.016199 0.000000 0.000003
-0.000001 0.000001 -0.000000 0.000001 0.000000 0.000001 0.000000 0.000000 0.000000 0.000000 0.000000 0.000000 -0.000000 0.000000 -0.000001 0.000000
0.150217 0.115288 0.215993 0.000001 -0.098285 -0.102397 0.018480 -0.169457 0.059503 -0.022640 0.091252 -0.142207 -0.003915 -0.069930 -0.000000 -0.101954
-0.005086 -0.018638 -0.021548 -0.000000 0.003868 -0.001904 -0.004049 0.035508 -0.018374 0.026462 -0.012435 -0.010298 0.026298 0.043044 -0.000000 -0.003423
0.001257 -0.053439 0.075257 0.000000 0.022234 0.055007 0.051168 -0.100519 -0.008758 0.131336 -0.006327 0.001083 -0.094557 0.012921 -0.000000 0.050908
0.157642 0.163813 -0.008558 -0.000001 0.035618 0.016190 0.117251 0.014859 -0.054121 0.004083 0.175546 0.092635 -0.029410 -0.052594 -0.000001 0.035083
0.036199 0.042976 -0.063628 -0.000000 0.037186 0.035364 0.059827 0.061584 -0.083196 -0.048185 0.061052 0.048772 -0.054268 -0.053991 0.000001 0.031642
0.230141 0.178773 0.234560 -0.000001 -0.282333 -0.293534 -0.183241 -0.156122 0.172666 -0.101567 0.038778 -0.391621 0.247762 0.049252 0.000001 -0.289123
0.003596 -0.039207 -0.019610 0.000000 -0.023537 -0.029544 -0.025261 0.047827 -0.032156 0.017953 -0.005326 -0.020910 0.003276 0.039911 -0.000000 -0.043472
-0.000408 0.000000 -0.005266 -0.000000 0.000001 0.000001 0.000000 -0.004486 -0.000022 0.004210 0.000001 0.000001 0.006563 0.007556 0.000000 0.000000
-0.021920 0.248394 -0.040230 -0.000000 -0.098411 -0.041705 -0.029536 -0.120180 0.207119 -0.023510 0.241410 0.187065 -0.013864 -0.270140 -0.000001 -0.063234
-0.015094 0.064287 -0.010620 -0.000000 -0.030804 -0.025227 0.002719 -0.020562 0.027417 0.049393 0.051340 0.042192 0.005897 -0.042775 0.000000 -0.028032
0.151702 0.251003 -0.205283 -0.000000 0.102164 0.133485 0.218039 0.202154 -0.207419 -0.065908 0.171682 0.134192 -0.204603 -0.055088 -0.000001 0.131517
0.000000 -0.000000 -0.000000 0.000000 -0.000001 0.000000 -0.000000 0.000000 0.000001 0.000001 0.000000 -0.000000 -0.000001 0.000000 -0.000000 0.000001
-0.000000 0.000000 -0.000000 0.000000 -0.000000 0.000000 -0.000000 -0.000000 -0.000001 0.000001 0.000000 0.000000 -0.000000 -0.000000 0.000000 -0.000001
-0.032568 0.049679 -0.009107 -0.000000 -0.007777 0.011069 0.017783 -0.060161 0.030659 0.084959 0.056556 0.067524 -0.023338 -0.056436 0.000001 0.004618
0.142770 0.098285 0.101141 -0.000001 -0.060918 -0.058596 -0.019550 -0.055308 -0.013958 -0.104831 0.073863 -0.057090 0.069463 -0.061397 -0.000000 -0.052197
0.086104 -0.127412 0.147956 -0.000000 -0.104399 -0.125006 -0.038618 -0.072430 -0.013464 0.051728 -0.192512 -0.334772 0.099894 0.138181 -0.000001 -0.090406
0.000000 -0.000000 0.000001 -0.000000 0.000000 -0.000000 0.000000 0.000000 0.000000 -0.000000 -0.000000 -0.000001 -0.000001 0.000000 -0.000000 0.000000
-0.032053 0.058027 -0.032347 0.000000 -0.058174 -0.059358 -0.007709 -0.047169 0.020379 0.106482 0.046833 0.049845 0.019049 -0.074951 -0.000001 -0.087649
-0.003992 -0.007236 -0.005490 0.000000 0.006900 0.000606 -0.003834 0.003398 0.015725 -0.009238 -0.002196 0.016841 0.001088 0.006528 -0.000001 0.003122
0.094818 0.089204 0.082456 0.000000 -0.066942 -0.037188 -0.024569 -0.070831 0.067122 -0.071390 0.047778 -0.053289 0.030351 -0.023813 -0.000000 -0.046224
0.192499 0.232562 -0.091689 0.000000 0.157270 0.187711 0.315899 0.219166 -0.169624 -0.116772 0.248626 0.212828 -0.185894 -0.157234 -0.000000 0.164305
0.069385 0.171141 -0.409971 0.000001 -0.044289 -0.011672 0.242300 0.329439 -0.395888 0.078361 0.149103 0.300880 -0.156228 -0.102833 0.000002 -0.088795
0.000000 -0.004151 -0.000005 0.000000 -0.004902 0.000282 0.000000 -0.001788 0.002503 0.006809 0.006938 0.010543 0.000913 0.000691 -0.000000 -0.000011
-0.273125 0.237829 -0.295758 -0.000000 -0.080225 -0.072186 -0.062551 0.110994 0.184266 0.124380 0.275096 0.473900 0.004385 -0.225142 -0.000001 -0.085350
0.000000 0.000000 0.000000 0.000000 0.000000 -0.000001 0.000000 0.000000 0.000000 0.000000 0.000000 0.000001 0.000000 -0.000000 0.000000 -0.000000
0.027697 0.052628 0.036013 -0.000001 -0.018080 0.002612 0.025714 -0.048386 0.017095 0.035221 0.038625 -0.015465 -0.016996 -0.019245 0.000001 0.001277
-0.009651 -0.026628 -0.073251 -0.000000 -0.030323 -0.026918 -0.011131 0.046932 -0.038846 0.007455 -0.010133 -0.017749 -0.010869 0.004383 0.000000 -0.028403
0.016226 0.027397 0.014279 0.000000 -0.022266 -0.023737 -0.015086 -0.035535 0.032934 -0.016568 0.008068 0.003089 0.011780 -0.029969 0.000000 -0.033669
0.131823 0.031627 0.123748 -0.000000 0.140690 0.119720 0.280286 0.000280 -0.207582 0.053562 0.038926 0.016934 -0.184104 0.042309 -0.000000 0.090949
0.570610 0.542539 0.579144 0.000001 0.463116 0.513127 0.175840 -0.125157 0.245132 -0.776921 0.331010 -0.001366 -0.105907 -0.204531 0.000001 0.465507
0.082086 0.081543 -0.126480 -0.000000 0.134674 0.136440 0.222386 0.167088 -0.109938 -0.132029 0.162291 0.206200 -0.187290 -0.153570 -0.000000 0.133368
0.136474 0.179240 -0.079207 -0.000000 0.111123 0.139142 0.226633 0.165776 -0.113295 -0.061652 0.214545 0.204246 -0.159293 -0.155532 -0.000001 0.124196
0.088717 -0.041183 0.053256 -0.000001 0.103246 0.121336 0.099640 -0.005324 -0.106410 0.006502 -0.043442 -0.034565 -0.107986 0.045723 0.000000 0.118407
0.226937 0.268085 0.384155 0.000000 -0.071819 -0.091372 -0.078999 -0.240577 0.259381 -0.322985 0.238399 -0.055808 0.099914 -0.265881 -0.000001 -0.084768
0.008364 0.024079 -0.018847 0.000000 0.014975 0.004275 0.029124 0.008426 -0.007494 -0.015994 0.026104 0.029681 -0.043671 -0.036502 -0.000001 0.013685
0.053098 0.085489 0.002265 -0.000001 0.042361 0.049876 0.065830 0.056570 -0.039931 -0.068359 0.041470 0.016443 -0.050995 -0.068523 -0.000000 0.051867
-0.011369 0.047117 -0.007954 0.000000 -0.008181 -0.001231 -0.007044 -0.028816 0.028548 0.069838 0.047535 0.083840 0.019027 -0.024347 0.000001 -0.009619
0.158537 0.200770 -0.112321 -0.000000 0.114993 0.118550 0.197438 0.150961 -0.082807 -0.233385 0.190597 0.128747 -0.148185 -0.193051 -0.000001 0.072113
-0.047776 -0.107406 -0.076889 0.000000 -0.040174 -0.028397 -0.032822 0.074615 -0.072794 0.050729 -0.076828 -0.021919 0.034941 0.047864 0.000001 -0.014622
0.002983 0.001644 0.000555 0.000000 -0.000008 -0.000001 -0.000005 -0.003799 -0.001549 0.000541 0.004340 0.001265 0.000727 -0.005040 0.000000 -0.000004
0.013790 0.005928 0.003415 -0.000000 -0.002123 -0.006252 0.001502 0.005147 0.000459 -0.002813 -0.000010 -0.006185 0.000897 -0.002447 -0.000001 -0.003434
0.074202 0.231576 -0.183710 -0.000000 0.143835 0.152097 0.110235 0.140553 -0.116727 -0.206444 0.129400 0.179582 -0.109369 -0.167547 0.000000 0.132349
0.108733 0.143251 0.087795 -0.000000 -0.088358 -0.075224 -0.080700 -0.153078 0.135758 -0.045683 0.109563 -0.029524 0.075135 -0.135195 0.000000 -0.092208
-0.096292 0.168703 -0.167009 0.000001 -0.076224 -0.035638 0.020561 0.057775 0.031638 0.070944 0.249963 0.334279 -0.075654 -0.204180 -0.000000 -0.067572
0.000000 0.000000 0.000000 -0.000000 0.000000 0.000001 -0.000000 -0.000000 -0.000000 -0.000000 0.000001 0.000000 0.000000 -0.000000 0.000000 -0.000000
-0.012923 -0.019214 -0.001561 -0.000000 -0.008114 -0.004635 -0.005222 0.010359 -0.005892 -0.006554 -0.009129 0.003643 0.008498 0.021716 0.000001 -0.003169
-0.029766 0.100221 0.003930 0.000000 -0.085721 -0.082846 0.018075 -0.126935 0.052143 0.172030 0.201225 0.186847 -0.040121 -0.148680 -0.000001 -0.061752
0.017655 -0.002405 0.014916 0.000000 0.008923 0.015371 0.012057 -0.027987 -0.019176 0.028386 -0.005323 -0.017296 -0.026550 0.002175 -0.000001 0.016051
0.000000 0.000000 0.000000 0.000000 -0.000000 0.000000 0.000000 -0.000000 -0.000000 0.000000 0.000000 0.000001 0.000000 0.000001 0.000001 0.000000
-0.000001 -0.000000 -0.000000 -0.000000 0.000000 0.000000 -0.000000 0.000000 -0.000000 0.000001 0.000001 0.000001 -0.000001 -0.000000 0.000001 -0.000000
-0.161519 -0.023797 -0.065028 -0.000001 -0.058165 -0.047538 -0.043974 -0.072360 -0.003046 0.260183 0.023426 0.096770 -0.049956 0.064472 0.000001 -0.055641
-0.000000 0.000000 0.000000 0.000000 0.000000 0.000000 -0.000000 0.000000 -0.000000 -0.000001 0.000000 0.000000 0.000000 0.000001 -0.000000 0.000000
-0.075470 -0.079777 -0.017376 0.000001 0.037427 0.064628 -0.045437 0.034369 0.032050 -0.055710 -0.066738 0.009663 0.009125 0.054339 0.000000 0.030948
-0.008491 0.027525 0.015845 0.000000 0.012155 0.025207 -0.051272 0.053858 0.050384 -0.058266 0.008796 0.072611 0.015945 -0.017048 0.000000 0.031582
-0.007846 0.019983 -0.009561 0.000000 -0.028392 -0.009660 -0.001096 -0.015026 0.013071 0.011089 0.022279 0.032636 0.001335 -0.008850 0.000000 -0.009251
0.008569 0.004619 -0.012323 -0.000001 0.006636 0.001693 0.008467 0.011897 -0.010608 0.003514 0.005195 0.000301 0.002039 0.018345 0.000001 -0.005572
0.024190 0.012511 0.037362 -0.000001 -0.019234 -0.021883 -0.046448 0.017617 0.053083 -0.048081 0.003700 -0.027873 0.076923 0.049087 -0.000001 -0.033562
0.126074 -0.147680 0.291893 -0.000000 0.164715 0.114826 0.254677 -0.107856 -0.144145 0.239290 -0.102083 -0.131810 -0.132783 0.185326 -0.000000 0.125998
0.055060 0.060372 -0.015305 -0.000001 0.017950 0.028427 0.070541 0.038106 -0.060890 -0.035754 0.056404 0.031109 -0.067321 -0.015636 0.000000 0.011386
-0.115807 -0.311709 -0.048338 0.000000 0.395634 0.334767 -0.055463 0.079104 0.115079 -0.326149 -0.336291 -0.001530 -0.015908 0.298256 0.000000 0.287981
0.026146 0.005503 0.065793 -0.000000 0.009208 0.016524 0.063308 -0.111197 -0.009323 0.075282 0.000027 -0.030304 -0.063510 0.035516 -0.000000 0.024725
0.008815 0.009200 -0.018614 0.000001 0.009302 0.010765 0.025510 0.022895 -0.012487 -0.035127 0.045069 0.022119 -0.027381 -0.014478 0.000000 0.005796
0.046729 0.040855 -0.023801 0.000000 -0.004610 0.004721 0.074552 0.005303 -0.013159 -0.017523 0.021351 0.020610 -0.038715 -0.059317 -0.000001 0.005456
-0.015763 -0.006307 -0.006474 0.000000 0.018737 0.012711 -0.003264 0.011760 0.016307 -0.022300 0.001225 0.015508 0.005012 0.023739 0.000000 0.015515
-0.021279 -0.009286 -0.029169 0.000000 0.014277 -0.000380 -0.018552 0.026945 0.004357 0.008901 -0.002605 -0.004778 0.013773 0.015548 0.000000 -0.013484
-0.149525 -0.179342 -0.188939 0.000000 0.274836 0.231800 -0.188893 0.171491 0.251430 -0.459727 -0.227331 0.082857 0.139576 0.162314 0.000000 0.194252
-0.026205 -0.152101 -0.136821 -0.000000 -0.063441 -0.035966 -0.047178 0.180013 -0.184856 0.128278 -0.144990 -0.078429 0.138623 0.220880 -0.000000 -0.033550
0.022257 -0.003837 0.019365 -0.000000 0.006459 0.025025 0.019679 -0.036512 -0.010688 0.015403 -0.003184 -0.019787 -0.030930 0.014483 0.000001 0.028001
-0.000000 0.000001 -0.000000 -0.000000 -0.000000 0.000000 -0.000000 -0.000000 -0.000001 -0.000000 0.000001 -0.000000 -0.000001 -0.000001 -0.000001 0.000001
-0.017343 0.003786 -0.011888 -0.000000 -0.006813 0.003101 -0.005051 -0.002670 -0.018155 0.008953 0.016623 -0.005709 0.003943 -0.022758 -0.000000 0.001521
-0.014467 0.010972 -0.015302 0.000545 -0.013137 0.001543 -0.000196 -0.005337 -0.001102 0.025263 0.012358 0.017172 0.003272 -0.011829 0.000001 -0.001325
-0.038070 -0.089917 -0.073326 0.000000 -0.101641 -0.092909 -0.046143 0.156032 -0.121102 0.062216 -0.117108 -0.090723 0.083179 0.126036 -0.000000 -0.097850
0.031006 -0.052317 0.033324 -0.000001 0.058683 0.052873 0.073924 -0.053669 -0.054221 0.088316 -0.031506 -0.071749 -0.079253 0.041630 -0.000001 0.035225
0.001266 -0.020319 0.015179 0.000000 0.019027 0.008836 0.014111 -0.005329 -0.045631 0.025346 -0.006954 -0.029469 0.002304 0.034257 0.000001 0.023697
-0.002287 -0.020109 -0.011531 -0.000000 -0.020541 -0.013816 -0.010292 0.038491 -0.037572 0.022696 -0.039962 -0.019374 0.033132 0.032957 0.000001 -0.012957
-0.000000 -0.000000 -0.000000 -0.000000 0.000000 -0.000000 -0.000001 0.000000 -0.000000 0.000001 0.000001 -0.000000 -0.000000 0.000000 0.000000 -0.000001
-0.010959 -0.010402 0.054999 0.000000 0.085160 0.067183 0.067197 -0.053776 0.043663 -0.024229 -0.016614 0.015863 -0.036378 0.034975 0.000001 0.088539
-0.000005 0.000397 -0.000652 0.000001 -0.000047 -0.000729 -0.000622 0.001548 -0.001437 -0.002610 0.000856 0.001173 -0.000142 0.002815 -0.000000 0.000016
-0.034014 -0.051899 -0.017276 0.000000 0.023766 0.036033 -0.038372 0.012957 0.064019 -0.039427 -0.072161 0.023155 0.010461 0.046274 0.000000 0.031004
0.039137 -0.154459 -0.023746 0.000000 0.053173 0.006396 0.088127 0.061284 -0.163082 0.151985 -0.125916 -0.060326 -0.043272 0.162401 0.000001 0.006907
-0.030125 -0.018534 -0.033662 0.000000 0.010539 -0.001842 -0.015807 0.036398 -0.003978 -0.001203 0.016622 0.006777 0.027893 0.022476 -0.000000 -0.025415
-0.031412 -0.076511 -0.099700 -0.000000 -0.064019 -0.093722 -0.029719 0.076980 -0.121843 0.136049 -0.098311 -0.040999 0.089772 0.053483 0.000000 -0.101908
0.017748 0.020893 -0.017643 0.000001 0.002631 0.002056 0.010527 0.015203 -0.007429 -0.026990 0.021006 0.014373 -0.014310 -0.047700 0.000001 0.000702
0.000284 0.124716 -0.043481 0.000001 -0.241591 -0.161522 0.000195 -0.144268 0.084325 0.255226 0.212260 0.216322 -0.055730 -0.129179 -0.000001 -0.202709
-0.000000 0.000000 -0.000000 -0.000001 0.000001 0.000000 0.000001 -0.000000 -0.000000 0.000000 0.000000 0.000000 0.000001 0.000000 -0.000001 0.000000
0.110943 0.125003 -0.114058 0.000001 0.125589 0.112815 0.189534 0.101159 -0.156956 -0.143178 0.124274 0.134366 -0.140241 -0.080363 0.000000 0.058590
-0.001210 -0.009327 -0.008052 -0.000000 -0.026822 -0.026982 0.003219 0.016256 -0.053753 0.014923 -0.004312 -0.008162 0.012786 0.026109 0.000000 -0.025490
0.003638 -0.088385 0.004546 0.000000 -0.055195 -0.073016 -0.018742 0.075280 -0.208163 0.064653 -0.102849 -0.245684 0.037658 0.176434 -0.000001 -0.058328
0.105633 0.224613 0.136200 -0.000001 -0.240596 -0.178726 -0.077359 -0.183511 0.126580 0.042063 0.226771 0.013087 0.066789 -0.144711 0.000000 -0.200791
-0.140512 0.110918 -0.076981 0.000001 -0.096775 -0.099559 -0.073133 -0.087128 0.128507 0.129306 0.156959 0.222625 -0.012229 -0.115402 0.000000 -0.096351
-0.000000 -0.000000 0.000000 0.000000 -0.000000 0.000001 0.000000 0.000000 0.000000 0.000000 -0.000000 0.000001 -0.000000 0.000001 0.000001 -0.000001
-0.141828 0.083637 -0.075616 -0.000001 -0.115945 -0.055904 -0.075701 -0.099436 0.039449 0.139618 0.185621 0.149363 0.006261 -0.061197 -0.000001 -0.074491
-0.000001 -0.000001 -0.000000 0.000001 0.000000 -0.000000 0.000000 0.000000 -0.000001 0.000000 -0.000000 -0.000000 -0.000000 -0.000000 0.000001 0.000000
0.049401 -0.001299 0.053205 0.000001 0.048074 0.029614 0.100543 -0.060247 -0.078790 0.025515 0.012289 -0.048550 -0.114371 -0.003891 -0.000001 0.035598
0.036924 -0.001507 0.063830 -0.000001 0.020569 0.039113 0.073799 -0.101231 -0.056883 0.059713 -0.009695 -0.068900 -0.069567 0.030170 -0.000000 0.040355
-0.000000 -0.000001 0.000001 -0.000001 -0.000000 -0.000000 0.000000 -0.000000 -0.000000 -0.000000 -0.000001 0.000000 0.000000 0.000000 0.000000 0.000000
0.000000 -0.000000 0.000000 -0.000000 0.000001 -0.000000 0.000000 0.000000 0.000000 -0.000000 -0.000000 -0.000000 0.000000 0.000000 -0.000000 -0.000000
0.105647 0.134485 -0.071493 -0.000001 0.049200 0.073798 0.176568 0.108507 -0.139267 -0.116579 0.118131 0.072918 -0.112555 -0.047982 -0.000001 0.058545
0.007977 0.009507 -0.007772 -0.000000 0.012770 0.019935 0.011195 0.007108 -0.013019 -0.007161 0.016566 0.013531 -0.023460 -0.004423 -0.000001 0.011604
0.006455 0.004093 -0.000000 0.000001 0.001191 0.003088 0.008676 0.001721 -0.000003 0.000001 -0.000460 0.006549 -0.000000 0.002363 -0.000000 0.000045
-0.000000 -0.000001 0.000001 -0.000000 -0.000000 0.000000 -0.000000 -0.000001 0.000000 0.000000 0.000001 -0.000000 -0.000000 0.000000 0.000000 0.000000
0.073113 -0.064454 0.134884 -0.000000 0.035540 0.000313 0.079577 -0.176339 -0.069579 0.150856 -0.005877 -0.049495 -0.106019 0.017799 -0.000000 0.019777
0.000128 0.056140 -0.003242 0.000000 -0.050917 -0.039238 0.000219 -0.044430 0.046766 0.051759 0.028075 0.023860 0.000910 -0.065684 -0.000000 -0.028806
0.123022 0.101980 -0.020374 -0.000001 -0.009109 0.002474 0.007099 0.100694 -0.046247 -0.069099 0.037217 -0.027147 -0.024903 -0.059472 -0.000001 0.010207
-0.009953 0.016103 -0.015880 0.000000 -0.036721 -0.031409 -0.009080 -0.028617 0.013432 0.039711 0.050710 0.061302 0.004398 -0.019692 -0.000000 -0.026156
0.163033 0.113734 0.205547 0.000000 -0.040313 -0.054875 0.019715 -0.142218 0.074210 -0.114980 0.065605 -0.164928 0.014510 -0.065248 0.000000 -0.056162
0.026904 0.020806 0.026904 0.000000 0.013762 0.027446 0.034723 0.015829 -0.057589 0.048690 0.021308 0.013547 -0.018534 -0.014164 -0.000000 0.022492
0.067489 -0.143842 0.146644 0.000000 0.035261 -0.000090 0.169354 -0.020713 -0.254975 0.176806 -0.128643 -0.278154 -0.105383 0.217232 -0.000001 -0.018093
-0.144295 0.053958 -0.142581 0.000000 -0.223850 -0.218185 -0.097475 -0.120825 0.085511 0.306952 0.171905 0.213293 0.011051 -0.123369 0.000001 -0.202417
0.038576 -0.039289 0.087016 0.000000 0.066690 0.048086 0.058906 -0.035043 -0.053088 0.050187 -0.018227 -0.017340 -0.032861 0.037268 0.000001 0.012949
0.008622 0.010944 -0.007162 -0.000001 0.001343 0.001123 0.009411 0.015192 -0.010580 -0.004535 0.023154 0.010196 -0.014981 -0.022426 0.000000 -0.000235
-0.007802 -0.007543 -0.030394 0.000000 -0.014105 -0.024346 0.006072 0.051344 -0.017692 0.031643 0.003113 0.004392 0.023070 -0.007584 -0.000001 -0.007451
0.056947 -0.026731 0.069356 -0.000000 0.101067 0.054080 0.118883 -0.082583 -0.081098 0.095392 -0.060018 -0.138770 -0.084610 0.065812 -0.000001 0.032027
0.149444 0.115786 0.048185 -0.000000 -0.065249 -0.049105 -0.007757 0.010694 -0.027178 -0.096140 0.048609 -0.068523 0.029500 -0.045895 0.000000 -0.053565
-0.023074 0.067035 -0.021167 -0.000000 -0.013891 -0.012856 -0.008143 -0.029423 0.048652 0.017543 0.083365 0.036365 -0.005860 -0.026914 -0.000000 -0.001267
-0.029511 0.101008 -0.061274 0.000000 -0.074986 -0.085227 -0.007871 -0.034450 0.049448 0.131595 0.106184 0.145549 -0.015084 -0.118160 0.000000 -0.044269
0.101289 0.173747 0.171015 -0.000000 -0.102704 -0.117441 -0.052664 -0.099168 0.111562 -0.185765 0.095357 -0.056065 0.104736 -0.117580 0.000001 -0.069654
0.074009 0.078998 0.076069 -0.000000 -0.054464 -0.042818 -0.025310 -0.033530 0.050148 -0.062535 0.048950 -0.087248 0.033442 -0.039262 0.000001 -0.061278
0.118435 0.077799 0.223364 -0.000000 0.026276 0.023133 0.039609 -0.117676 0.048240 -0.187387 0.024502 -0.122648 -0.036239 -0.073656 0.000000 -0.009208
-0.004502 -0.020171 0.000000 0.000001 0.005704 0.012191 -0.006445 0.000937 0.006200 -0.007230 -0.016626 0.001080 -0.000303 0.011340 0.000000 -0.001170
-0.010051 -0.005826 -0.000003 -0.000000 0.005972 0.007648 -0.012016 -0.006430 0.000102 -0.000581 0.003517 0.008854 0.013483 0.001183 0.000001 0.001088
-0.015058 -0.063658 -0.023264 0.000000 -0.014474 -0.013914 -0.011341 -0.012926 -0.041219 0.043343 -0.046754 -0.064192 -0.012860 0.025545 -0.000000 -0.022171
0.003426 -0.103967 -0.162084 0.000001 -0.123839 -0.131745 -0.039992 0.170514 -0.171903 0.082268 -0.100852 -0.112284 0.072080 0.144319 -0.000001 -0.136376
0.023260 -0.588309 0.272089 -0.000001 0.340956 0.238005 0.298823 0.015724 -0.293676 0.347539 -0.579676 -0.410438 -0.023491 0.744825 0.000001 0.378788
-0.044069 -0.016444 0.016592 0.000000 0.058210 0.021066 0.014394 -0.061984 0.024064 0.032566 -0.044027 0.042978 -0.014565 -0.013402 0.000000 0.010729
-0.000000 0.000000 -0.000001 -0.000000 -0.000000 -0.000000 0.000000 -0.000001 0.000001 -0.000001 0.000000 0.000000 -0.000000 -0.000000 -0.000001 -0.000000
0.006376 0.009127 0.018531 0.000000 0.000020 0.000006 0.000004 -0.003433 0.013016 -0.002706 0.010039 -0.006917 0.007318 -0.003483 -0.000000 0.000005
-0.088736 -0.117662 -0.022737 -0.000000 0.106517 0.080186 -0.062926 0.075543 0.094847 -0.119008 -0.130895 0.018170 0.035716 0.097115 0.000000 0.106922
0.109055 0.167232 -0.054510 -0.000000 0.065055 0.089426 0.152799 0.102663 -0.160559 -0.139808 0.155518 0.091307 -0.114507 -0.081791 -0.000001 0.084043
0.322803 0.336957 0.034557 -0.000002 0.075180 0.098713 0.214243 0.081088 -0.066752 -0.203663 0.246274 0.044069 -0.152625 -0.198088 -0.000000 0.083441
-0.005434 0.055865 0.106064 0.000001 0.403499 0.444575 0.153057 -0.102911 0.291980 -0.306571 0.021412 0.395283 -0.228554 -0.184298 0.000001 0.464173
0.000000 0.000000 -0.000000 -0.000000 0.000000 -0.000001 -0.000000 -0.000000 0.000000 0.000001 -0.000001 -0.000000 0.000000 -0.000000 -0.000000 0.000000
0.010626 0.001907 0.011791 0.000000 -0.004802 -0.012827 -0.008430 0.002973 -0.028075 0.000714 0.004479 -0.028447 0.014673 0.003838 0.000001 -0.002955
-0.019412 -0.078202 0.135333 0.000001 0.062267 0.045831 0.079214 -0.158707 -0.076938 0.178573 -0.019436 -0.067965 -0.134106 0.058377 0.000000 0.087042
0.043281 0.032873 -0.044278 0.000000 0.012417 0.010623 0.026374 0.026794 -0.049605 -0.011947 0.043754 0.033235 -0.039705 -0.044613 0.000001 0.005874
0.056971 -0.026740 0.069368 -0.000001 0.101122 0.054064 0.118883 -0.082568 -0.081158 0.095401 -0.060055 -0.138771 -0.084591 0.065715 -0.000002 0.031938
-0.026495 -0.065617 0.058099 -0.000000 0.000217 0.016035 -0.112752 -0.007901 0.155164 -0.104715 -0.046629 -0.008821 0.081788 0.033333 -0.000000 0.019712
0.063393 -0.095105 0.117912 0.000000 0.052753 0.040051 0.099335 -0.119951 -0.118593 0.143949 -0.089698 -0.107636 -0.083432 0.048237 -0.000000 0.027685
-0.099116 -0.031403 0.062866 -0.000000 0.073884 0.034618 -0.064323 -0.075540 0.163372 -0.008376 -0.051502 0.080228 0.050591 -0.008555 0.000000 0.018186
-0.074644 0.133003 -0.320239 0.000001 -0.205755 -0.170816 -0.149890 0.412747 -0.049022 -0.056604 0.086124 0.002907 0.328934 -0.117281 -0.000001 -0.189927
-0.014228 -0.070826 -0.042015 0.000000 0.000552 0.022609 -0.017582 0.082482 -0.106456 0.009771 -0.093867 -0.037047 0.044267 0.088365 -0.000000 0.012762
-0.003121 -0.012041 0.007322 0.000000 0.015663 -0.000389 -0.001362 -0.024474 -0.008093 0.017533 -0.010840 -0.019000 -0.013839 0.018085 0.000000 -0.003781
0.127508 0.116921 0.188833 0.000000 -0.087735 -0.112755 -0.053900 -0.138969 0.108145 -0.123860 0.055352 -0.165975 0.085247 -0.071743 -0.000001 -0.119363
-0.267520 0.094188 -0.228549 -0.000000 -0.123452 -0.090588 -0.085041 -0.079030 0.133813 0.138824 0.175043 0.189949 -0.013138 -0.181780 -0.000000 -0.135020
-0.011828 0.009492 -0.055113 -0.000001 0.048465 0.075226 0.045742 0.060742 0.022969 -0.025704 0.006392 0.104217 -0.061871 -0.030822 0.000000 0.095001
0.005465 -0.135793 0.097835 -0.000001 0.192575 0.149865 0.032449 -0.053010 0.095792 -0.137063 -0.118814 0.003637 -0.039908 0.139826 -0.000001 0.188500
0.045611 -0.058812 0.068502 0.000001 0.049565 0.046203 0.100356 -0.099481 -0.057848 0.052890 -0.029882 -0.073676 -0.123812 0.031473 0.000000 0.051299
-0.029491 -0.200211 -0.120446 -0.000000 -0.181088 -0.180179 -0.063214 0.193796 -0.146068 0.093645 -0.175632 -0.210223 0.125881 0.220002 -0.000000 -0.167926
0.175661 0.014005 0.299161 0.000000 0.006909 -0.038752 -0.125527 -0.218752 0.203863 -0.142293 -0.021091 -0.191208 0.037032 0.034857 0.000001 -0.007097
0.007039 0.005378 0.122721 0.000001 0.099469 0.070264 0.130204 -0.123802 -0.027184 0.157754 0.028657 0.070580 -0.168739 -0.035061 -0.000001 0.084691
0.071328 0.114458 0.125832 -0.000001 0.277782 0.320728 0.063918 0.013706 0.140489 -0.419170 0.011140 0.061211 -0.065364 -0.050957 0.000001 0.279955
0.037115 0.107067 0.089756 -0.000000 -0.102896 -0.137742 -0.118276 -0.112416 0.132923 -0.068309 0.069389 -0.062173 0.051374 -0.105730 0.000001 -0.083335
0.224467 0.234869 0.262972 -0.000001 0.037677 0.078453 -0.172765 -0.135098 0.300005 -0.516816 0.128088 -0.052585 0.125862 -0.151340 0.000000 0.039934
-0.082381 0.109991 -0.068171 0.000001 -0.051847 -0.026279 -0.001499 -0.059812 0.039115 0.203687 0.142320 0.204338 -0.003290 -0.143310 0.000000 -0.052446
-0.048439 -0.093881 -0.011573 -0.000000 0.056426 0.028961 -0.034164 0.035816 0.022805 0.009162 -0.074294 -0.000354 0.077226 0.094493 0.000000 0.035958
0.188194 0.037422 0.095399 0.000001 0.182640 0.186548 0.246680 0.014715 -0.151132 0.064804 0.031702 -0.005936 -0.239182 0.001224 0.000001 0.174290
0.180812 0.208695 0.273419 -0.000001 -0.164922 -0.175249 -0.167874 -0.174185 0.160020 -0.226828 0.124470 -0.249510 0.174154 -0.130963 0.000000 -0.155922
0.082135 0.098252 0.078822 0.000000 -0.036647 -0.022083 -0.013869 -0.065676 0.076385 -0.054505 0.086554 -0.042590 0.005847 -0.058807 0.000000 -0.028917
0.010073 0.013738 -0.018958 -0.000001 0.029761 0.044374 -0.006711 0.023633 0.026792 -0.039012 -0.015358 0.029527 -0.011315 0.017751 0.000000 0.029491
0.089752 0.014055 0.080525 -0.000000 0.010467 0.004640 0.012860 -0.126605 -0.013725 0.002727 -0.024258 -0.062897 -0.020590 0.006934 -0.000001 -0.013758
-0.104685 -0.001916 -0.067513 0.000000 -0.036261 -0.027092 -0.065772 -0.037656 0.112531 0.091766 0.027426 0.122027 0.028941 -0.055471 0.000001 -0.029884
-0.554073 0.233646 -0.405868 0.000001 -0.074795 0.092237 -0.242687 -0.035957 0.546648 0.117169 0.305555 0.831656 0.029888 -0.346795 -0.000000 0.033800
-0.204204 -0.136913 -0.147655 -0.000001 0.204589 0.237198 -0.125773 0.134062 0.144328 -0.308064 -0.133671 0.155801 0.033213 0.071140 0.000000 0.190969
0.072442 -0.130193 0.148864 -0.000001 0.061116 0.081031 0.116572 -0.177272 -0.066227 0.115778 -0.056722 -0.143719 -0.114905 0.110020 -0.000000 0.049174
0.005769 -0.005351 -0.006328 -0.000000 0.015900 0.003058 0.003076 0.010737 -0.009850 0.011707 -0.009455 -0.001124 0.013424 0.010316 -0.000000 -0.002221
0.013815 0.006288 0.003410 0.000001 -0.002122 -0.005562 0.001409 0.004935 0.000453 -0.001121 0.001549 -0.006372 0.002390 -0.004063 -0.000000 -0.003267
-0.012456 0.010126 -0.004706 0.000000 -0.015551 -0.003991 -0.012250 -0.012612 0.017674 0.010578 0.012783 0.033732 -0.000497 -0.019147 0.000000 -0.010461
-0.074392 -0.157123 -0.119447 0.000000 -0.042084 -0.024925 -0.043034 0.220066 -0.138043 0.057751 -0.191318 -0.088366 0.149435 0.230000 0.000001 0.003008
-0.253291 -0.147011 -0.050836 0.000002 -0.038804 -0.042129 -0.195627 0.044282 0.144992 0.058597 -0.152939 0.115777 0.110920 0.086739 0.000000 -0.018434
-0.001790 -0.000000 -0.004472 -0.000000 0.000000 0.000000 0.000000 -0.002253 -0.000001 0.003570 -0.000002 0.000000 0.004305 0.005779 0.000001 -0.000000
0.048100 -0.069638 0.084797 -0.000001 0.040523 0.062511 0.071769 -0.106000 -0.038810 0.066278 -0.022364 -0.067119 -0.079637 0.084473 -0.000000 0.036972
0.000000 0.000000 -0.000000 0.000001 0.000000 -0.000001 0.000000 -0.000000 -0.000000 -0.000000 -0.000001 0.000000 -0.000000 -0.000000 -0.000001 -0.000000
-0.059434 0.037460 -0.054676 0.000001 -0.021489 0.022303 -0.023246 -0.018386 0.050676 0.032342 0.023420 0.107736 -0.004217 -0.036390 -0.000001 0.007657
0.220762 0.173819 0.171959 0.000000 -0.121640 -0.142092 -0.022425 -0.075359 0.127521 -0.164016 0.098865 -0.191400 0.092662 -0.095748 0.000000 -0.137688
0.001279 0.000001 -0.004855 0.000000 -0.000004 -0.000000 0.000003 0.001876 -0.019041 0.006416 -0.000001 -0.000001 0.003349 0.007140 -0.000001 0.000002
-0.216078 0.309141 -0.191038 -0.000000 -0.260509 -0.146257 -0.022938 -0.135935 0.098773 0.340908 0.379712 0.452688 -0.052181 -0.334566 -0.000000 -0.184103
0.076828 -0.009688 0.152649 -0.000000 0.089018 0.065353 0.032465 -0.113255 -0.033469 -0.027141 -0.001098 -0.081609 -0.088754 0.025927 0.000000 0.069205
-0.109969 -0.094299 -0.048658 0.000000 0.076879 0.084620 -0.120893 0.087154 0.087305 -0.063257 -0.124421 0.060723 0.037757 0.066544 0.000000 0.101358
-0.001017 0.000000 0.004162 0.000000 0.003119 -0.000524 0.003394 -0.001855 -0.002160 0.001065 0.000001 -0.004950 -0.004348 -0.003243 0.000000 -0.001520
-0.000001 0.000000 0.000000 0.000000 0.000000 0.000000 0.000001 -0.000000 0.000001 0.000000 0.000001 -0.000000 0.000001 -0.000001 0.000000 -0.000001
0.000958 0.021947 -0.068132 -0.000000 -0.054239 -0.045218 -0.025727 0.056836 -0.053779 0.038813 0.013811 -0.029615 0.098407 0.065993 -0.000001 -0.064272
0.002939 -0.014685 -0.003465 -0.000000 0.030598 0.038946 -0.021329 0.017562 0.048952 -0.034352 -0.036411 0.029233 0.008174 0.025627 0.000001 0.030988
-0.000001 -0.000000 -0.000000 0.000000 0.000000 0.000000 0.000001 0.000000 0.000000 0.000001 0.000000 0.000001 -0.000001 -0.000000 0.000000 0.000001
-0.000000 -0.000000 0.000000 -0.000000 0.000000 -0.000000 0.000000 0.000000 0.000000 0.000001 -0.000001 0.000000 -0.000000 -0.000000 -0.000000 0.000001
0.024944 0.013086 0.024266 0.000001 -0.002088 -0.000789 0.000448 -0.036752 0.017587 -0.045974 0.012157 -0.027847 0.013865 -0.008910 0.000000 -0.009622
-0.002522 -0.003689 -0.000540 -0.000000 0.000001 0.000004 -0.000355 0.008518 -0.011824 0.002253 -0.010381 0.000003 0.007561 0.011518 0.000001 0.000006
0.004992 -0.230305 0.170536 0.000000 0.139853 0.111989 0.100151 -0.014968 -0.164987 0.180997 -0.229475 -0.205552 -0.042254 0.237398 0.000000 0.151110
-0.020619 -0.104360 -0.212557 0.000000 0.015100 -0.035388 -0.040737 0.246936 -0.099327 -0.089463 -0.121904 -0.039033 0.067066 0.154781 0.000000 -0.006662
0.092387 0.251576 0.156812 0.000000 -0.149772 -0.115070 -0.049353 -0.164270 0.152944 -0.136811 0.194576 0.069768 0.043365 -0.296582 0.000000 -0.147404
0.000000 0.000000 -0.000000 0.000000 0.000000 0.000000 0.000001 0.000000 -0.000000 -0.000000 -0.000000 0.000000 -0.000001 0.000000 -0.000000 0.000000
0.011990 0.005341 0.013074 0.000000 0.003266 0.002816 0.022481 -0.001538 -0.012127 0.012727 -0.001475 -0.017964 -0.030352 -0.006744 -0.000001 0.010567
0.000211 -0.006513 -0.012620 -0.000000 -0.000008 -0.000001 -0.002875 0.013930 -0.024361 0.006020 -0.001603 0.000006 0.004341 0.012267 -0.000000 -0.000003
0.000000 0.000000 -0.000000 -0.000000 -0.000000 -0.000000 -0.000000 0.000000 -0.000000 0.000000 0.000000 -0.000000 0.000000 -0.000000 -0.000000 -0.000000
0.025572 0.009836 0.013499 0.000001 -0.007154 -0.005216 -0.008654 -0.027933 0.017057 -0.022569 -0.000399 -0.024755 0.015046 -0.002644 -0.000000 -0.019035
-0.000389 -0.000013 -0.003109 0.000000 -0.000010 0.000003 0.000002 -0.000662 -0.002473 0.000056 0.001014 0.004796 0.000145 -0.005055 -0.000000 -0.000002
0.000001 0.000000 -0.000001 0.000000 -0.000001 -0.000000 0.000001 -0.000000 -0.000000 -0.000000 0.000000 -0.000001 0.000000 0.000000 -0.000000 -0.000001
-0.055796 -0.039284 -0.053445 -0.000000 0.080131 0.059590 -0.035697 0.034448 0.084200 -0.088087 -0.046580 0.067097 0.001468 0.073340 0.000000 0.063166
0.012663 0.079068 0.052362 0.000000 -0.033224 -0.056388 -0.068405 -0.059145 0.069202 -0.054713 0.026906 0.006024 0.039837 -0.070267 0.000000 -0.027842
0.051632 0.001356 0.067777 0.000001 0.037446 0.064217 0.112861 -0.108930 -0.048875 0.036370 0.007350 -0.061444 -0.099142 0.012050 0.000000 0.060276
-0.006859 0.000403 0.001558 -0.000001 -0.011810 -0.009821 0.001215 -0.004552 0.002011 0.008858 0.002618 0.005141 -0.002938 -0.000430 0.000000 -0.011920
-0.000000 -0.000000 -0.000000 -0.000000 0.000001 -0.000000 -0.000001 0.000001 -0.000000 -0.000000 -0.000000 0.000000 -0.000001 -0.000000 -0.000001 -0.000000
-0.029082 -0.021630 -0.053130 0.000000 -0.040307 -0.044934 -0.021945 0.049577 -0.037323 0.056589 -0.023366 -0.003931 0.042910 0.033449 0.000001 -0.029615
-0.411824 -0.097363 0.000101 -0.000001 -0.048230 -0.020953 -0.063719 -0.195883 0.018379 0.576655 -0.039848 0.173682 -0.105501 0.077431 -0.000000 0.034075
0.041484 0.069170 -0.051376 -0.000000 0.092867 0.112518 0.056263 0.079845 -0.057485 -0.150516 0.075894 0.090727 -0.063094 -0.027565 -0.000000 0.087943
-0.052882 0.034236 -0.068970 0.000000 -0.002581 -0.020613 -0.020554 0.013823 -0.006350 0.070055 0.009284 0.052970 0.015288 0.016590 0.000000 0.001190
0.084581 -0.324203 0.245713 -0.000001 0.187492 0.129091 0.174635 -0.093601 -0.163818 0.266539 -0.272355 -0.285243 -0.122178 0.346838 -0.000001 0.128712
0.057352 0.050195 -0.021923 -0.000001 0.035135 0.054068 0.085665 0.029561 -0.056924 -0.033366 0.066430 0.027270 -0.060775 -0.026518 -0.000001 0.041900
-0.048866 -0.050792 0.040143 0.000001 -0.021892 0.014491 -0.174807 0.007060 0.260598 -0.083328 -0.062723 0.043571 0.098381 0.036283 0.000000 0.009393
0.013987 -0.122406 -0.143213 0.000000 -0.116883 -0.123373 -0.020268 0.146495 -0.178723 0.098978 -0.108276 -0.131164 0.057656 0.160871 0.000000 -0.126969
0.370709 0.275735 0.396855 0.000001 0.102283 0.084904 -0.148496 -0.167862 0.505536 -0.702671 0.158501 -0.254252 0.272921 -0.111976 0.000001 0.061550
0.072273 0.052175 -0.030600 0.000000 0.079238 0.061177 0.112537 0.083703 -0.079933 -0.045178 0.099903 0.085544 -0.102338 -0.068860 -0.000000 0.073999
0.103641 0.057070 0.112881 -0.000000 -0.016371 -0.034436 -0.038184 -0.048134 0.039741 -0.079992 0.020155 -0.053767 0.070493 -0.005280 0.000001 -0.017911
0.049820 -0.154779 0.114823 -0.000001 0.018990 0.002696 0.103420 -0.104108 -0.128005 0.118810 -0.090358 -0.174105 -0.072999 0.154878 0.000000 0.014213
0.049938 0.032628 0.077029 -0.000000 0.000812 -0.018938 -0.000545 0.012686 0.004954 -0.045439 0.022862 -0.013482 0.032970 -0.015029 0.000000 -0.013994
-0.093750 0.137001 -0.141502 -0.000001 -0.512309 -0.478541 -0.177270 -0.063853 -0.023435 0.316029 0.168448 0.099283 0.207652 -0.156020 -0.000001 -0.457319
0.178955 -0.163489 0.388147 -0.000001 0.196720 0.132724 0.308757 -0.286700 -0.255186 0.350524 -0.142480 -0.236329 -0.294763 0.206429 -0.000001 0.155592
-0.006800 -0.032693 -0.042288 0.000000 -0.002020 -0.013787 -0.014817 0.035907 -0.040175 0.030062 -0.027142 -0.017940 0.028353 0.047274 0.000000 -0.018417
-0.000001 0.000000 0.000000 0.000000 -0.000000 0.000000 0.000000 -0.000001 0.000001 -0.000001 0.000000 0.000000 0.000001 0.000000 0.000000 -0.000000
0.046718 0.040878 -0.023771 0.000000 -0.004598 0.004457 0.074547 0.005100 -0.013313 -0.017542 0.021437 0.020689 -0.038996 -0.059310 -0.000001 0.006167
0.095829 0.054791 0.078457 -0.000001 -0.049131 -0.033870 -0.022953 -0.053861 0.020928 -0.062227 0.018931 -0.053968 0.065515 -0.031398 0.000000 -0.040020
0.037319 0.059249 -0.023479 -0.000000 0.001643 -0.007398 0.022188 0.076462 -0.050620 -0.004259 0.022035 0.013965 0.006686 0.013930 0.000000 -0.012263
0.000001 0.000000 -0.000000 -0.000000 0.000001 0.000001 -0.000001 0.000000 -0.000000 -0.000000 -0.000000 0.000000 -0.000000 -0.000000 -0.000001 0.000000
-0.109444 0.091405 -0.094166 -0.000000 -0.066924 -0.030689 -0.054308 -0.088994 0.091523 0.136214 0.153642 0.191791 -0.008256 -0.116218 -0.000000 -0.037876
0.009926 0.002395 0.024709 -0.000000 -0.002541 -0.002670 0.007470 -0.007136 0.010331 0.000003 0.007361 -0.003524 0.012840 -0.002156 -0.000000 0.003081
-0.111449 -0.075148 -0.137746 0.000001 -0.172523 -0.150449 -0.098724 0.069740 -0.136737 0.235990 -0.044413 0.016759 0.053382 0.106140 -0.000000 -0.157071
0.196276 0.152871 0.151157 0.000001 -0.104593 -0.133138 -0.026362 -0.031926 0.041369 -0.176855 0.078813 -0.224710 0.072030 -0.098107 0.000000 -0.120270
-0.005557 -0.006856 0.127525 0.000001 0.020328 -0.021811 0.084338 -0.125530 -0.003536 0.164433 0.020984 0.060119 -0.103253 0.030109 0.000001 0.030229
0.261992 -0.120556 0.310520 -0.000001 0.207233 0.178888 0.370162 -0.189621 -0.322776 0.322324 -0.059698 -0.154524 -0.378220 0.139775 -0.000001 0.203382
-0.000001 0.000000 -0.000000 0.000000 -0.000000 -0.000001 -0.000000 0.000000 0.000000 -0.000000 -0.000000 -0.000000 0.000001 0.000000 0.000000 0.000000
0.091201 -0.059457 0.144646 0.000001 0.019066 0.030613 0.082353 -0.124981 -0.093908 0.080208 -0.061684 -0.120177 -0.060804 0.029106 -0.000000 -0.008787
0.073122 -0.127239 0.203221 -0.000000 0.099323 0.097052 0.213035 -0.154544 -0.153914 0.194690 -0.165293 -0.173836 -0.138608 0.099763 -0.000001 0.059354
-0.021650 0.047718 -0.031273 -0.000001 -0.005101 -0.015536 -0.019930 -0.069972 0.034052 0.091552 0.071719 0.123140 -0.024024 -0.079182 -0.000000 -0.010369
-0.403544 0.203255 -0.137653 0.000002 -0.179157 -0.082143 -0.236111 -0.298238 0.421585 0.354389 0.390096 0.586869 -0.009903 -0.309494 0.000001 -0.123429
-0.009123 0.006709 -0.034427 -0.000000 0.034201 0.019498 0.021753 0.039278 0.003439 -0.055172 0.044408 0.034457 -0.014256 0.002288 -0.000000 0.019296
-0.000715 -0.008641 -0.008855 0.000000 0.002267 -0.002594 -0.002209 0.004293 -0.014996 0.006671 -0.001733 0.002878 0.005361 0.008567 0.000000 -0.002191
0.005917 -0.022706 -0.019789 0.000000 -0.033011 -0.027901 -0.027703 -0.006381 -0.000253 -0.034263 -0.010810 -0.059031 0.015398 0.003639 -0.000000 -0.033122
0.355456 0.317501 0.111498 -0.000001 0.206519 0.201344 0.474621 -0.048189 -0.334452 0.030151 0.308417 0.145225 -0.396959 -0.214108 0.000001 0.220588
0.089327 0.181635 -0.107498 -0.000000 0.057774 0.069325 0.141613 0.064413 -0.057957 -0.083540 0.145564 0.157633 -0.117407 -0.142303 -0.000001 0.040093
-0.007276 -0.019496 -0.002314 -0.000000 0.005863 0.020777 -0.011370 0.001824 0.003057 -0.009006 -0.016512 -0.003146 -0.000548 0.010387 -0.000000 -0.003765
-0.026042 0.005978 -0.014728 0.000001 -0.011265 -0.017841 -0.005444 0.000732 0.003698 0.029494 0.019355 0.002708 -0.011919 -0.030839 -0.000000 -0.008762
0.039382 -0.020829 0.038889 0.000000 -0.026392 -0.036502 -0.006546 0.007255 -0.037815 0.005810 -0.010693 -0.063407 0.038583 0.026156 -0.000000 -0.041799
0.018300 -0.001721 0.001472 0.000000 0.017654 0.005112 0.002292 0.016300 0.009644 -0.017631 0.012056 0.007438 0.000810 0.012442 -0.000000 0.011225
-0.000001 0.000000 -0.000000 -0.000000 -0.000000 -0.000000 -0.000000 0.000000 -0.000001 -0.000000 0.000000 -0.000000 0.000000 -0.000001 -0.000000 0.000000
-0.034737 -0.049782 -0.021411 0.000000 0.020079 0.035845 -0.009209 0.041796 0.012740 0.011807 -0.044249 0.012432 0.030542 0.062545 -0.000000 0.024600
0.038209 0.046589 0.094414 -0.000000 -0.033530 -0.046240 0.001287 -0.103078 0.068486 0.013264 0.035149 0.001558 -0.017626 -0.055921 -0.000000 -0.026509
0.000000 -0.000001 0.000001 -0.000001 0.000000 -0.000000 0.000001 -0.000000 0.000000 -0.000000 0.000000 0.000000 -0.000000 -0.000001 -0.000000 -0.000000
0.017965 0.084828 -0.139995 -0.000001 0.026101 0.042238 0.029626 0.083740 0.003572 -0.089046 0.077048 0.150684 -0.039491 -0.093184 -0.000001 0.017766
0.000233 0.001035 0.002856 -0.000001 0.000269 -0.000182 0.002963 -0.002196 -0.003449 -0.005416 0.005714 0.004047 -0.001590 -0.009235 -0.000000 0.000246
0.061013 0.001800 0.280530 -0.000000 0.193868 0.106732 0.269963 -0.256647 -0.099633 0.323629 0.032841 0.062344 -0.340336 -0.039662 -0.000001 0.173289
-0.002884 -0.000001 -0.007698 0.000000 0.000000 0.000000 0.000000 -0.003668 -0.000014 0.005826 0.000000 -0.000000 0.005204 0.009677 0.000001 0.000000
-0.374319 0.171352 -0.236319 0.000001 -0.460846 -0.425339 -0.158818 -0.147784 0.136365 0.536639 0.324875 0.211698 0.106311 -0.221412 -0.000000 -0.405162
-0.053509 0.017819 -0.029735 -0.000000 -0.033176 0.020964 -0.040479 -0.026422 0.071028 0.034090 0.012919 0.094985 0.002904 -0.049681 -0.000001 0.006297
-0.100988 -0.140979 -0.040448 -0.000000 0.026610 0.021852 -0.089247 0.100219 0.076388 0.000394 -0.116078 0.043218 0.060784 0.139183 -0.000001 0.067798
-0.532363 -0.037846 -0.452848 0.000000 -0.685894 -0.620999 -0.192488 0.275446 -0.331370 0.883533 0.044052 0.148720 0.351223 -0.067130 -0.000001 -0.603817
0.000305 -0.352526 0.056267 -0.000000 0.002538 -0.241857 -0.006586 0.104358 -0.375851 0.280174 -0.307470 -0.561889 0.226192 0.555896 -0.000000 -0.123546
0.003847 -0.000017 0.030132 0.000001 0.012660 0.020330 0.008742 -0.011500 -0.015842 0.013848 -0.000287 0.000017 -0.005488 0.014545 -0.000001 0.008650
-0.000000 0.000000 -0.000000 0.000000 0.000001 -0.000000 0.000000 -0.000000 0.000001 -0.000001 0.000000 -0.000000 0.000000 -0.000000 0.000000 0.000000
-0.000000 0.000000 0.000000 0.000000 0.000000 0.000001 0.000001 -0.000000 0.000001 0.000000 0.000001 -0.000000 0.000000 -0.000000 -0.000000 -0.000000
-0.000001 0.000000 -0.000000 0.000000 -0.000000 -0.000001 -0.000000 -0.000001 -0.000000 -0.000000 -0.000000 -0.000000 -0.000000 -0.000000 -0.000001 0.000001
0.065491 0.113130 -0.050398 0.000001 0.061006 0.048513 0.175302 0.065220 -0.191354 -0.038135 0.094698 0.074350 -0.134917 -0.058734 0.000001 0.021373
-0.000001 -0.000000 -0.000001 0.000001 0.000000 0.000000 0.000000 0.000000 0.000000 -0.000000 0.000000 0.000001 -0.000001 -0.000000 0.000000 0.000000
-0.026660 -0.096670 -0.083224 0.000000 -0.020498 -0.017522 -0.029001 0.098639 -0.114103 0.076045 -0.079825 -0.045341 0.086559 0.120973 0.000000 -0.015127
-0.033176 -0.076910 -0.028819 0.000000 -0.068468 -0.077110 -0.078261 0.049128 0.025758 0.028067 -0.063428 -0.031823 0.105160 0.071819 -0.000000 -0.073442
-0.000000 -0.000001 -0.000000 0.000000 -0.000000 0.000001 0.000000 -0.000000 0.000000 -0.000000 0.000000 0.000000 0.000001 0.000001 -0.000000 0.000001
-0.075093 -0.048086 -0.048393 -0.000001 0.064787 0.040636 -0.009291 0.024584 0.058428 -0.042567 -0.030800 0.042070 0.041619 0.022477 0.000001 0.054843
0.000000 0.000000 0.000000 0.000001 0.000001 0.000000 0.000000 -0.000000 0.000000 -0.000000 -0.000000 -0.000000 0.000000 0.000000 -0.000000 0.000000
0.008756 0.053604 0.054720 -0.000000 -0.029614 -0.057171 -0.062020 -0.075489 0.129812 -0.027423 0.053117 0.038261 0.034822 -0.026962 -0.000000 -0.005899
0.000001 -0.002170 -0.000006 0.000000 -0.007584 -0.000119 0.000003 -0.010741 0.001853 0.012152 0.008369 0.010165 0.001431 -0.009377 -0.000000 -0.006151
-0.014197 -0.017282 0.006888 -0.000000 0.006724 0.014768 -0.001446 0.002161 0.011881 0.000056 0.000186 0.012009 -0.002399 0.009800 0.000000 0.000503
0.000000 0.000000 0.000000 0.000001 -0.000000 -0.000000 0.000000 -0.000000 -0.000000 -0.000000 0.000000 0.000000 -0.000001 -0.000000 -0.000000 0.000000
0.193535 0.231128 0.337704 0.000001 -0.034262 -0.032117 -0.046657 -0.185123 0.225237 -0.290948 0.187348 -0.026843 0.082818 -0.236785 -0.000001 -0.033986
0.005331 0.370280 0.076275 0.000000 -0.236748 -0.147809 -0.061030 -0.298322 0.316628 0.053082 0.413797 0.288410 0.017761 -0.485415 -0.000001 -0.180296
-0.003085 -0.011945 0.007320 -0.000000 0.015022 -0.000319 -0.001380 -0.024436 -0.008055 0.017550 -0.010863 -0.018998 -0.013838 0.017781 -0.000001 -0.003769
-0.000000 -0.000000 0.000000 0.000000 -0.000000 0.000000 0.000000 0.000000 -0.000001 0.000000 -0.000000 0.000000 -0.000000 -0.000000 -0.000000 -0.000000
-0.012146 -0.021689 -0.012294 -0.000001 0.003990 0.010421 -0.008924 0.028137 0.000626 0.014649 -0.009827 -0.007856 0.022088 0.054887 -0.000000 -0.007259
-0.813528 -0.718454 -0.391982 0.000001 0.025274 0.072624 -0.525744 0.217202 0.466485 0.252758 -0.540889 0.299630 0.402021 0.372876 0.000001 0.125057
-0.203309 -0.188956 -0.050247 0.000000 0.033304 0.084483 -0.229924 0.054159 0.292735 -0.091835 -0.146481 0.071210 0.150784 0.124223 0.000000 0.012946
-0.002604 -0.028989 -0.070833 -0.000000 0.011586 0.000765 0.033106 0.104561 -0.083812 -0.011588 -0.063012 0.001642 -0.014804 0.030561 -0.000000 0.006474
0.093743 0.287336 0.324015 0.000001 -0.108533 -0.096732 0.056276 -0.394178 0.215973 0.143022 0.280333 0.107701 -0.028675 -0.299264 0.000001 -0.102516
0.008978 0.019238 -0.001311 0.000001 0.041639 0.020414 0.025175 0.032772 -0.009381 -0.003316 0.001484 0.034420 -0.022077 -0.000745 0.000000 0.025814
-0.020120 0.027037 -0.019810 -0.000000 -0.109595 -0.127972 -0.080988 -0.036064 0.003884 0.107326 -0.003504 -0.010599 0.077283 -0.027132 -0.000001 -0.095900
-0.000000 -0.000000 -0.000000 -0.000001 0.000001 -0.000000 0.000000 -0.000000 -0.000000 -0.000000 -0.000000 0.000001 -0.000000 -0.000000 0.000000 -0.000001
-0.030662 -0.010485 -0.027644 0.000000 0.029545 0.050479 -0.024510 0.014192 0.036893 -0.028850 0.013717 0.068593 -0.010773 0.026069 0.000001 0.038289
-0.240460 0.029690 -0.124496 -0.000000 -0.056614 -0.025846 -0.087958 0.023952 0.152034 0.232975 0.031086 0.173813 0.025647 -0.124488 0.000000 -0.011706
0.108203 0.117378 0.025546 0.000000 -0.016646 -0.036882 0.004353 -0.019962 0.049869 -0.107250 0.085891 -0.005715 0.017620 -0.063685 0.000000 -0.010064
-0.025275 0.062658 -0.022664 0.000000 -0.006877 -0.000831 -0.006575 -0.020918 0.046057 0.010185 0.080033 0.040364 -0.001427 -0.013571 -0.000000 0.011031
-0.001130 -0.002139 -0.002265 0.000000 -0.004920 -0.010398 -0.001773 0.000265 -0.020110 0.014823 0.005912 -0.002579 0.011935 0.009265 -0.000000 -0.006485
0.085845 -0.115648 0.168208 -0.000000 0.101039 0.044413 0.113438 -0.127678 -0.140761 0.181491 -0.120755 -0.140147 -0.102312 0.088951 -0.000000 0.058597
-0.074072 -0.311852 0.090436 0.000000 0.326335 0.306420 0.102653 -0.003915 -0.001649 0.087378 -0.300403 -0.009988 -0.171119 0.281976 0.000001 0.299129
0.222767 -0.098750 0.298579 -0.000000 0.015803 0.003905 0.262791 -0.333701 -0.263353 0.214106 -0.044495 -0.216985 -0.203752 0.009662 -0.000001 0.027254
0.172182 0.191083 0.131599 -0.000001 -0.121696 -0.120444 -0.039411 -0.088834 0.135578 -0.093347 0.099812 -0.137529 0.052552 -0.110987 -0.000001 -0.125782
-0.000000 0.000000 -0.000001 0.000001 0.000000 0.000001 0.000000 0.000000 -0.000000 0.000000 0.000000 0.000000 0.000001 0.000000 0.000001 0.000001
-0.000001 0.000000 0.000001 0.000000 -0.000000 -0.000000 0.000000 -0.000000 0.000000 0.000001 0.000000 0.000000 0.000000 0.000000 0.000000 -0.000000
-0.309293 -0.057201 -0.198808 -0.000001 -0.254873 -0.176333 -0.042846 -0.208466 -0.102155 0.629581 0.044596 0.254978 -0.058731 -0.085153 -0.000000 -0.181005
-0.059700 0.077179 -0.018278 -0.000000 -0.119115 -0.065407 -0.049776 -0.077380 0.027119 0.110023 0.094502 0.122707 0.001092 -0.116167 -0.000000 -0.097781
-0.371125 -0.033217 -0.326810 0.000000 -0.130554 -0.076779 -0.069026 0.014386 -0.025112 0.476472 0.079144 0.333283 -0.018716 -0.134159 0.000001 -0.104208
0.518136 0.385366 0.766670 -0.000000 -0.067233 -0.173703 0.154038 -0.500139 0.224101 -0.085263 0.296701 -0.383181 0.119853 -0.241878 -0.000001 -0.077515
-0.520380 -0.611936 -0.529121 -0.000001 0.378932 0.431245 -0.196635 0.599648 0.065637 -0.018022 -0.569742 0.223705 0.161983 0.576819 0.000001 0.442367
0.000000 -0.000000 0.000000 0.000000 -0.000001 -0.000000 -0.000000 0.000001 0.000000 -0.000000 -0.000000 -0.000000 -0.000000 -0.000000 0.000000 0.000000
0.165038 0.194645 0.070874 -0.000001 -0.029844 -0.004539 0.067831 0.021116 -0.022555 -0.187662 0.189367 0.022509 -0.016252 -0.135336 0.000001 -0.014788
-0.050366 -0.077185 -0.066934 -0.000000 -0.008840 -0.003008 -0.049943 0.079911 -0.023315 -0.016353 -0.056918 0.037091 0.045662 0.074189 0.000001 0.004736
-0.329869 -0.228179 -0.176800 -0.000001 0.354309 0.374709 -0.244298 0.282798 0.292158 -0.320901 -0.218858 0.231536 0.080755 0.217845 0.000000 0.359036
0.308569 0.322124 0.218000 -0.000000 -0.036949 -0.037320 0.048098 -0.036114 0.079424 -0.225649 0.211507 -0.120274 -0.020112 -0.150019 -0.000000 -0.026990
-0.095380 0.071626 -0.029364 -0.000001 -0.162428 -0.162075 -0.097435 -0.057228 0.123579 0.085360 0.096641 -0.004904 0.106202 -0.175504 0.000001 -0.187603
0.066129 0.062679 -0.039255 0.000000 0.022099 0.040380 0.097940 0.058063 -0.074109 -0.055990 0.062160 0.050466 -0.042659 0.009770 0.000000 0.047403
-0.002418 -0.007935 -0.007389 -0.000000 0.012131 0.012065 -0.001753 0.006873 -0.005957 -0.004994 -0.008879 0.015446 -0.001462 -0.004483 0.000001 0.022419
-0.081773 0.276749 -0.243610 0.000001 -0.039963 0.055098 -0.001000 0.145714 0.086005 -0.102184 0.278592 0.367865 -0.013612 -0.310625 -0.000001 0.043474
-0.175161 -0.055862 -0.014656 0.000000 -0.028535 0.017901 -0.139019 -0.026744 0.183000 0.034999 -0.081123 0.139574 0.052924 -0.000134 0.000001 0.029061
0.390942 -0.069668 0.330013 -0.000001 0.707143 0.663197 0.606554 -0.091333 -0.187201 -0.301524 -0.084516 -0.215989 -0.436658 0.225934 0.000001 0.635930
-0.051929 -0.104507 -0.045536 -0.000001 -0.011937 -0.026162 -0.028932 0.143550 -0.054377 0.078687 -0.177657 -0.069684 0.053492 0.115461 -0.000001 0.022676
-0.000000 -0.000000 -0.000001 -0.000001 0.000001 0.000001 -0.000000 -0.000000 -0.000001 -0.000000 -0.000000 -0.000000 -0.000000 -0.000000 0.000000 -0.000000
-0.007754 0.005632 -0.009610 -0.000000 -0.016160 -0.006158 -0.001837 -0.010199 0.032085 0.005924 0.026658 0.018770 -0.000735 -0.027215 0.000001 -0.005352
0.022346 -0.087215 0.113172 0.000000 0.072221 0.028482 0.052247 -0.095610 -0.059687 0.101453 -0.063998 -0.068016 -0.065059 0.052366 0.000000 0.057103
-0.103104 -0.066291 -0.135672 -0.000001 0.052131 -0.016670 0.070442 0.060495 -0.129196 0.334601 -0.083156 -0.016945 0.000038 0.135835 0.000001 -0.002710
-0.064480 -0.235455 -0.036057 0.000000 0.058723 0.104545 -0.030739 0.184703 0.004967 -0.019886 -0.270579 -0.092453 0.065720 0.177130 0.000000 0.125024
0.025192 0.009181 0.011882 0.000000 -0.007212 -0.005938 -0.009121 -0.021046 0.016996 -0.018105 -0.000100 -0.024752 0.018154 0.007928 -0.000000 -0.018813
-0.007422 -0.026771 -0.000001 -0.000000 0.004834 0.017947 -0.007092 0.001706 0.008044 -0.009001 -0.018609 0.001412 0.000290 0.014549 -0.000000 -0.001964
-0.383499 -0.263066 -0.270632 -0.000000 0.279539 0.316109 -0.302185 0.225789 0.461596 -0.458010 -0.264862 0.323884 0.173135 0.193722 -0.000001 0.233202
0.007295 0.123374 -0.049532 0.000000 -0.122344 -0.062900 -0.175345 -0.022555 0.233494 -0.061486 0.113013 0.142525 0.064347 -0.101065 -0.000001 -0.107294
-0.008311 -0.043746 -0.040358 -0.000000 -0.034303 -0.021764 -0.019348 0.043722 -0.033231 0.030982 -0.026664 -0.034318 0.028084 0.054774 -0.000000 -0.037625
-0.001483 -0.002514 0.001623 -0.000000 -0.000059 0.000002 0.000203 0.007853 -0.004654 0.000679 -0.000907 0.001280 -0.000034 0.007085 0.000001 0.000013
0.018615 -0.066330 0.243019 -0.000001 -0.057465 -0.080786 -0.009720 -0.221159 0.018563 0.201576 -0.021388 -0.114749 -0.037625 0.064205 0.000000 -0.069397
-0.448707 0.367995 -0.439599 0.000000 -0.127748 -0.100344 -0.080641 0.017035 0.313145 0.311807 0.381898 0.742051 0.031803 -0.364058 -0.000001 -0.096187
0.000000 -0.000000 0.000000 0.000000 0.000001 -0.000001 -0.000000 0.000000 -0.000000 0.000000 -0.000001 -0.000000 0.000000 0.000000 -0.000000 0.000000
-0.102381 0.111695 -0.057303 0.000000 -0.210498 -0.132269 -0.077968 -0.131507 0.042557 0.187474 0.108296 0.190650 0.018673 -0.178703 0.000000 -0.154018
0.247014 0.142340 0.104909 0.000000 -0.175344 -0.229744 0.000071 0.042528 -0.093563 0.006839 0.084769 -0.258039 0.138816 -0.011412 -0.000001 -0.209397
0.032109 -0.005133 0.047596 0.000001 0.018223 0.050861 0.066255 -0.033320 -0.049331 0.028559 0.002940 -0.010132 -0.029682 0.048678 -0.000000 0.051944
0.103508 0.010919 0.091645 0.000000 -0.082825 -0.082740 -0.062430 -0.060520 0.036331 -0.027011 0.005585 -0.092059 0.012288 0.018004 0.000000 -0.073531
-0.174313 -0.089772 -0.165371 0.000000 0.207623 0.218556 -0.062208 0.159660 0.223206 -0.268622 -0.101525 0.230135 0.005348 0.072888 -0.000000 0.236168
-0.000000 0.000000 -0.000001 -0.000000 -0.000001 -0.000000 -0.000001 0.000000 -0.000000 0.000000 0.000001 -0.000000 0.000001 0.000000 0.000000 -0.000000
0.076889 0.094035 -0.080325 -0.000000 0.009103 0.025421 0.107265 0.125467 -0.117157 -0.008911 0.104170 0.076256 -0.041710 -0.110444 -0.000000 0.018034
0.000145 0.009376 -0.003492 -0.000000 -0.001643 -0.021784 -0.006747 -0.022484 0.041591 0.008249 0.000863 0.025298 0.000763 -0.014117 -0.000001 -0.001135
0.002911 0.048165 -0.050775 0.000000 0.026554 0.003110 0.055236 0.010302 0.014935 -0.007531 0.057175 0.088901 -0.037322 -0.079750 -0.000000 0.006743
0.040689 -0.102291 -0.013298 0.000000 0.228192 0.165811 0.082783 0.020030 0.027550 -0.169337 -0.088477 0.041066 -0.103914 0.076831 0.000000 0.229800
-0.438598 0.136199 -0.168663 -0.000001 -0.012349 -0.006591 -0.131245 -0.184152 0.517931 0.373478 0.378852 0.717530 -0.057576 -0.336637 0.000001 -0.020460
0.143463 -0.080341 0.331354 0.000001 0.091355 0.007713 0.012839 -0.193262 0.068928 -0.046156 -0.100949 -0.253145 0.052868 0.111610 -0.000001 0.066608
-0.036033 0.031024 -0.015478 -0.000001 0.146927 0.132792 0.138226 -0.042885 -0.090632 0.120104 0.098066 0.160958 -0.211126 -0.015305 0.000002 0.107840
-0.002016 0.000858 -0.009764 0.000000 0.000780 0.000889 0.003801 0.004608 0.000102 -0.004547 0.007779 0.001191 0.000421 -0.005567 -0.000000 0.000667
0.018776 -0.078270 -0.100723 -0.000001 -0.123755 -0.132015 -0.039835 0.166178 -0.152233 0.081970 -0.082808 -0.112349 0.080601 0.144544 0.000001 -0.136330
0.025542 0.062681 -0.005452 -0.000000 0.057925 0.037570 0.068848 0.031014 -0.074250 -0.048297 0.050980 0.027535 -0.069941 -0.013460 0.000000 0.027911
0.325665 0.270500 0.311797 0.000000 -0.115358 -0.144020 -0.075748 -0.174846 0.219059 -0.288324 0.189417 -0.208431 0.099789 -0.194405 -0.000000 -0.134611
-0.201133 -0.267665 -0.182119 0.000001 0.283572 0.239636 -0.173732 0.210104 0.073113 -0.236367 -0.361864 0.018189 0.062424 0.247612 -0.000000 0.224924
0.104431 -0.076602 -0.009218 0.000000 0.121614 0.105328 0.112123 0.043730 -0.198303 0.054709 -0.097700 -0.049276 -0.099108 0.072943 0.000000 0.130186
0.053282 0.323718 0.114045 -0.000001 -0.279943 -0.285186 -0.191643 -0.051485 0.324720 -0.179312 0.249576 -0.085206 0.308236 -0.247769 0.000000 -0.270647
-0.267247 -0.307554 -0.049956 -0.000000 0.014462 0.044423 -0.548204 0.267256 0.739780 -0.492848 -0.405842 0.052560 0.771532 0.420324 -0.000001 0.132479
0.027963 -0.033689 0.029249 -0.000000 -0.001672 0.023935 0.001848 -0.039917 -0.028890 0.018834 -0.004257 -0.025039 -0.024663 0.020109 0.000000 0.001004
0.103145 -0.212070 0.118542 -0.000002 0.157583 0.069273 0.270619 -0.074553 -0.276772 0.310742 -0.179384 -0.163501 -0.204027 0.201090 -0.000001 0.095400
-0.011942 0.000591 -0.011236 0.000001 0.067245 0.023397 0.016607 0.041206 0.018102 -0.041196 0.022194 0.034953 -0.001492 0.021062 -0.000000 0.031985
0.029604 0.003381 0.062936 -0.000000 -0.042971 -0.079117 -0.020428 -0.000601 -0.018968 -0.025944 -0.008449 -0.049609 0.039479 0.032007 -0.000000 -0.050000
-0.012225 0.040146 -0.014333 0.000000 -0.017466 -0.024645 -0.002908 -0.025364 0.012299 0.037191 0.046451 0.051480 0.009280 -0.039989 -0.000001 -0.030582
0.046241 0.036001 0.090433 -0.000000 -0.019911 -0.056160 -0.020494 -0.091000 0.041353 -0.040038 0.040245 -0.033590 0.027723 -0.030486 0.000001 -0.042831
0.342828 0.270573 0.365161 0.000000 -0.077933 -0.053123 -0.014401 -0.236613 0.214040 -0.313389 0.191913 -0.241916 0.102545 -0.152763 -0.000000 -0.062200
0.005352 0.171281 -0.190286 -0.000000 0.105814 0.119523 0.112642 0.223940 -0.168708 -0.120318 0.182166 0.287252 -0.085573 -0.049429 -0.000001 0.102770
-0.042264 0.030746 -0.018814 0.000001 -0.058760 -0.053052 -0.039210 -0.015566 0.026352 0.062216 0.035653 0.075016 0.012211 -0.065501 -0.000000 -0.085952
-0.000002 0.007537 0.000002 -0.000000 0.001396 -0.005021 -0.013769 -0.004435 0.000936 0.034347 0.010099 0.000122 0.001565 -0.009222 0.000000 -0.000415
-0.036853 -0.072104 -0.086668 0.000001 0.102401 0.079346 0.018865 0.159057 -0.004335 -0.055507 -0.063654 0.092385 0.019749 0.037917 0.000000 0.074801
-0.160476 -0.148301 -0.190227 0.000000 0.188795 0.196192 -0.190501 0.488511 0.314025 -0.495443 -0.230613 -0.030150 0.360904 0.189491 -0.000000 0.253592
0.081599 0.150119 -0.062303 -0.000000 0.073455 0.070450 0.153944 0.095705 -0.081165 -0.033065 0.153696 0.117785 -0.095478 -0.074681 -0.000001 0.046846
-0.058018 0.236214 0.034876 -0.000001 0.155935 0.194111 -0.280550 -0.060940 0.773729 -0.637026 0.205117 0.516921 0.147473 -0.342451 0.000001 0.127105
-0.039052 -0.037427 -0.020095 -0.000001 0.005358 -0.006530 0.039805 -0.046010 -0.019419 0.103974 -0.003429 0.022927 -0.061087 -0.002696 -0.000000 -0.011763
0.251975 0.209540 0.220852 0.000001 -0.079031 -0.055090 0.009630 -0.158103 0.129055 -0.268933 0.152173 -0.140817 0.052911 -0.157638 -0.000001 -0.058235
-0.161179 -0.087573 -0.095575 -0.000000 0.014039 0.043301 -0.072396 -0.002974 0.139523 0.003764 0.021808 0.145969 0.016652 -0.017119 -0.000000 0.045006
0.268592 0.351683 0.210699 0.000000 -0.096121 -0.120522 0.036741 -0.181884 0.048116 -0.191802 0.283044 -0.100049 -0.053131 -0.281549 0.000001 -0.095032
0.064070 -0.033037 0.241799 0.000001 0.030390 -0.003991 0.045532 -0.074717 -0.025537 -0.090950 -0.065058 -0.137550 0.064222 0.038424 0.000001 -0.006781
0.225459 0.190854 0.126155 0.000000 -0.100518 -0.087056 -0.056231 0.089135 0.147809 -0.225444 0.036073 -0.258771 0.124271 0.016535 0.000001 -0.086942
0.107772 0.077152 0.104554 -0.000001 -0.086534 -0.087708 -0.090975 -0.108639 0.090924 -0.071720 0.039393 -0.068006 0.031705 -0.029374 -0.000000 -0.086910
-0.096478 -0.167781 -0.148129 0.000001 0.016936 0.029607 -0.069130 0.172671 0.014425 -0.025378 -0.175025 -0.020976 0.082749 0.181766 -0.000000 0.023102
-0.005875 -0.023703 -0.010877 -0.000000 -0.026529 -0.018753 -0.021567 0.000912 -0.021883 0.029704 -0.015703 -0.011667 0.023766 0.018048 -0.000001 -0.010603
-0.328065 -0.407331 -0.343396 -0.000000 0.207248 0.178357 -0.206533 0.451511 0.116724 -0.147927 -0.402918 0.044740 0.213146 0.466693 -0.000001 0.172871
0.022231 0.035642 -0.054936 0.000000 0.110417 0.092725 0.070132 0.066666 0.020087 -0.094413 0.046913 0.053672 -0.057860 -0.016099 -0.000000 0.103443
-0.052208 -0.246314 -0.300317 0.000000 -0.191225 -0.225061 -0.117122 0.362480 -0.295314 0.217606 -0.248735 -0.203815 0.236122 0.349923 0.000001 -0.217098
-0.007193 -0.012738 -0.044841 -0.000000 -0.024493 -0.012338 -0.016315 0.013068 -0.017420 0.010481 -0.006437 -0.028091 -0.003270 0.004663 0.000000 -0.023180
0.254953 -0.258171 0.335618 0.000000 0.010133 -0.082608 0.420522 -0.171339 -0.668132 0.955035 -0.233272 -0.533675 -0.190546 0.579837 -0.000001 -0.043448
0.085718 0.036736 0.155943 -0.000001 0.064541 0.082277 0.144661 -0.129757 -0.109692 0.083484 0.006576 -0.099612 -0.149308 0.046480 0.000001 0.063326
-0.133248 -0.321119 0.402947 0.000001 0.059245 0.053221 -0.225225 -0.376702 0.280353 0.165349 -0.318625 -0.177803 0.010819 0.214502 0.000000 0.060378
0.055579 0.056102 -0.047589 0.000001 0.042050 0.041351 0.089035 0.067086 -0.064595 -0.067261 0.056491 0.066557 -0.061089 -0.045478 0.000001 0.042317
0.000000 0.000000 -0.000000 -0.000000 0.000000 -0.000001 0.000000 -0.000000 -0.000000 0.000001 0.000000 0.000001 -0.000000 0.000000 -0.000000 0.000000
-0.190533 -0.001394 -0.108628 -0.000001 -0.028647 0.011573 -0.115284 -0.058662 0.168715 0.009081 0.057832 0.204555 0.024832 -0.030655 -0.000000 0.049306
-0.005904 -0.097812 -0.125952 -0.000000 -0.064799 -0.109196 -0.027817 0.178456 -0.126606 0.084253 -0.101607 -0.022840 0.095286 0.166732 0.000001 -0.058291
-0.065333 0.064085 -0.059865 -0.000001 -0.024397 -0.021857 -0.040281 -0.029330 0.080576 0.091218 0.088249 0.168811 0.006978 -0.093793 0.000000 -0.031659
0.143208 -0.046931 0.635558 0.000001 0.235453 0.329940 0.170432 -0.461312 0.411451 0.306520 -0.113575 -0.018770 -0.217989 0.048175 0.000002 0.336770
0.022347 -0.042101 0.050687 0.000000 0.031753 0.012191 0.012744 -0.018495 -0.024592 0.007758 -0.012827 -0.035413 -0.053111 0.047543 0.000000 0.008880
0.001823 0.004242 -0.015265 -0.000001 -0.018663 -0.010385 -0.006875 -0.033190 0.016297 0.029507 0.003836 0.043617 -0.007658 -0.036348 0.000001 -0.010175
-0.000005 0.007532 -0.000001 0.000000 0.001574 -0.005177 -0.013914 -0.002984 0.001266 0.034339 0.010100 -0.000506 0.000916 -0.008747 0.000001 -0.002131
0.068396 -0.255580 0.275059 0.000000 0.211874 0.223198 0.186490 -0.242235 -0.053389 0.119529 -0.172672 -0.215869 -0.139520 0.233116 -0.000001 0.185203
0.001261 0.000001 -0.000789 0.000000 -0.000008 0.000002 0.000000 -0.001156 -0.002414 0.000123 0.000050 0.001154 -0.000195 -0.004812 -0.000000 -0.000002
0.064239 0.205505 -0.224347 0.000001 0.232509 0.231156 0.215819 0.133285 0.029606 -0.148092 0.216005 0.387472 -0.214242 -0.139801 -0.000000 0.169617
-0.007438 -0.033062 -0.032830 0.000000 -0.010904 -0.020509 -0.013013 0.030501 -0.037749 0.022971 -0.018444 -0.022436 0.021321 0.033669 -0.000000 -0.017656
0.226759 0.284763 -0.300224 -0.000001 0.131369 0.185656 0.151930 0.316757 -0.271843 -0.264481 0.188970 0.097670 -0.182778 -0.131793 -0.000000 0.121503
0.094263 0.127230 0.120672 0.000000 -0.060192 -0.052187 -0.032826 -0.062484 0.056827 -0.097773 0.069109 -0.083144 0.062303 -0.060609 0.000001 -0.053034
0.021706 0.019360 0.016570 -0.000000 0.002356 -0.004813 -0.006257 -0.014253 0.002467 -0.017697 0.023159 -0.006589 0.000644 -0.020038 0.000001 -0.001071
-0.000000 -0.000000 -0.000000 0.000000 -0.000000 0.000000 0.000001 0.000001 0.000000 -0.000000 -0.000000 -0.000001 -0.000001 -0.000000 0.000001 0.000000
-0.109689 -0.119881 -0.047864 -0.000000 0.067979 0.048516 -0.063995 0.055404 0.090068 -0.069885 -0.086951 0.040349 0.054522 0.064917 0.000001 0.078507
-0.082092 0.108375 -0.070992 0.000001 -0.040642 -0.022194 0.015021 -0.066851 0.029876 0.226804 0.134888 0.206125 -0.003568 -0.126299 0.000000 -0.044141
0.013145 0.008952 -0.019561 -0.000000 0.016749 0.020273 0.019916 0.013762 -0.005384 -0.013110 0.025593 0.024603 -0.003702 -0.006444 0.000001 0.009320
-0.018293 -0.025804 -0.055465 0.000000 -0.075704 -0.039768 -0.015030 0.062116 -0.094028 0.080586 -0.034660 -0.044392 0.037510 0.035400 0.000000 -0.079017
0.059401 0.099838 0.118526 -0.000000 -0.175451 -0.170990 -0.069368 0.021212 -0.091123 -0.060347 0.033936 -0.198362 0.132617 -0.052277 -0.000001 -0.190130
0.121645 -0.030006 0.038956 -0.000001 -0.097004 -0.119215 -0.063627 0.031358 -0.073013 -0.010988 -0.055763 -0.141448 0.085102 0.052112 0.000001 -0.104226
-0.155998 0.016066 -0.076830 -0.000000 -0.071236 -0.057209 -0.103460 -0.074888 0.112031 0.047384 0.033269 0.103910 0.012179 0.000472 -0.000000 -0.055671
-0.224889 0.143310 -0.110298 0.000001 -0.190107 -0.170634 -0.068448 -0.150031 0.158181 0.338510 0.221969 0.308928 -0.023750 -0.218079 -0.000000 -0.175193
0.206789 0.360698 0.339185 -0.000000 -0.357760 -0.369695 -0.247928 -0.431522 0.399898 -0.040427 0.340697 -0.074682 0.193619 -0.369748 -0.000001 -0.329231
