-0.000009 -1.238823 -1.113365 -0.001045 1.461898 1.281642 -0.000004 0.000036 -1.232065 1.655314 -1.548164 -1.383311 1.629320 -0.000001 0.000003 1.398270
-0.000001 0.116643 0.358132 -0.000002 -0.336570 0.266980 0.000002 -0.000001 0.425570 0.171318 0.080271 0.008448 -0.082469 -0.000001 -0.000003 -0.272903
-0.000001 0.132477 -0.350601 -0.000000 0.473394 -0.487901 0.000003 -0.000002 -0.366189 -0.304860 0.148150 0.255053 0.037326 -0.000001 -0.000001 0.452890
-0.000001 0.197037 -0.107028 -0.000000 0.001048 -0.117498 0.000001 -0.000000 -0.054759 -0.138711 0.199911 0.194431 -0.066184 -0.000001 0.000002 0.038196
0.000001 0.013752 -0.081887 -0.000000 0.157681 -0.000972 0.000001 0.000000 -0.066483 0.043483 0.005060 0.056414 0.075704 0.000001 0.000002 0.126642
-0.000001 0.558460 -0.519395 0.000002 0.714687 -0.981174 -0.000001 -0.000005 -0.550468 -0.889641 0.515295 0.747694 -0.334050 -0.000001 -0.000002 0.599001
-0.000002 -0.590130 -0.102725 -0.000001 0.124017 0.546453 0.000002 0.000000 -0.060543 0.490812 -0.591631 -0.655637 0.617347 -0.000000 -0.000001 0.102105
-0.000003 0.061898 -0.125993 -0.000002 0.166480 -0.100087 -0.000000 -0.000001 -0.115461 -0.063860 0.062405 0.112720 0.034686 0.000000 -0.000001 0.152007
0.000000 -0.796015 -0.276288 0.000019 0.280856 0.938215 0.000002 -0.000005 -0.138842 1.023968 -0.803212 -0.785521 1.180403 0.000001 0.000002 0.397009
-0.000001 0.020779 0.083641 -0.000000 0.047732 0.020892 0.000001 0.000000 0.029771 0.034486 0.013567 -0.034113 0.081689 -0.000000 -0.000000 0.089046
0.000000 0.248875 0.509256 -0.000003 -0.382662 0.390158 0.000001 0.000002 0.486251 0.235427 0.246975 0.067210 -0.131992 -0.000001 -0.000001 -0.335336
0.000001 0.163967 0.373206 -0.000003 -0.172588 0.158960 0.000001 -0.000002 0.371423 0.089437 0.091175 0.075417 -0.052567 -0.000001 0.000001 -0.103686
0.000002 -0.108834 -0.114861 -0.000002 0.304196 0.061566 -0.000002 0.000002 -0.103279 0.071308 -0.124971 -0.031168 0.258532 0.000002 0.000000 0.309101
-0.000001 0.046688 0.346940 0.000000 -0.046160 0.343303 -0.000001 0.000001 0.298090 0.256834 0.037618 -0.046439 0.114718 0.000001 -0.000003 -0.031780
-0.000001 -0.274410 -0.246826 0.000005 0.374418 0.067236 0.000001 0.000002 -0.216309 0.183969 -0.218179 -0.171102 0.465976 0.000001 0.000002 0.376626
-0.000001 -0.711912 -0.207141 0.000002 0.649974 0.505236 0.000003 0.000002 -0.124362 0.561142 -0.746626 -0.619897 0.936648 -0.000002 -0.000003 0.622020
-0.000000 0.291474 0.600743 0.000000 -0.478068 0.537363 0.000002 0.000001 0.673685 0.319434 0.196326 0.038001 -0.165172 0.000002 -0.000000 -0.380477
-0.000002 0.463592 -0.275400 -0.000002 0.430383 -0.693024 0.000001 -0.000001 -0.427858 -0.584586 0.415231 0.630916 -0.308754 0.000002 -0.000000 0.307900
-0.000000 0.067417 -0.135636 -0.000004 0.331780 -0.121133 -0.000002 -0.000000 -0.132271 -0.057705 0.100265 0.139419 0.094826 -0.000002 0.000000 0.328858
-0.000000 -0.135705 -0.048679 0.000000 0.024670 0.095474 0.000002 0.000004 -0.068950 0.124612 -0.108441 -0.090224 0.155163 0.000001 0.000001 -0.027880
-0.000000 0.270985 -0.056603 0.000003 0.104525 -0.218529 -0.000003 0.000001 -0.052414 -0.237499 0.219706 0.275227 -0.144255 -0.000000 0.000001 0.105328
-0.000000 -0.256589 -0.200361 -0.000002 0.339294 0.037130 0.000001 0.000001 -0.214397 0.188954 -0.209268 -0.185453 0.440997 0.000002 -0.000001 0.358690
-0.000001 -0.113319 -0.070727 -0.000002 0.144618 0.160997 0.000002 0.000000 -0.098715 0.141029 -0.103039 -0.098415 0.227701 0.000002 0.000001 0.158889
-0.000002 -0.066796 -0.274851 -0.000002 0.404108 -0.165787 0.000003 0.000002 -0.322961 -0.076972 -0.079490 0.014237 0.269360 -0.000001 0.000000 0.439806
0.000000 -0.258512 -0.065081 -0.000001 0.174822 0.208047 0.000002 -0.000004 -0.069795 0.251453 -0.231652 -0.185295 0.446331 -0.000001 0.000002 0.223761
-0.000002 -0.889537 -0.559991 0.000003 0.516408 0.813408 0.000001 -0.000004 -0.453850 0.951078 -0.842790 -0.831558 1.163194 -0.000000 0.000003 0.563260
-0.000001 -0.238964 0.272175 0.000001 -0.284212 0.505137 0.000000 0.000000 0.251810 0.396501 -0.245373 -0.320942 0.161634 -0.000001 -0.000001 -0.276342
0.000001 -0.042028 -0.374044 -0.000000 0.458597 -0.298790 -0.000003 0.000001 -0.433240 -0.185756 -0.019361 0.116365 0.121314 -0.000001 0.000001 0.414673
-0.000000 0.174511 0.464056 0.000003 -0.479316 0.420213 0.000001 -0.000001 0.497549 0.259204 0.146689 0.013248 -0.068666 -0.000000 -0.000001 -0.426019
0.000002 -0.062795 0.251248 -0.000002 -0.079880 0.541099 -0.000001 0.000001 0.227567 0.533720 -0.052719 -0.101559 0.505102 0.000000 0.000003 -0.011913
0.000001 -0.495606 -0.501813 0.000003 0.451210 0.259950 -0.000000 0.000003 -0.459240 0.281100 -0.403046 -0.359120 0.703490 0.000000 -0.000003 0.491933
-0.000001 -1.009749 -0.547813 -0.000003 0.424441 0.912212 -0.000001 0.000002 -0.458205 1.030848 -0.995577 -0.924154 1.290608 0.000002 -0.000001 0.490642
0.000000 -0.869792 -0.711219 -0.000013 1.090614 0.793245 0.000003 -0.000001 -0.750599 1.029505 -0.996544 -0.835506 1.281154 0.000001 -0.000003 1.125278
0.000001 -0.282932 -0.361475 -0.000006 0.503112 0.228960 -0.000002 0.000001 -0.262191 0.330214 -0.195274 -0.158619 0.690600 0.000001 0.000002 0.429360
-0.000001 -0.110033 0.036833 0.000001 -0.061668 0.186365 0.000001 0.000003 0.043546 0.187828 -0.094567 -0.118498 0.184148 0.000001 0.000001 0.006890
0.000002 0.146084 0.527917 0.000005 -0.357732 0.639777 -0.000004 -0.000000 0.555737 0.487285 0.118594 -0.147159 0.033945 -0.000003 0.000001 -0.355764
-0.000001 0.046236 -0.029705 -0.000002 0.196476 -0.008687 0.000000 0.000003 0.025404 0.001298 0.050362 0.058570 0.114401 0.000001 -0.000001 0.154554
0.000002 0.122110 0.022948 -0.000001 0.034275 -0.025069 0.000000 0.000000 0.003370 -0.030053 0.120199 0.124783 -0.010438 -0.000000 -0.000002 0.018271
0.000001 -0.552819 -0.048945 0.000011 0.206395 0.787407 -0.000004 -0.000004 0.017801 0.820333 -0.450333 -0.564610 0.964086 -0.000000 -0.000002 0.269071
0.000001 0.810683 -0.722131 -0.000002 1.068391 -1.141331 0.000000 -0.000001 -0.736181 -1.178368 0.736850 1.031390 -0.537994 0.000001 -0.000002 0.956505
-0.000001 -0.748013 -0.448990 -0.000002 0.375955 0.495156 -0.000001 0.000001 -0.374277 0.601565 -0.704402 -0.660230 0.957741 0.000001 0.000001 0.463589
-0.000000 0.080728 -0.270294 0.000001 0.373608 -0.217915 -0.000004 0.000001 -0.235555 -0.149258 0.109811 0.156580 0.041172 0.000001 0.000002 0.385387
0.000002 -0.135855 0.209272 0.000001 -0.103407 0.441284 0.000002 0.000001 0.150953 0.390786 -0.082189 -0.201189 0.281072 0.000002 -0.000000 -0.095865
-0.000000 -0.053337 -0.127908 -0.000002 0.223190 0.017247 -0.000002 -0.000001 -0.164414 0.049237 -0.067731 -0.021431 0.263929 0.000001 -0.000001 0.172377
0.000000 0.136814 0.054260 0.000002 -0.029644 0.001721 -0.000001 0.000000 0.070695 -0.038019 0.103669 0.110103 -0.065192 0.000001 -0.000002 0.018463
0.000002 -0.031571 -0.152911 0.000002 0.176708 -0.161382 0.000001 0.000001 -0.176518 -0.052975 -0.006821 0.058160 -0.012082 0.000001 0.000000 0.116232
0.000000 0.290595 0.135130 -0.000002 0.079229 -0.161524 -0.000002 0.000001 0.129108 -0.213494 0.254764 0.245331 -0.267095 -0.000001 -0.000001 0.013539
0.000000 -0.111599 -0.133192 0.000002 0.246796 -0.026051 0.000000 -0.000001 -0.153495 0.073987 -0.076124 -0.034427 0.151385 0.000000 -0.000001 0.208366
-0.000002 -0.118669 -0.119108 -0.000002 0.184224 0.072077 -0.000001 0.000002 -0.115751 0.154737 -0.068857 -0.056763 0.265137 -0.000000 -0.000002 0.166555
0.000000 0.068552 0.008976 0.000001 0.164847 0.130399 0.000001 -0.000001 0.062957 0.185832 0.039372 0.065063 0.094959 -0.000001 0.000000 0.172972
0.000002 -0.270990 0.245351 0.000003 -0.228455 0.441624 0.000000 -0.000000 0.258457 0.407774 -0.229270 -0.304787 0.198674 0.000000 -0.000002 -0.150837
-0.000000 0.222896 0.115283 0.000001 0.006870 -0.234400 0.000000 0.000000 0.074857 -0.188460 0.211476 0.195194 -0.203865 0.000000 -0.000001 0.011528
-0.000000 -0.144071 0.114421 0.000003 -0.179268 0.660831 0.000002 0.000001 0.095742 0.532120 -0.169061 -0.251770 0.512694 0.000002 -0.000001 -0.043917
0.000002 -0.244844 -0.215459 -0.000002 0.437152 0.060278 0.000000 0.000000 -0.197911 0.138827 -0.149133 -0.091796 0.367222 0.000000 0.000000 0.379595
-0.000001 -0.167162 -0.325512 0.000000 0.619741 -0.049668 -0.000002 0.000003 -0.370550 0.089127 -0.116392 -0.087058 0.478211 0.000000 -0.000002 0.574059
-0.000001 -0.083294 -0.128270 -0.000001 0.388651 -0.072848 -0.000002 0.000002 -0.145751 -0.011097 -0.029985 0.007815 0.161650 0.000003 -0.000003 0.327669
-0.000000 0.146947 0.179642 0.000001 -0.139470 0.100647 -0.000000 0.000001 0.134995 0.016275 0.133238 0.069137 -0.046938 0.000000 -0.000002 -0.103400
0.000002 0.135796 0.268593 -0.000001 -0.137992 0.179405 0.000003 -0.000001 0.238461 0.106001 0.157865 0.073913 -0.000082 -0.000001 -0.000002 -0.066695
0.000002 0.052872 0.371334 -0.000003 -0.213898 0.217111 0.000002 -0.000001 0.297568 0.144656 0.005874 -0.037281 -0.141492 0.000001 -0.000002 -0.209623
0.000001 0.087795 -0.218407 -0.000001 0.451894 -0.333147 -0.000002 -0.000001 -0.267137 -0.236253 0.102889 0.178536 0.046373 0.000000 -0.000002 0.359277
0.000002 -0.420072 -0.029702 -0.000002 0.163856 0.629794 -0.000002 -0.000001 -0.005052 0.622381 -0.315524 -0.390810 0.804959 0.000001 -0.000001 0.212043
-0.000001 0.039974 -0.072779 0.000000 0.151338 -0.078270 0.000002 -0.000000 -0.043814 -0.057243 0.055641 0.101707 -0.005910 -0.000001 0.000000 0.085828
0.000001 -0.139776 -0.045131 0.000001 0.049012 0.349041 -0.000001 -0.000003 0.057329 0.254402 -0.096506 -0.198032 0.205459 -0.000000 0.000002 0.074116
-0.000001 -0.062614 -0.169418 -0.000001 0.233192 0.029566 0.000000 -0.000001 -0.091707 0.142494 -0.024613 0.011876 0.168477 -0.000001 0.000002 0.171520
0.000000 -0.030562 0.063458 0.000001 0.065206 0.030411 -0.000003 0.000000 -0.040720 0.059603 0.001654 -0.042323 0.009204 -0.000002 -0.000002 0.022687
-0.000002 -0.206710 0.010854 -0.000002 0.027251 0.417277 -0.000004 0.000003 0.091305 0.393167 -0.204891 -0.276308 0.441181 0.000000 -0.000002 0.068689
0.000000 -0.206729 0.054534 0.000004 -0.012232 0.280352 -0.000002 -0.000005 0.046608 0.318470 -0.136133 -0.208695 0.349730 0.000001 -0.000001 0.002227
-0.000002 -0.141196 -0.116898 -0.000001 0.352957 0.109554 0.000001 -0.000004 -0.064367 0.195298 -0.065016 -0.079352 0.324802 0.000001 0.000001 0.415643
0.000000 0.065574 0.145610 -0.000001 -0.070999 0.126310 -0.000002 -0.000000 0.173045 0.116611 0.042780 0.071664 0.005425 -0.000002 -0.000002 -0.013493
-0.000001 0.099700 0.189454 0.000000 0.038903 0.083845 0.000001 -0.000001 0.193535 0.071896 0.076338 0.071039 -0.027282 0.000001 0.000002 0.033928
-0.000001 0.648064 0.489965 0.000002 -0.201288 0.018860 -0.000001 -0.000001 0.470429 -0.114906 0.539462 0.530012 -0.448119 0.000001 0.000002 -0.203353
-0.000003 -0.112550 0.206818 0.000006 -0.169596 0.439746 -0.000002 0.000003 0.250914 0.348177 -0.082239 -0.189797 0.210790 0.000000 -0.000001 -0.139344
-0.000001 0.128156 0.009263 0.000001 0.148884 -0.044760 -0.000001 -0.000001 -0.058162 -0.087347 0.115401 0.141020 0.045827 -0.000001 -0.000001 0.124240
-0.000002 -0.016424 0.126018 -0.000002 -0.033943 0.086494 0.000001 -0.000001 0.127603 -0.004263 0.031683 0.027977 -0.090317 0.000000 0.000000 -0.047877
-0.000002 -0.213520 -0.053961 0.000003 0.108907 0.215700 0.000002 0.000003 -0.019351 0.228118 -0.195054 -0.198336 0.315061 -0.000002 -0.000000 0.160827
-0.000002 0.068351 0.416262 0.000001 -0.247655 0.295557 -0.000001 0.000001 0.299375 0.206774 0.075296 -0.038006 -0.030577 0.000001 -0.000000 -0.244275
-0.000002 -0.031585 0.081177 0.000000 0.050345 0.019927 -0.000002 0.000002 0.002676 0.018081 -0.051476 -0.039827 0.133627 0.000000 0.000000 0.011463
-0.000001 -0.218751 -0.219931 -0.000000 0.213402 0.034161 0.000001 -0.000002 -0.151453 0.039508 -0.183808 -0.145541 0.195303 0.000000 0.000002 0.204505
-0.000001 -0.212044 0.018501 0.000004 0.053659 0.250527 0.000000 -0.000000 0.026897 0.266006 -0.152214 -0.151860 0.238460 0.000000 0.000001 0.051237
0.000001 -0.010916 0.303529 0.000003 -0.270529 0.324004 0.000000 -0.000001 0.260959 0.257752 -0.053859 -0.121619 0.132470 -0.000001 0.000000 -0.138876
0.000002 0.066856 0.110412 -0.000002 0.011045 0.038448 0.000001 -0.000000 0.047580 0.027015 0.013142 0.039193 -0.001516 0.000002 -0.000000 -0.024690
-0.000001 0.016147 -0.125531 0.000000 0.266945 -0.054694 0.000000 -0.000001 -0.115165 -0.028506 0.002279 0.027658 0.125055 0.000001 -0.000002 0.252610
-0.000001 -0.098729 -0.165180 -0.000001 0.338090 0.003334 -0.000002 -0.000000 -0.191552 0.049387 -0.089460 -0.047081 0.205035 -0.000001 -0.000001 0.346108
0.000000 0.236357 0.095427 0.000002 0.017284 0.044763 0.000003 0.000001 0.052116 -0.029200 0.193832 0.176001 0.073179 0.000000 0.000003 0.012832
-0.000001 0.007914 0.147709 0.000003 0.021981 0.200999 -0.000001 -0.000002 0.098152 0.188285 0.005292 -0.066531 0.105370 -0.000002 -0.000002 0.009496
-0.000002 0.162252 0.883679 0.000001 -0.581668 0.683118 -0.000000 0.000001 0.919909 0.447909 0.061211 -0.142849 -0.189066 0.000002 -0.000000 -0.503091
-0.000000 0.127922 0.543644 0.000002 -0.375691 0.480041 -0.000000 -0.000000 0.574636 0.336427 0.097223 -0.059267 -0.025367 0.000000 0.000001 -0.290292
-0.000001 0.133002 0.171230 0.000002 -0.116755 0.107726 -0.000001 -0.000001 0.174995 -0.001632 0.107260 0.061551 -0.020810 -0.000001 0.000001 -0.038513
0.000001 0.056688 0.161206 -0.000000 -0.110339 0.074053 0.000002 0.000001 0.203711 0.069460 -0.006130 -0.006268 -0.071042 -0.000001 0.000001 -0.080669
-0.000000 1.062600 0.295456 -0.000002 0.251793 -0.703474 -0.000000 0.000001 0.199464 -0.787142 1.076780 1.053854 -0.875458 0.000001 -0.000001 0.079260
-0.000000 0.267828 -0.136760 0.000003 0.359474 -0.359035 -0.000000 0.000000 -0.174508 -0.316358 0.280246 0.364438 -0.183782 0.000003 0.000001 0.338489
0.000000 0.293708 -0.036718 -0.000002 0.174062 -0.300139 -0.000001 0.000004 -0.094391 -0.262962 0.191909 0.268600 -0.185330 -0.000002 -0.000002 0.126077
-0.000000 -0.439309 0.106887 -0.000004 -0.234769 0.478379 0.000003 0.000001 0.103347 0.399809 -0.323713 -0.370649 0.408734 0.000001 -0.000002 -0.124438
0.000002 -0.316068 -0.145469 0.000000 0.241151 0.351493 -0.000002 0.000002 -0.127522 0.461817 -0.262210 -0.298488 0.711327 0.000001 -0.000000 0.282017
0.000001 0.075324 -0.204495 0.000000 0.362494 -0.120999 0.000003 -0.000002 -0.185702 -0.045157 0.084493 0.152049 0.169575 -0.000001 0.000000 0.273351
0.000002 -0.051783 0.244008 -0.000001 -0.084287 0.191558 -0.000000 0.000002 0.239482 0.187343 0.003457 -0.032091 0.065907 0.000001 0.000000 -0.021213
-0.000001 0.133211 0.246246 -0.000003 -0.119943 0.189513 0.000000 -0.000002 0.243920 0.158366 0.118400 0.028275 0.010159 -0.000002 -0.000001 -0.060241
0.000001 0.009929 0.120958 0.000002 -0.126712 0.194277 0.000002 -0.000000 0.144570 0.109362 -0.023668 -0.064600 0.048531 0.000003 0.000000 -0.158341
-0.000000 0.053834 -0.281295 0.000000 0.554909 -0.290812 -0.000002 0.000002 -0.300937 -0.158300 0.089914 0.170176 0.109512 0.000001 0.000001 0.462595
0.000003 0.040162 0.026770 0.000001 0.044485 0.077890 -0.000001 -0.000001 0.031058 0.097213 0.020289 0.036564 0.168178 0.000002 -0.000000 0.104232
0.000001 0.209166 -0.228251 0.000002 0.316650 -0.342330 0.000001 0.000003 -0.272828 -0.261099 0.162160 0.297652 -0.002455 -0.000001 0.000000 0.248037
-0.000000 -0.088938 0.429312 -0.000004 -0.245466 0.497228 -0.000000 -0.000001 0.374670 0.396538 -0.092306 -0.169503 0.164290 -0.000001 -0.000001 -0.176783
-0.000001 0.252694 1.004274 0.000001 -0.646454 0.777661 -0.000001 0.000001 0.997364 0.455256 0.138537 -0.074825 -0.133079 0.000000 0.000002 -0.460531
0.000000 0.328324 0.720418 0.000001 -0.582076 0.474059 0.000002 0.000001 0.639619 0.298117 0.241735 0.028916 -0.259072 0.000000 -0.000001 -0.519140
0.000000 0.345149 -0.262118 0.000003 0.543678 -0.561863 -0.000002 0.000001 -0.350204 -0.486551 0.369149 0.483599 -0.142213 0.000001 -0.000002 0.408540
-0.000002 0.020500 0.095210 0.000005 0.073524 0.107155 -0.000003 -0.000002 0.039241 0.116939 -0.020938 -0.021223 0.102757 0.000001 -0.000001 0.112152
-0.000002 0.134470 0.106089 0.000002 0.031186 0.066026 -0.000000 0.000000 0.108755 0.082165 0.100324 0.100147 -0.056559 0.000002 -0.000001 0.064173
-0.000002 -0.105845 0.100063 0.000003 -0.079040 0.244185 -0.000001 0.000001 0.086603 0.209255 -0.103302 -0.103334 0.248462 0.000001 -0.000000 -0.023905
0.000000 0.269574 -0.188625 -0.000001 0.186729 -0.282834 -0.000001 -0.000001 -0.211925 -0.263046 0.244092 0.322322 -0.086874 -0.000000 0.000001 0.069279
0.000001 0.090227 -0.084931 -0.000001 0.202891 -0.082902 -0.000001 0.000001 -0.063059 -0.031979 0.074573 0.087163 0.055541 -0.000001 -0.000001 0.253564
0.000002 -0.687506 -0.297097 0.000002 0.378940 0.243981 0.000002 0.000000 -0.257863 0.421300 -0.570025 -0.568170 0.722211 -0.000002 -0.000002 0.406284
0.000002 -0.107356 -0.715215 0.000001 0.804767 -0.505332 0.000000 -0.000000 -0.718944 -0.333316 0.045012 0.140541 0.237460 0.000001 -0.000002 0.686136
0.000000 0.045418 0.224645 -0.000001 -0.165683 0.179511 0.000003 -0.000001 0.267799 0.108547 0.015490 0.008326 0.021903 0.000001 -0.000001 -0.068223
0.000002 -0.130632 -0.123328 0.000001 0.201634 0.059033 -0.000001 0.000000 -0.045759 0.122168 -0.119711 -0.133276 0.253957 -0.000001 -0.000003 0.212266
-0.000001 0.127503 -0.062487 0.000000 0.161576 -0.186481 0.000001 0.000001 -0.090284 -0.139763 0.156587 0.160129 -0.087866 -0.000001 -0.000001 0.101079
-0.000001 0.246424 -0.188573 0.000003 0.222166 -0.301020 -0.000001 -0.000003 -0.179852 -0.316416 0.230156 0.333710 -0.118335 -0.000001 -0.000003 0.261466
0.000000 0.266727 0.345278 -0.000000 -0.221820 0.096464 -0.000000 0.000001 0.274333 0.028763 0.214293 0.156789 -0.189854 -0.000000 -0.000001 -0.186047
-0.000001 0.013056 0.181249 0.000003 -0.041794 0.156520 0.000000 0.000000 0.180437 0.122491 0.009905 -0.057254 -0.014787 -0.000002 0.000001 0.011353
0.000001 0.106908 0.119260 -0.000000 -0.094195 0.131700 0.000001 -0.000001 0.140384 0.089115 0.081390 0.049504 -0.050734 -0.000000 0.000000 -0.035572
0.000001 -0.613367 0.372250 0.000001 -0.467667 0.868847 0.000001 0.000001 0.493672 0.807934 -0.548654 -0.705522 0.555445 0.000002 -0.000002 -0.304270
-0.000001 0.128921 0.116809 -0.000000 -0.145499 0.055296 0.000001 -0.000000 0.126509 -0.018303 0.087979 0.084829 -0.093674 -0.000002 -0.000001 -0.105061
-0.000001 0.344526 -0.074150 0.000001 0.275056 -0.514768 -0.000001 -0.000001 -0.154044 -0.447213 0.324701 0.402606 -0.287326 -0.000000 0.000002 0.242757
0.000000 0.028151 0.245545 -0.000002 -0.059842 0.181735 -0.000000 -0.000002 0.209287 0.209397 0.013600 0.022292 -0.075707 -0.000000 -0.000000 -0.146988
0.000002 0.276258 0.847869 -0.000003 -1.092386 1.088081 0.000000 -0.000002 1.029721 0.867913 0.123681 -0.177106 -0.132758 -0.000001 0.000002 -1.040204
0.000000 0.126740 0.046051 0.000000 -0.016192 -0.039868 -0.000002 -0.000001 0.049691 -0.064872 0.116379 0.114256 -0.052031 -0.000003 0.000000 -0.022602
-0.000001 0.003664 -0.161952 0.000002 0.163193 -0.172774 0.000000 -0.000003 -0.179729 -0.127033 0.014919 0.111484 -0.001850 0.000000 0.000001 0.108955
-0.000001 0.069058 -0.157004 0.000002 0.158225 -0.214352 -0.000001 -0.000001 -0.166157 -0.181949 0.077325 0.176180 -0.052297 -0.000001 -0.000002 0.121003
0.000001 0.342094 -0.095333 0.000004 0.189174 -0.455485 0.000000 -0.000001 -0.073583 -0.432543 0.291088 0.377006 -0.268623 0.000001 0.000001 0.150617
-0.000001 0.296858 0.236333 -0.000000 -0.220193 -0.096689 0.000002 0.000002 0.204178 -0.160789 0.204898 0.208026 -0.213181 -0.000002 -0.000001 -0.155858
0.000002 0.056449 0.263372 -0.000001 -0.114411 0.218667 -0.000000 -0.000001 0.250982 0.189999 0.017941 -0.039637 0.003806 0.000000 0.000001 -0.037870
0.000000 0.204958 0.117534 -0.000001 0.009427 -0.056789 0.000000 -0.000001 0.051588 -0.098669 0.141476 0.150638 -0.073719 0.000002 -0.000002 -0.051939
-0.000001 0.381815 0.336348 -0.000000 -0.051799 0.103875 -0.000000 0.000001 0.310562 -0.005628 0.331448 0.282204 -0.147419 -0.000001 -0.000002 -0.011531
-0.000001 -0.128041 -0.257751 0.000001 0.289038 -0.072467 0.000002 0.000001 -0.257069 0.043260 -0.090556 -0.000471 0.112543 -0.000000 -0.000001 0.223110
0.000000 0.064884 -0.062563 0.000000 0.128201 -0.059491 -0.000000 -0.000001 -0.036323 -0.028255 0.047982 0.096360 -0.013478 0.000002 -0.000001 0.176776
-0.000002 0.145906 -0.011180 0.000001 0.075399 -0.077404 0.000002 -0.000000 -0.018314 -0.081171 0.108415 0.147265 -0.087484 0.000001 -0.000002 0.076178
0.000001 0.044626 0.332878 0.000002 -0.277587 0.243406 0.000001 0.000001 0.321519 0.138077 0.022412 -0.065559 -0.233127 -0.000002 -0.000000 -0.265580
0.000002 0.189529 -0.182311 -0.000002 0.266493 -0.298839 0.000000 -0.000001 -0.179316 -0.280127 0.191839 0.222804 -0.068850 0.000001 0.000002 0.215755
0.000000 0.149740 0.240524 0.000000 -0.183289 0.107363 -0.000001 0.000000 0.204341 0.070519 0.122549 0.022715 -0.107604 -0.000002 -0.000000 -0.112714
-0.000001 0.286019 -0.138090 0.000002 0.177135 -0.256382 -0.000001 -0.000002 -0.172122 -0.199769 0.273948 0.344906 -0.072347 -0.000000 -0.000001 0.166661
-0.000000 0.167810 -0.760519 0.000005 0.925884 -0.688425 -0.000001 0.000001 -0.738235 -0.520963 0.240864 0.473380 0.085109 0.000002 -0.000001 0.875026
-0.000000 -0.027378 -0.146321 -0.000002 0.216900 -0.061488 0.000000 0.000002 -0.188837 -0.022223 -0.013441 0.043786 0.114455 0.000000 -0.000002 0.244333
0.000001 0.102723 -0.347787 0.000001 0.421532 -0.384885 0.000001 0.000002 -0.325927 -0.274078 0.132963 0.184313 0.023014 0.000002 0.000004 0.373630
-0.000003 -0.285600 0.317094 -0.000001 -0.374465 0.634262 0.000002 -0.000001 0.368495 0.513120 -0.227578 -0.353752 0.174572 0.000001 0.000001 -0.321391
-0.000001 0.132391 -0.034620 -0.000001 0.103570 -0.138129 -0.000000 0.000001 -0.026022 -0.068136 0.145700 0.156727 -0.017019 -0.000002 0.000000 0.073179
-0.000000 0.251929 0.164164 0.000000 -0.118295 -0.055953 0.000000 0.000001 0.168040 -0.185515 0.256276 0.244244 -0.286179 -0.000002 0.000002 -0.115484
-0.000002 0.112012 -0.033183 -0.000002 0.086102 -0.112592 -0.000002 0.000000 -0.075343 -0.121454 0.113509 0.143114 -0.032800 0.000001 -0.000001 0.118811
0.000001 -0.043192 0.230119 -0.000008 -0.045699 0.582874 -0.000005 0.000000 0.262069 0.534259 -0.060362 -0.169943 0.539555 -0.000000 -0.000001 0.013084
-0.000001 0.106525 -0.197067 0.000002 0.254215 -0.225511 0.000001 -0.000001 -0.238224 -0.162240 0.072994 0.146045 0.012575 -0.000001 -0.000000 0.261010
-0.000001 0.184994 0.345834 -0.000003 -0.176571 0.260380 -0.000002 0.000003 0.315917 0.189168 0.092915 0.014218 -0.068886 -0.000000 0.000002 -0.148215
-0.000003 0.126345 -0.148443 -0.000004 0.417266 -0.102685 -0.000002 0.000003 -0.098115 -0.029495 0.110823 0.187546 0.112077 -0.000000 0.000003 0.382999
-0.000000 0.042865 -0.030704 -0.000001 0.172128 0.020550 0.000001 -0.000001 -0.026321 0.067704 0.022567 0.005729 0.102919 0.000000 -0.000000 0.178965
-0.000002 0.071962 0.335476 0.000000 -0.349990 0.308809 -0.000001 -0.000001 0.391284 0.181080 0.008637 -0.078229 -0.042607 0.000000 -0.000002 -0.319863
0.000000 0.115223 -0.030280 -0.000002 0.099053 -0.127514 -0.000002 -0.000000 -0.033378 -0.121277 0.122773 0.094630 -0.060103 -0.000002 0.000000 0.120182
-0.000001 -0.073049 -0.090137 -0.000003 0.086226 0.038973 -0.000002 -0.000000 -0.099598 0.067364 -0.072720 -0.072456 0.151028 -0.000001 -0.000000 0.113969
0.000001 -0.113577 -0.150531 0.000000 0.211044 -0.085033 0.000000 -0.000001 -0.197644 -0.020698 -0.041673 -0.026949 0.083922 0.000000 0.000001 0.203073
-0.000002 0.142641 0.090961 0.000000 0.010943 0.001140 0.000001 0.000002 0.096629 -0.030832 0.125788 0.150663 -0.081710 0.000001 0.000003 -0.009678
0.000002 -0.193018 -0.129433 -0.000002 0.178904 0.123020 0.000003 -0.000003 -0.115466 0.181853 -0.179649 -0.131101 0.329695 0.000001 0.000001 0.123181
0.000001 -0.052558 0.061681 -0.000004 -0.202325 0.130238 0.000002 -0.000003 0.040116 0.138759 -0.059871 -0.097541 -0.024243 0.000003 -0.000000 -0.209427
0.000000 0.243651 0.010073 0.000001 0.073321 -0.195211 -0.000000 -0.000000 -0.006230 -0.232700 0.191867 0.188405 -0.170351 -0.000001 0.000001 0.057403
-0.000000 -0.346175 -0.458250 0.000006 0.613331 -0.078298 -0.000002 0.000000 -0.477205 0.091378 -0.293736 -0.175132 0.570125 0.000001 0.000001 0.515548
-0.000002 0.533392 1.125480 0.000001 -1.395482 1.022496 -0.000001 0.000000 1.333148 0.630805 0.375196 -0.068303 -0.667657 -0.000000 -0.000002 -1.370282
-0.000000 -0.259515 0.017436 0.000002 -0.048222 0.262991 -0.000001 -0.000002 0.011911 0.243023 -0.232364 -0.228956 0.182649 0.000001 -0.000000 0.021627
-0.000001 0.632272 -0.258095 -0.000002 0.498161 -0.494378 0.000001 -0.000002 -0.303208 -0.456335 0.601873 0.726039 -0.217300 -0.000001 0.000002 0.454693
-0.000002 0.141844 0.074779 0.000003 -0.020706 0.004498 -0.000001 -0.000001 0.074998 -0.006666 0.135031 0.057061 -0.070440 0.000001 0.000000 -0.004519
0.000002 -0.176412 0.097140 0.000004 -0.046250 0.510122 -0.000002 -0.000002 0.051789 0.433814 -0.120322 -0.179380 0.229954 0.000000 -0.000001 -0.071340
0.000002 -0.014961 0.077401 0.000001 -0.052440 0.172519 0.000003 0.000002 0.119181 0.144783 -0.040880 -0.092100 0.151930 -0.000000 -0.000000 0.003431
0.000001 0.093088 0.332760 0.000002 -0.145165 0.376631 0.000001 -0.000003 0.330167 0.275021 0.033750 -0.058008 0.052057 -0.000001 0.000000 -0.105222
0.000002 -0.128242 -0.038362 -0.000001 0.032696 0.155099 -0.000001 0.000001 -0.027929 0.159978 -0.072765 -0.109633 0.177613 0.000001 0.000000 0.039591
0.000000 -0.043252 -0.103203 -0.000002 0.212052 0.154981 0.000000 0.000003 -0.103707 0.185610 -0.006260 -0.030665 0.371717 0.000001 0.000001 0.207320
0.000002 -0.541368 0.193194 -0.000001 -0.048759 0.896518 -0.000002 0.000001 0.281099 0.851474 -0.464931 -0.662637 0.775797 0.000000 0.000002 0.030067
-0.000000 0.110735 0.561110 -0.000000 -0.433479 0.464094 0.000004 0.000000 0.588888 0.292946 0.051960 -0.030563 -0.092629 0.000001 0.000001 -0.362500
-0.000002 -0.795844 -0.420035 0.000008 0.413761 0.607199 0.000002 0.000001 -0.359186 0.791771 -0.763426 -0.713393 1.027688 0.000001 0.000001 0.407969
0.000001 -0.120702 0.067698 0.000001 0.076426 0.242387 0.000001 0.000001 0.078295 0.264294 -0.109421 -0.154207 0.303322 0.000000 -0.000001 0.100529
-0.000001 -0.058618 -0.023662 -0.000003 0.035697 0.232261 -0.000002 -0.000004 -0.012346 0.226046 -0.065635 -0.109287 0.256406 -0.000002 0.000001 0.086695
-0.000001 0.021890 0.271943 -0.000003 -0.048173 0.228548 -0.000001 0.000002 0.222351 0.174551 -0.047469 -0.112571 0.103164 0.000001 -0.000001 -0.013962
0.000001 -0.348853 0.541392 0.000010 -0.650067 1.049011 -0.000002 0.000001 0.710630 0.878053 -0.395759 -0.635536 0.266199 -0.000000 0.000000 -0.511451
0.000000 0.025681 0.242223 -0.000000 -0.106169 0.211077 -0.000000 0.000002 0.228117 0.121252 0.015113 -0.099184 0.018778 0.000002 -0.000001 -0.044022
-0.000001 -0.075435 0.013952 -0.000001 -0.026742 0.061626 -0.000004 -0.000002 0.015117 0.065000 -0.052923 -0.054312 0.044661 0.000001 0.000000 -0.034829
-0.000003 -0.106720 -0.022562 0.000001 -0.113121 0.214772 -0.000002 0.000001 0.018238 0.207530 -0.059902 -0.062768 0.227997 0.000001 0.000001 -0.077089
-0.000001 -0.448177 -0.082607 -0.000002 0.170083 0.408528 -0.000002 -0.000000 -0.032744 0.432086 -0.417623 -0.410972 0.565536 0.000000 0.000000 0.173704
0.000001 0.135788 -0.113525 -0.000001 0.179788 -0.140760 0.000002 -0.000002 -0.149998 -0.162981 0.159327 0.199610 0.027815 -0.000000 -0.000001 0.105024
0.000001 0.104641 0.171536 -0.000000 -0.009144 0.045300 -0.000001 -0.000001 0.157227 0.053778 0.084395 0.037160 -0.063841 -0.000001 -0.000001 0.004169
-0.000000 0.132180 0.221715 -0.000001 -0.202354 0.054367 0.000001 0.000003 0.213756 -0.005895 0.128715 0.097266 -0.086087 0.000001 0.000000 -0.125283
-0.000002 -0.487526 -0.310707 -0.000010 0.466704 0.219503 0.000001 -0.000002 -0.343167 0.372648 -0.415567 -0.368462 0.840344 0.000001 -0.000001 0.468962
0.000004 -0.962396 -0.493430 -0.000002 0.484244 0.780227 -0.000001 0.000002 -0.396253 0.883906 -0.900109 -0.932270 1.303666 0.000001 0.000000 0.540113
-0.000000 -0.189055 -0.227321 -0.000002 0.304245 0.132773 0.000001 0.000001 -0.233204 0.166423 -0.176908 -0.121901 0.496735 0.000002 -0.000000 0.342511
-0.000000 0.122044 0.044910 -0.000001 0.002146 -0.041976 -0.000000 -0.000000 0.020946 -0.045722 0.082830 0.113039 -0.051123 0.000000 -0.000001 0.063075
-0.000001 -0.557984 -0.055822 -0.000002 -0.058466 0.475885 0.000003 0.000002 -0.034333 0.466055 -0.490113 -0.521167 0.396522 -0.000001 0.000000 -0.028708
-0.000000 0.096483 0.190042 -0.000003 -0.167540 0.178170 0.000001 0.000000 0.180908 0.126914 0.044214 -0.029641 -0.059309 0.000000 -0.000001 -0.123653
0.000000 -0.106722 0.035866 0.000003 -0.105816 0.299710 0.000002 -0.000000 0.115005 0.244166 -0.112822 -0.212905 0.096182 0.000000 0.000001 -0.024777
0.000000 0.195964 0.279306 -0.000001 -0.375895 0.300742 0.000002 0.000002 0.273891 0.213104 0.142405 0.063727 -0.153009 0.000000 0.000001 -0.244776
0.000000 0.100105 -0.058094 0.000004 0.123265 0.026539 -0.000002 -0.000001 -0.018367 0.031196 0.069016 0.041882 0.089291 0.000000 0.000000 0.156066
0.000000 -0.266024 0.339134 0.000002 -0.213442 0.728089 0.000000 -0.000000 0.363603 0.620629 -0.256082 -0.384488 0.365525 0.000001 0.000001 -0.157161
0.000000 0.041667 0.069072 -0.000000 -0.008609 0.094612 0.000001 0.000001 0.112169 0.100037 -0.009282 0.007170 0.085239 -0.000000 0.000001 0.053087
-0.000000 -0.052072 0.158425 0.000002 -0.126743 0.202749 -0.000001 0.000001 0.143481 0.140513 -0.056859 -0.088004 0.107773 -0.000000 -0.000002 -0.038755
-0.000001 0.137415 -0.342160 0.000002 0.419442 -0.312909 -0.000001 0.000001 -0.304920 -0.234314 0.167425 0.247189 -0.002143 -0.000001 0.000002 0.347715
-0.000001 0.490723 -0.221048 -0.000001 0.898726 -0.600333 0.000002 0.000002 -0.211569 -0.596057 0.446875 0.772721 -0.353394 0.000001 -0.000001 0.872718
0.000001 -0.158200 -0.257041 0.000003 0.340844 -0.067520 0.000000 -0.000000 -0.221682 -0.013545 -0.100702 -0.112472 0.178716 -0.000001 -0.000001 0.330262
-0.000002 -0.089972 0.245077 -0.000002 -0.230171 0.341512 0.000000 -0.000000 0.263873 0.288496 -0.088447 -0.174664 0.083949 -0.000001 -0.000001 -0.130092
0.000001 -0.161902 -0.168801 -0.000002 0.270351 0.018519 -0.000002 0.000001 -0.207917 0.053015 -0.111107 -0.079007 0.183480 -0.000000 0.000000 0.199065
0.000001 -0.285789 -0.399238 0.000002 0.583662 -0.257613 -0.000003 0.000001 -0.513538 0.017938 -0.196648 -0.124062 0.450146 -0.000000 -0.000001 0.506147
-0.000001 0.377475 0.307438 -0.000002 -0.107530 0.066753 0.000001 -0.000001 0.281476 -0.007378 0.306075 0.257552 -0.148203 -0.000002 0.000002 -0.055694
-0.000001 -0.284784 -0.080054 0.000005 0.229127 0.268974 -0.000003 0.000001 -0.046677 0.292426 -0.297733 -0.332385 0.459748 -0.000001 -0.000000 0.232995
-0.000002 0.331596 -0.095998 -0.000001 0.102678 -0.320520 0.000002 -0.000000 -0.078146 -0.314310 0.286587 0.335140 -0.177213 -0.000002 0.000001 0.019851
0.000001 0.092700 0.023575 0.000001 0.136895 0.217181 -0.000001 0.000002 0.049618 0.225756 0.109288 0.032429 0.180386 0.000001 0.000000 0.097840
0.000001 0.258303 -0.660105 -0.000001 0.834526 -0.875534 -0.000001 -0.000001 -0.705447 -0.654200 0.252659 0.446891 -0.072035 0.000000 -0.000002 0.848477
0.000000 0.020946 0.029074 0.000001 0.038409 0.009085 -0.000001 -0.000001 0.025719 0.004542 0.012736 0.041638 -0.095307 0.000000 -0.000001 0.022207
-0.000002 0.204492 0.136018 -0.000002 -0.008223 -0.094760 0.000001 0.000002 0.000967 -0.077804 0.173038 0.124157 -0.082427 0.000002 -0.000000 -0.017654
0.000001 -0.012148 -0.179154 -0.000002 0.173888 -0.136499 -0.000000 0.000002 -0.208707 -0.051773 0.043304 0.027198 0.057234 0.000001 0.000000 0.217696
-0.000000 0.029699 0.055559 0.000002 -0.119519 0.098151 -0.000001 -0.000003 0.108487 0.054695 -0.006575 0.002328 0.032218 -0.000002 -0.000001 -0.116519
-0.000002 0.242505 0.096494 0.000001 -0.131178 -0.022640 0.000002 0.000000 0.142486 -0.068434 0.203247 0.148124 -0.172689 -0.000000 0.000002 -0.134154
-0.000000 0.202993 0.363981 0.000000 -0.278494 0.294575 0.000002 0.000001 0.433101 0.177897 0.172083 0.024778 -0.145173 0.000000 0.000001 -0.215275
0.000001 0.523687 0.619158 0.000005 -0.600858 0.256531 0.000001 0.000001 0.704157 0.049472 0.318143 0.217748 -0.459720 -0.000000 -0.000002 -0.550196
-0.000000 0.407598 0.166710 0.000002 -0.375667 -0.050014 0.000001 0.000002 0.273047 -0.155551 0.286440 0.243113 -0.244130 -0.000001 0.000001 -0.434820
0.000000 0.246546 -0.235438 -0.000002 0.363644 -0.419914 0.000000 0.000001 -0.239877 -0.392988 0.212041 0.321312 -0.230411 0.000001 -0.000002 0.335406
-0.000002 0.256806 -0.414693 -0.000001 0.482743 -0.616460 0.000000 -0.000001 -0.398894 -0.517352 0.232669 0.404745 -0.188873 -0.000002 0.000000 0.464959
-0.000000 -0.014820 -0.125444 0.000001 0.305105 -0.017508 -0.000000 -0.000002 -0.068418 -0.033957 0.002211 0.028255 0.118356 -0.000001 -0.000000 0.282949
0.000001 0.177013 0.173851 0.000000 -0.217948 0.100786 0.000001 -0.000002 0.143601 0.010116 0.134521 0.093079 -0.143003 0.000001 -0.000002 -0.225122
0.000001 0.183099 0.344704 -0.000002 -0.151551 0.217813 0.000001 0.000000 0.390134 0.114595 0.110426 0.038937 -0.025523 -0.000001 -0.000002 -0.061901
0.000000 0.379086 0.865415 0.000002 -0.729241 0.553716 0.000003 0.000001 0.848447 0.288447 0.272064 0.055689 -0.303060 -0.000001 -0.000002 -0.679827
-0.000003 0.101353 -0.069050 -0.000000 0.180208 -0.095784 -0.000000 -0.000001 -0.054564 -0.017365 0.103601 0.110100 0.038979 -0.000001 -0.000002 0.145669
0.000002 0.506991 -0.267457 -0.000002 0.341459 -0.449222 0.000000 0.000000 -0.375452 -0.527537 0.539710 0.725758 -0.233866 -0.000001 -0.000003 0.354935
-0.000002 -0.021708 -0.012469 0.000001 0.042023 0.108378 -0.000000 -0.000003 -0.007328 0.079414 0.004386 -0.001320 0.037898 0.000003 0.000001 0.096647
0.000000 -0.332490 -0.380421 0.000001 0.413443 -0.022188 -0.000001 0.000000 -0.371090 0.147510 -0.265397 -0.144915 0.382702 0.000003 0.000001 0.399833
-0.000001 0.155544 -0.297230 -0.000001 0.287370 -0.423671 -0.000004 -0.000001 -0.350031 -0.300870 0.171276 0.236931 -0.089857 0.000000 0.000001 0.321315
-0.000001 -0.076064 -0.048617 0.000001 0.008983 -0.094690 -0.000001 0.000000 -0.028137 -0.030553 -0.043555 -0.059832 -0.047719 0.000001 0.000000 0.041455
0.000001 0.229243 -0.572327 -0.000001 0.562787 -0.713198 0.000000 0.000002 -0.604126 -0.564938 0.243905 0.401758 -0.112258 -0.000002 0.000001 0.535225
0.000000 0.291546 0.039711 -0.000000 0.048477 -0.100030 0.000001 0.000001 0.078426 -0.151633 0.266099 0.282595 -0.247829 -0.000001 -0.000001 0.063788
-0.000001 0.057533 0.633755 0.000004 -0.555751 0.554834 -0.000003 0.000001 0.530098 0.363246 0.028548 -0.122302 -0.021791 -0.000001 -0.000003 -0.522980
-0.000002 0.260681 0.060014 0.000001 -0.000740 -0.051996 0.000000 -0.000001 0.078159 -0.113453 0.209445 0.137929 -0.141723 0.000001 -0.000001 -0.003967
-0.000001 0.242745 0.299808 0.000001 -0.270636 0.130032 0.000001 -0.000000 0.302936 0.074033 0.188859 0.066043 -0.187742 -0.000000 -0.000000 -0.245785
-0.000002 -0.177361 -0.137425 0.000001 0.102436 0.199884 0.000002 0.000003 -0.110735 0.285718 -0.201911 -0.180827 0.261920 -0.000001 -0.000003 0.083734
-0.000001 0.309673 0.743448 -0.000001 -0.294116 0.383708 0.000002 0.000003 0.672455 0.221340 0.193695 0.079241 -0.204375 -0.000002 -0.000002 -0.286397
0.000000 0.039127 0.329140 0.000001 0.014958 0.222724 0.000000 0.000001 0.233396 0.183180 -0.055258 -0.164169 -0.047592 0.000000 0.000001 -0.034316
0.000000 0.367653 0.483559 -0.000001 -0.279819 0.142475 -0.000001 0.000001 0.443012 -0.039840 0.304703 0.290175 -0.286711 -0.000000 0.000001 -0.269053
-0.000002 0.477114 1.162399 0.000002 -0.878181 0.879568 0.000006 0.000002 1.245133 0.603318 0.292991 -0.014315 -0.494204 0.000000 0.000002 -0.907127
-0.000001 -0.446283 -0.097408 0.000001 0.073792 0.561476 -0.000001 0.000000 -0.133031 0.588215 -0.335173 -0.433163 0.645464 -0.000001 -0.000001 0.057508
-0.000001 0.175281 0.381471 -0.000002 -0.450166 0.337950 -0.000000 0.000001 0.400409 0.162466 0.090399 0.012656 -0.184849 0.000002 0.000002 -0.399900
0.000001 -0.178067 0.126358 -0.000001 -0.123640 0.410611 -0.000001 0.000003 0.178827 0.391130 -0.170658 -0.259182 0.264363 -0.000000 -0.000001 -0.100777
0.000001 0.444859 1.187687 -0.000000 -1.088248 0.817881 0.000001 0.000001 1.206189 0.414591 0.325091 -0.015131 -0.596789 -0.000003 -0.000000 -1.070395
-0.000001 0.063958 0.327702 0.000002 -0.255485 0.366495 -0.000002 0.000001 0.359188 0.256700 0.045686 -0.076276 0.027442 -0.000000 0.000002 -0.277717
-0.000003 0.308283 0.372689 0.000001 -0.221789 0.029982 0.000001 0.000000 0.314307 -0.000092 0.253148 0.118036 -0.250345 0.000000 0.000000 -0.165753
0.000001 -0.116315 -0.032854 -0.000000 0.059762 0.116384 -0.000000 -0.000001 0.025812 0.114864 -0.118536 -0.117581 0.191690 0.000001 -0.000002 0.073233
0.000002 0.086789 0.258817 -0.000000 -0.150587 0.127677 -0.000001 -0.000001 0.263173 0.103955 0.046447 0.003305 -0.069455 -0.000000 0.000001 -0.122890
-0.000001 0.319066 0.996400 0.000002 -0.774011 0.641308 -0.000002 -0.000001 0.979635 0.367542 0.241631 0.035230 -0.414275 0.000002 -0.000002 -0.667123
-0.000000 0.162798 0.076775 -0.000000 -0.042498 -0.037364 -0.000001 0.000002 0.057487 -0.093663 0.111459 0.118559 -0.134951 -0.000001 0.000000 -0.068962
0.000000 0.243205 -0.210961 0.000000 0.269192 -0.369744 -0.000000 -0.000001 -0.224141 -0.313607 0.183824 0.304767 -0.158738 0.000000 -0.000001 0.220904
-0.000003 0.813432 -0.183382 -0.000003 0.477939 -0.852498 0.000002 -0.000000 -0.269016 -0.875544 0.760767 0.927407 -0.582368 -0.000002 0.000002 0.341777
0.000001 -0.174446 0.230724 -0.000002 -0.156347 0.672160 -0.000001 -0.000003 0.304549 0.526485 -0.237591 -0.266931 0.408279 0.000002 0.000000 -0.110806
-0.000002 -0.075004 -0.317047 -0.000002 0.264047 -0.175417 0.000000 -0.000000 -0.285416 -0.135707 -0.073917 0.058586 0.088339 0.000001 -0.000000 0.234906
0.000001 0.050572 0.163923 0.000002 -0.047135 0.222350 0.000000 -0.000000 0.169221 0.162632 -0.007353 -0.032358 0.105870 -0.000001 -0.000000 -0.061595
-0.000000 0.682827 0.786041 0.000003 -0.527947 0.259683 0.000001 -0.000000 0.803005 0.019414 0.570755 0.478224 -0.640961 0.000000 0.000000 -0.522400
-0.000001 0.175093 0.071646 -0.000003 0.079953 0.043020 -0.000002 0.000001 0.086360 0.034076 0.151596 0.161723 0.037697 0.000001 0.000001 0.109063
0.000000 0.454824 0.221251 0.000003 -0.296418 -0.261928 0.000001 0.000001 0.163497 -0.236835 0.390137 0.359382 -0.519535 -0.000000 0.000000 -0.345442
0.000000 0.362821 0.347748 0.000000 -0.235882 -0.006015 -0.000001 -0.000000 0.316425 -0.076956 0.265766 0.204053 -0.330930 -0.000002 -0.000003 -0.235297
-0.000000 0.134783 0.174475 0.000001 -0.110110 0.056842 0.000002 -0.000000 0.193477 0.021303 0.093642 0.091462 -0.107825 0.000002 -0.000000 -0.028561
-0.000000 0.153414 0.261683 0.000002 -0.204558 0.111528 -0.000001 0.000000 0.227614 0.069855 0.101179 0.097954 -0.142300 0.000001 0.000000 -0.111868
-0.000000 0.227128 -0.126858 -0.000003 0.280160 -0.310593 0.000002 0.000001 -0.129378 -0.307070 0.177149 0.264518 -0.136315 -0.000002 -0.000002 0.294808
-0.000001 0.098635 -0.080387 0.000002 0.224598 -0.048036 -0.000002 -0.000001 -0.063179 -0.055716 0.066309 0.138612 -0.021340 0.000000 -0.000004 0.254415
0.000002 0.083620 -0.304887 0.000003 0.339378 -0.356550 0.000001 0.000001 -0.280954 -0.301689 0.117056 0.190620 0.001126 0.000002 -0.000001 0.330754
0.000000 -0.002124 -0.108644 0.000001 0.127205 -0.143774 0.000002 -0.000000 -0.068374 -0.087085 0.011081 0.029194 0.002177 -0.000001 0.000002 0.159866
-0.000001 0.146555 0.968179 0.000001 -0.904994 0.883668 -0.000001 -0.000000 0.902640 0.578294 0.075021 -0.215516 -0.184891 0.000001 -0.000003 -0.900648
0.000002 0.212282 0.037447 -0.000002 0.089343 -0.090480 -0.000000 0.000000 0.049289 -0.081699 0.213279 0.208774 -0.128679 0.000001 -0.000001 0.086808
0.000000 0.071840 -0.071800 -0.000001 0.118422 -0.146356 0.000000 -0.000002 -0.095041 -0.092230 0.088230 0.088547 -0.013598 -0.000001 0.000002 0.120066
-0.000001 0.322331 0.552224 -0.000000 -0.324141 0.278954 -0.000000 0.000000 0.582034 0.156446 0.205916 0.077497 -0.357315 -0.000000 -0.000001 -0.266574
-0.000000 0.139353 0.316922 0.000001 -0.193029 0.128642 -0.000002 0.000000 0.194132 0.082929 0.139051 0.044455 -0.075048 0.000001 -0.000002 -0.116141
0.000001 0.303120 0.206054 0.000004 -0.099915 -0.140925 -0.000001 0.000000 0.199583 -0.185054 0.311118 0.263440 -0.343248 -0.000000 -0.000001 -0.094952
-0.000002 -0.327993 -0.005786 0.000005 -0.107982 0.665960 0.000003 0.000003 0.041023 0.565499 -0.396467 -0.492108 0.752705 -0.000000 0.000000 -0.060096
0.000001 0.232948 -0.102597 -0.000000 0.210882 -0.245700 0.000001 0.000001 -0.094616 -0.213296 0.203255 0.302727 -0.141040 -0.000000 -0.000000 0.117072
-0.000001 0.340559 0.035930 -0.000002 0.040910 -0.310087 -0.000001 -0.000001 -0.006078 -0.245928 0.274326 0.287899 -0.438987 -0.000001 -0.000001 -0.003074
0.000000 0.275783 -0.444602 0.000000 0.545514 -0.442848 0.000001 -0.000004 -0.419833 -0.420141 0.320038 0.457136 -0.032967 0.000001 -0.000001 0.529759
-0.000001 0.153927 -0.171342 -0.000003 0.355965 -0.285530 0.000001 -0.000002 -0.174915 -0.271676 0.156109 0.243000 -0.010628 -0.000000 0.000001 0.289975
0.000000 0.491239 0.807297 -0.000000 -0.792998 0.321276 -0.000001 0.000001 0.840210 0.111364 0.372169 0.183531 -0.633745 -0.000000 -0.000002 -0.752885
0.000001 -0.283248 0.196421 -0.000001 -0.030532 0.618852 -0.000004 -0.000001 0.191727 0.532458 -0.303023 -0.341892 0.609382 -0.000002 -0.000002 0.001051
0.000001 0.178037 0.033408 -0.000001 -0.173023 -0.034554 -0.000000 -0.000002 0.054987 -0.095824 0.101696 0.130751 -0.086244 -0.000001 0.000000 -0.224034
-0.000000 0.224069 0.115228 -0.000002 -0.030689 -0.054144 0.000001 0.000000 0.095776 -0.111207 0.168707 0.176083 -0.136819 -0.000001 -0.000001 -0.004487
-0.000001 0.109269 0.163726 0.000002 -0.111221 0.116792 -0.000001 -0.000001 0.207626 0.087741 0.073841 0.029349 -0.092871 0.000001 0.000001 -0.065328
0.000001 0.039253 0.077028 0.000001 -0.029986 0.106738 -0.000000 0.000000 0.046844 0.093755 0.048061 -0.001295 0.010667 -0.000000 0.000002 -0.055547
-0.000002 0.162045 0.373215 -0.000001 -0.259397 0.178908 0.000000 -0.000003 0.326704 0.071906 0.115252 0.004688 -0.099428 0.000000 0.000002 -0.157594
-0.000000 0.151303 -0.120178 -0.000003 0.138356 -0.128480 -0.000001 0.000000 -0.101606 -0.124137 0.121309 0.176959 -0.020832 0.000000 0.000003 0.160643
-0.000001 0.192966 -0.191726 0.000000 0.342527 -0.326908 -0.000002 -0.000001 -0.167438 -0.240731 0.246943 0.258485 -0.082923 -0.000003 -0.000000 0.287377
0.000001 -0.493721 -0.052767 -0.000002 0.169342 0.437065 -0.000001 0.000002 -0.042475 0.416161 -0.484898 -0.527332 0.514785 0.000000 -0.000002 0.212478
-0.000000 0.387788 -0.077152 -0.000002 0.242128 -0.416148 -0.000002 -0.000004 -0.098622 -0.400157 0.364448 0.434656 -0.284822 0.000001 -0.000000 0.224966
0.000001 0.077226 0.716463 -0.000002 -0.581578 0.815256 0.000000 -0.000002 0.754193 0.592781 0.044904 -0.127962 0.026046 0.000002 -0.000001 -0.443984
-0.000002 0.367901 0.112307 0.000005 0.168263 -0.032911 -0.000000 0.000001 0.116550 -0.080161 0.266561 0.283571 -0.121359 0.000000 -0.000003 0.165860
-0.000000 -0.534904 -0.469151 0.000004 0.853541 0.996487 -0.000001 -0.000004 -0.465296 1.144676 -0.548330 -0.555372 1.406176 -0.000003 -0.000008 0.995479
-0.000001 -0.532151 -0.410612 -0.000002 0.273542 0.509895 -0.000001 -0.000001 -0.308556 0.551119 -0.563972 -0.538448 1.078994 -0.000001 0.000000 0.336441
-0.000001 -0.181143 -0.077626 0.000001 0.188794 0.329010 -0.000002 -0.000002 -0.109646 0.383197 -0.167590 -0.178482 0.589301 -0.000001 0.000002 0.301056
0.000002 0.147475 0.111983 0.000001 -0.065877 0.051368 -0.000001 -0.000001 0.136959 0.014672 0.114018 0.111224 -0.123253 0.000001 -0.000001 -0.080483
0.000002 0.279919 -0.161202 0.000001 0.531025 -0.374640 -0.000001 -0.000000 -0.137564 -0.377472 0.346454 0.364172 -0.164213 0.000002 -0.000002 0.444626
0.000000 0.163810 0.356358 -0.000002 -0.345924 0.256876 0.000001 -0.000002 0.386245 0.169776 0.141984 0.052000 -0.134326 0.000001 0.000001 -0.296510
-0.000002 -0.078957 -0.102003 -0.000000 0.227376 0.248088 -0.000001 0.000000 -0.135025 0.262741 -0.098858 -0.073473 0.454681 0.000000 0.000001 0.257954
-0.000001 -0.284476 -0.258006 0.000003 0.230646 0.033357 0.000002 -0.000001 -0.294330 0.156749 -0.221766 -0.202091 0.295182 0.000002 -0.000000 0.246096
-0.000002 0.120040 0.290239 0.000000 -0.247667 0.292457 0.000001 -0.000001 0.350408 0.199599 0.079215 -0.069335 -0.036169 -0.000001 0.000001 -0.269986
-0.000000 0.181458 0.278987 -0.000002 -0.225800 0.014846 -0.000001 -0.000001 0.255589 -0.027920 0.173380 0.096567 -0.284226 0.000000 0.000001 -0.217801
-0.000001 -0.154780 0.380951 0.000001 -0.304261 0.493605 -0.000001 0.000001 0.276493 0.388138 -0.142096 -0.325542 0.084369 0.000002 0.000001 -0.266826
-0.000000 0.307265 0.114188 0.000002 0.152413 -0.102122 -0.000000 0.000001 0.125216 -0.123034 0.235122 0.207971 -0.113950 0.000003 0.000002 0.189574
-0.000001 0.087208 0.076663 0.000001 0.104787 -0.019234 0.000002 -0.000000 0.005595 -0.057362 0.069428 0.110956 -0.093093 -0.000000 0.000000 0.084647
-0.000000 -0.210603 -0.101985 0.000005 0.130990 0.114961 0.000002 -0.000000 -0.077334 0.141309 -0.181963 -0.168375 0.291194 -0.000000 0.000000 0.193540
-0.000000 -0.257624 -0.304565 -0.000000 0.148026 0.087709 -0.000001 0.000002 -0.270825 0.171153 -0.209286 -0.215548 0.282001 0.000000 -0.000001 0.136825
-0.000001 0.397820 -0.394370 0.000002 0.499527 -0.602588 -0.000004 -0.000001 -0.421198 -0.467176 0.418409 0.541259 -0.190099 0.000002 0.000001 0.330515
-0.000000 0.224001 0.323237 0.000000 -0.278907 0.190324 0.000001 0.000000 0.372655 0.133166 0.233947 0.090552 -0.172248 -0.000001 -0.000002 -0.280104
0.000002 0.283374 -0.020185 -0.000002 0.154442 -0.209755 -0.000001 0.000001 -0.043263 -0.220656 0.345628 0.319061 -0.105868 -0.000001 0.000001 0.071073
-0.000000 0.066956 0.371624 -0.000000 -0.376201 0.259783 0.000001 0.000001 0.392901 0.163639 0.001540 -0.041347 -0.109170 0.000002 0.000002 -0.301270
0.000000 0.066559 0.153827 0.000002 -0.060544 0.095270 -0.000000 0.000001 0.108664 0.099142 0.105381 0.015646 0.053893 0.000001 0.000002 -0.023797
-0.000002 -0.478391 -0.167309 -0.000005 0.261092 0.297718 -0.000002 0.000003 -0.146645 0.378715 -0.368004 -0.375142 0.615535 0.000003 0.000002 0.291789
0.000000 0.147377 0.665263 0.000003 -0.662046 0.561001 0.000000 -0.000000 0.615504 0.439374 0.030809 -0.156138 -0.059474 -0.000001 0.000001 -0.608864
-0.000000 -0.270803 0.169586 0.000001 -0.109886 0.457004 0.000002 -0.000000 0.194409 0.404449 -0.327238 -0.369271 0.350191 0.000002 0.000001 -0.028465
0.000000 0.080866 0.097523 0.000001 -0.229819 0.103029 -0.000000 0.000003 0.158147 0.078094 0.040848 0.027073 -0.038906 -0.000001 -0.000003 -0.219349
-0.000001 0.028594 -0.129062 -0.000001 0.274128 -0.199825 -0.000003 -0.000001 -0.135725 -0.127943 0.087957 0.091749 0.035236 -0.000000 -0.000001 0.161436
-0.000001 -0.122505 0.034483 0.000001 0.046291 0.177285 0.000001 0.000001 0.035349 0.199137 -0.143538 -0.158461 0.198817 0.000002 0.000001 0.050953
0.000001 -0.260363 0.082020 0.000001 -0.072085 0.369223 -0.000002 -0.000000 0.177761 0.372852 -0.254753 -0.279639 0.395035 -0.000001 0.000001 0.029475
-0.000002 -0.058402 0.292527 0.000006 -0.051465 0.296371 0.000001 -0.000001 0.226418 0.303738 -0.092033 -0.146786 0.133852 -0.000002 0.000000 0.000063
0.000000 -0.130537 -0.153280 -0.000001 0.193284 0.084809 -0.000001 -0.000001 -0.170336 0.167295 -0.086003 -0.081966 0.236686 0.000000 0.000000 0.202557
0.000001 0.239283 -0.018778 0.000001 0.089511 -0.183124 -0.000000 0.000001 0.008945 -0.129397 0.243373 0.301386 -0.231154 -0.000000 0.000001 0.051493
0.000000 0.102628 0.052808 -0.000001 -0.042507 -0.017123 -0.000000 -0.000001 0.051450 -0.066799 0.107801 0.117618 -0.082899 -0.000001 -0.000002 -0.010169
-0.000002 0.520925 0.526400 0.000001 -0.593594 -0.065613 0.000001 -0.000001 0.421865 -0.085073 0.377726 0.353200 -0.632536 -0.000002 0.000002 -0.581807
-0.000001 0.007498 0.162687 0.000001 -0.067458 0.270638 -0.000002 -0.000002 0.172680 0.267106 -0.022324 -0.111802 0.195125 -0.000000 0.000000 0.022941
-0.000001 0.306431 0.253301 -0.000002 -0.077146 0.029834 -0.000002 0.000001 0.257336 -0.002305 0.272235 0.177793 -0.168567 0.000000 0.000002 -0.122836
-0.000000 0.053669 -0.080224 -0.000003 0.123503 -0.170030 0.000000 -0.000001 -0.125256 -0.086218 0.097339 0.066010 -0.051773 -0.000001 -0.000001 0.144739
-0.000001 0.229272 0.239742 0.000002 -0.053439 0.068488 0.000001 -0.000001 0.242614 0.016522 0.166065 0.149479 -0.114165 -0.000000 -0.000001 0.011835
0.000001 -0.415671 -0.016010 -0.000000 0.097337 0.404524 -0.000001 -0.000000 0.033204 0.326346 -0.419368 -0.454929 0.344740 -0.000002 0.000001 0.062308
-0.000001 0.170717 0.038046 -0.000001 0.007458 -0.036156 -0.000001 0.000000 0.076070 -0.028182 0.167037 0.108896 -0.072860 0.000000 -0.000002 -0.020527
0.000002 -0.152883 -0.314224 -0.000001 0.474553 -0.185644 -0.000002 -0.000002 -0.322724 -0.113459 -0.088401 -0.032299 0.135603 0.000000 -0.000000 0.363865
0.000001 0.361318 0.124462 -0.000002 -0.167492 -0.146843 -0.000003 0.000001 0.171928 -0.216164 0.286972 0.242092 -0.253391 0.000000 0.000002 -0.158992
-0.000001 0.033655 0.439338 0.000001 -0.226964 0.389238 -0.000001 0.000001 0.449815 0.257366 -0.013191 -0.137812 -0.081725 0.000003 -0.000001 -0.173726
0.000000 -0.079163 -0.351125 0.000000 0.275561 -0.326828 0.000000 0.000002 -0.379729 -0.216765 -0.052721 0.064847 0.058256 0.000000 -0.000001 0.245756
-0.000001 0.060475 -0.229552 -0.000001 0.271796 -0.204686 0.000003 -0.000000 -0.214802 -0.149003 0.052821 0.137709 0.000467 0.000003 -0.000000 0.223214
-0.000000 0.039609 0.718285 0.000001 -0.710911 0.764910 0.000001 -0.000001 0.769951 0.515108 0.027779 -0.176092 0.015173 -0.000001 -0.000001 -0.603006
0.000003 0.628052 0.786261 0.000002 -0.527238 0.293071 -0.000002 0.000000 0.810004 0.088434 0.485528 0.367116 -0.471224 -0.000001 0.000002 -0.503993
0.000000 0.069900 0.035074 -0.000001 -0.058441 0.070545 -0.000002 -0.000003 0.085261 0.050154 0.062172 0.052767 0.027475 0.000000 -0.000000 0.002840
0.000001 0.152657 0.551449 0.000002 -0.614097 0.391790 -0.000000 0.000002 0.564919 0.152691 0.114901 -0.051636 -0.237796 0.000002 0.000002 -0.534947
-0.000000 0.373264 0.937554 0.000002 -0.938272 0.694057 -0.000005 -0.000001 1.016207 0.302995 0.246069 -0.017556 -0.494855 -0.000000 0.000001 -0.886511
0.000001 -0.029398 0.033561 0.000002 0.047522 0.078986 0.000000 0.000000 0.001858 0.074066 -0.020511 0.018902 0.091441 -0.000000 0.000000 0.072599
-0.000000 -0.062012 -0.058867 0.000002 0.072198 0.084064 0.000001 -0.000001 -0.053902 0.096925 -0.089757 -0.073855 0.217239 -0.000002 0.000000 0.122339
0.000001 0.255780 -0.195453 -0.000002 0.343015 -0.466822 0.000002 0.000000 -0.201741 -0.441637 0.270456 0.345483 -0.140133 -0.000001 0.000000 0.285616
0.000004 0.231143 -0.066558 0.000001 0.040879 -0.121592 0.000002 -0.000000 -0.006472 -0.215336 0.247330 0.293793 -0.135293 0.000002 0.000001 0.044266
-0.000000 0.172790 0.326786 -0.000002 -0.489544 0.330791 -0.000001 -0.000001 0.429831 0.207351 0.109667 -0.043497 -0.124424 -0.000001 -0.000000 -0.495140
0.000000 0.332589 0.198063 0.000001 -0.174488 -0.097640 -0.000001 0.000001 0.255824 -0.099244 0.287672 0.250562 -0.284528 0.000001 -0.000001 -0.193034
-0.000003 -0.080200 0.069889 0.000000 0.026244 0.164946 -0.000001 0.000001 0.069869 0.192269 -0.106592 -0.115851 0.145872 0.000001 -0.000001 0.039453
-0.000001 -0.097406 0.155615 -0.000001 0.016508 0.249576 0.000001 -0.000002 0.103531 0.269981 -0.050814 -0.076301 0.200814 0.000000 0.000002 0.004537
0.000002 -0.390297 -0.124646 0.000004 0.174388 0.369928 0.000004 -0.000003 -0.198853 0.464922 -0.326242 -0.352914 0.592553 -0.000001 0.000000 0.172627
0.000001 -0.020022 -0.009772 0.000002 0.006979 0.190181 0.000000 -0.000000 0.054757 0.123211 -0.022085 -0.065637 0.136025 -0.000001 0.000001 0.046278
0.000002 -0.140360 -0.225078 -0.000001 0.357982 -0.047359 0.000002 -0.000001 -0.288634 0.011752 -0.101560 -0.033856 0.194033 0.000002 0.000001 0.307840
-0.000001 -0.205971 -0.219962 -0.000002 0.267509 0.017136 0.000001 0.000000 -0.211547 0.040251 -0.179348 -0.124835 0.248370 -0.000000 -0.000000 0.219342
0.000001 -0.498827 -0.401949 -0.000009 0.450798 0.422500 -0.000001 -0.000001 -0.362087 0.524583 -0.401038 -0.411564 0.917752 0.000001 0.000001 0.471905
-0.000001 0.617977 1.384890 0.000001 -1.236486 1.169820 -0.000000 0.000002 1.417489 0.854207 0.445323 -0.037121 -0.699936 -0.000001 0.000004 -1.247920
-0.000001 0.207296 0.021525 -0.000002 0.139755 -0.149853 0.000001 0.000002 0.048572 -0.181139 0.213454 0.185067 -0.134426 0.000002 -0.000002 0.114808
0.000002 -0.294352 -0.300383 0.000004 0.462198 0.022373 0.000000 0.000002 -0.220591 0.052315 -0.243539 -0.199986 0.221687 0.000000 0.000003 0.350953
-0.000001 0.030786 0.026534 -0.000001 0.012866 0.079408 -0.000002 0.000000 0.015966 0.068675 0.025422 0.007754 0.089687 -0.000002 -0.000001 0.031002
-0.000001 -0.035608 0.205195 -0.000000 -0.166289 0.212309 -0.000001 0.000002 0.271037 0.191226 -0.050310 -0.098709 0.060024 0.000001 0.000001 -0.180937
0.000001 0.333498 0.356738 0.000000 -0.173712 0.022626 0.000002 -0.000001 0.366620 -0.031626 0.282097 0.214528 -0.295816 -0.000001 -0.000002 -0.202605
0.000001 -0.508155 -0.061341 -0.000001 0.113477 0.455536 -0.000001 -0.000003 0.004548 0.443323 -0.485949 -0.487527 0.521079 -0.000002 0.000001 0.096963
0.000001 -0.628217 -0.290163 -0.000001 0.228848 0.512867 -0.000003 -0.000001 -0.216819 0.604977 -0.565090 -0.560670 0.752934 -0.000001 0.000001 0.243284
-0.000002 0.185120 0.034845 0.000003 0.077105 -0.160851 0.000002 0.000001 0.010235 -0.075787 0.142102 0.163690 -0.105736 -0.000000 -0.000000 0.093597
0.000001 0.180108 0.125659 -0.000000 -0.063457 -0.026411 0.000002 -0.000002 0.072186 -0.088203 0.176322 0.115969 -0.121283 -0.000001 0.000003 -0.016426
-0.000001 -0.104327 -0.244133 0.000002 0.360566 -0.115025 -0.000004 0.000002 -0.251283 -0.032654 -0.101875 0.001161 0.231330 0.000001 0.000002 0.330552
-0.000001 0.344331 -0.366208 0.000004 0.581204 -0.630017 -0.000001 0.000002 -0.409948 -0.572052 0.301180 0.454747 -0.192221 0.000000 -0.000001 0.495008
-0.000000 -0.232866 -0.154277 -0.000002 0.175318 0.025947 0.000001 0.000001 -0.189308 0.142461 -0.176552 -0.115809 0.188371 -0.000001 -0.000001 0.144373
-0.000001 0.109897 0.493754 -0.000003 -0.228498 0.477359 0.000000 0.000000 0.460663 0.336048 0.051980 -0.052902 0.020588 -0.000002 0.000003 -0.142984
0.000001 0.729123 -0.194946 0.000001 0.358740 -0.769670 -0.000001 -0.000001 -0.218121 -0.780000 0.729597 0.825007 -0.500593 0.000001 -0.000001 0.231346
0.000001 0.155392 0.147577 0.000001 0.020186 -0.009303 -0.000001 -0.000001 0.063017 -0.042158 0.157659 0.075853 -0.011486 0.000002 -0.000003 -0.028135
-0.000000 0.122745 0.062465 -0.000000 0.020985 -0.010882 -0.000001 -0.000001 0.024068 -0.017875 0.120565 0.119448 0.014875 0.000002 0.000003 0.046248
-0.000003 0.160757 0.609586 -0.000001 -0.535466 0.465637 -0.000001 0.000000 0.620153 0.254811 0.074939 -0.112986 -0.060766 0.000000 -0.000000 -0.438165
-0.000001 0.166489 0.284577 0.000002 -0.341309 0.297257 -0.000000 0.000000 0.316961 0.238496 0.132802 0.058218 -0.108852 -0.000002 -0.000000 -0.301351
-0.000000 -0.208567 -0.103760 0.000001 0.148353 0.186132 0.000000 -0.000002 -0.045294 0.241501 -0.161999 -0.178829 0.261702 -0.000000 0.000003 0.138506
0.000000 0.124966 0.131349 0.000000 -0.053789 0.005294 -0.000001 0.000002 0.118546 -0.045129 0.120679 0.060946 -0.046314 -0.000002 0.000002 -0.018145
0.000001 -0.161305 0.057456 0.000002 -0.046532 0.490086 -0.000001 0.000003 0.118470 0.407682 -0.170290 -0.244077 0.364872 0.000001 -0.000000 0.027609
-0.000002 -0.186664 -0.081875 0.000003 0.066703 0.211313 -0.000001 -0.000001 -0.084705 0.209705 -0.171082 -0.168309 0.263612 0.000000 -0.000001 0.038125
-0.000002 -0.003245 0.129048 0.000002 -0.216903 0.105921 -0.000002 0.000000 0.169832 0.104862 0.039090 -0.050723 -0.053705 -0.000002 -0.000001 -0.180049
-0.000000 -0.278012 0.089519 -0.000001 -0.273516 0.447400 -0.000000 -0.000003 0.242340 0.324988 -0.234441 -0.392395 0.159948 0.000001 -0.000001 -0.270865
-0.000001 -0.143641 -0.378290 0.000001 0.353217 -0.092484 0.000001 -0.000001 -0.374496 -0.028669 -0.112113 -0.002747 0.314962 -0.000000 -0.000001 0.266485
0.000000 0.035044 0.089200 0.000002 0.037206 0.138301 -0.000000 0.000002 0.091424 0.120616 -0.044465 -0.059096 0.053323 0.000001 0.000000 -0.009637
0.000000 -0.289998 -0.140716 0.000002 0.086577 0.261722 0.000000 0.000001 -0.102184 0.270440 -0.232354 -0.283230 0.352618 -0.000001 -0.000000 0.096520
-0.000001 0.117791 0.265396 0.000001 -0.082419 0.206647 0.000000 -0.000002 0.259415 0.153992 0.039888 -0.062583 0.013023 -0.000000 0.000001 -0.029158
0.000002 -0.166759 0.102779 -0.000002 -0.142759 0.293137 -0.000002 0.000000 0.091398 0.269108 -0.178277 -0.203687 0.184644 0.000000 -0.000002 -0.107385
-0.000002 0.154631 0.169339 -0.000001 -0.101103 0.080206 -0.000000 0.000000 0.182335 -0.008153 0.099436 0.077515 -0.008805 -0.000001 0.000002 -0.025148
-0.000001 0.147154 0.058023 -0.000001 0.100946 -0.048005 -0.000000 0.000000 0.044913 -0.048778 0.154349 0.109082 -0.044976 0.000001 0.000001 0.103233
-0.000000 0.167575 0.244593 -0.000002 0.161036 -0.033341 -0.000002 0.000001 0.078262 0.045238 0.164921 0.083876 0.058613 0.000002 -0.000002 0.182214
0.000001 0.505355 -0.426373 -0.000001 0.930962 -0.911498 0.000000 -0.000000 -0.512659 -0.799561 0.485793 0.765735 -0.472898 -0.000000 -0.000001 0.732053
0.000000 0.360203 0.258683 -0.000002 -0.247942 0.007756 0.000002 0.000001 0.308889 -0.062447 0.318957 0.277744 -0.352919 0.000001 -0.000001 -0.250460
0.000000 0.109146 0.100679 0.000001 -0.018137 0.101465 0.000000 -0.000000 0.083437 0.032722 0.074895 0.056929 0.005423 0.000000 -0.000000 0.023326
-0.000002 0.349763 0.454730 -0.000000 -0.266831 0.190866 0.000000 0.000002 0.466670 0.027295 0.346430 0.235755 -0.157919 -0.000000 -0.000001 -0.269626
0.000001 0.124470 0.321919 0.000001 -0.317444 0.299041 -0.000003 0.000002 0.328939 0.166765 0.095370 -0.073300 -0.133691 0.000001 -0.000001 -0.286714
0.000003 -0.131456 -0.199305 0.000003 0.221089 0.000981 0.000000 0.000001 -0.163249 0.087450 -0.095254 -0.103326 0.264621 -0.000002 0.000000 0.229248
-0.000001 0.200303 0.170931 -0.000000 -0.184500 0.052029 -0.000000 -0.000001 0.203427 -0.016844 0.159780 0.157631 -0.149603 0.000001 -0.000001 -0.165125
0.000000 0.256316 0.084227 -0.000002 0.213552 -0.116180 0.000003 0.000001 0.170659 -0.100623 0.066713 0.331429 -0.129030 -0.000002 -0.000001 0.156953
-0.000001 0.785994 1.031449 -0.000001 -0.839324 0.327421 -0.000001 0.000000 1.014408 0.132582 0.692125 0.598732 -0.700049 0.000001 -0.000000 -0.871292
0.000000 0.002663 0.161384 -0.000002 -0.101423 0.161029 -0.000001 0.000002 0.172156 0.086607 -0.000459 -0.043154 0.054184 0.000001 -0.000000 -0.074564
-0.000000 -0.183014 -0.026717 -0.000002 0.074809 0.264080 -0.000001 0.000001 -0.055222 0.365676 -0.199523 -0.150422 0.550507 -0.000001 -0.000002 0.124403
0.000002 -0.805321 0.031823 0.000001 -0.011512 0.795955 0.000002 -0.000002 0.110208 0.688361 -0.774064 -0.873871 0.795990 0.000000 0.000000 0.026011
-0.000000 0.005760 0.120919 0.000002 -0.091754 0.058861 -0.000002 -0.000000 -0.014471 0.043515 0.007512 -0.040871 0.015154 -0.000001 -0.000002 -0.069235
0.000001 -0.232466 -0.016037 -0.000002 -0.076930 0.254891 -0.000001 0.000003 0.011732 0.274239 -0.224487 -0.217804 0.306593 0.000000 0.000000 -0.026643
-0.000000 0.311678 -0.093045 0.000001 0.240814 -0.413875 -0.000000 -0.000001 -0.124755 -0.408560 0.320130 0.385368 -0.303090 -0.000000 0.000000 0.166648
-0.000000 0.153424 0.238401 -0.000002 -0.096771 0.202777 0.000001 -0.000001 0.179344 0.149676 0.138258 0.028307 -0.037041 0.000002 -0.000000 -0.091813
-0.000001 0.451896 -0.207615 -0.000001 0.565403 -0.621230 0.000001 -0.000002 -0.224649 -0.587050 0.464732 0.529729 -0.276787 0.000001 -0.000002 0.477366
0.000002 0.111587 0.149613 0.000002 -0.200887 0.076439 -0.000001 -0.000001 0.178493 0.017383 0.032098 0.045970 -0.144193 -0.000001 0.000002 -0.190987
0.000003 0.194620 -0.364783 -0.000004 0.669949 -0.745881 0.000000 0.000002 -0.485968 -0.513741 0.195933 0.366891 -0.254186 -0.000002 0.000001 0.536930
0.000000 0.054569 0.214529 -0.000001 -0.192673 0.054447 -0.000002 0.000000 0.141101 0.036177 0.098598 0.009736 -0.038031 0.000000 -0.000001 -0.167050
0.000001 0.076675 -0.172287 0.000001 0.276486 -0.145829 -0.000000 0.000000 -0.164793 -0.133404 0.048310 0.167789 0.007055 0.000001 -0.000002 0.245354
-0.000001 0.141255 -0.203423 0.000001 0.163356 -0.253356 0.000000 0.000000 -0.190590 -0.213388 0.140702 0.201523 -0.073153 0.000001 0.000001 0.190017
-0.000001 0.139887 -0.292812 0.000001 0.583278 -0.363257 -0.000000 0.000001 -0.309492 -0.246520 0.160264 0.240150 0.110288 0.000001 0.000001 0.477543
-0.000002 0.132282 0.210451 0.000001 -0.283228 0.220188 -0.000001 0.000002 0.268618 0.125090 0.087408 0.064576 -0.097228 0.000000 -0.000001 -0.276728
-0.000002 0.084389 0.112412 0.000001 -0.102134 0.032747 0.000001 0.000001 0.069413 0.009976 0.083340 0.057522 -0.039969 -0.000000 0.000000 -0.104843
-0.000001 0.164244 0.352466 0.000000 -0.380220 0.187593 -0.000001 -0.000001 0.389446 0.096817 0.100148 0.032184 -0.130453 -0.000001 0.000001 -0.279826
-0.000000 0.313310 0.496423 -0.000002 -0.315543 0.281327 -0.000001 0.000002 0.490025 0.185087 0.231860 0.077786 -0.184602 -0.000000 -0.000001 -0.277535
-0.000002 0.295524 0.058298 0.000001 0.044214 -0.311540 0.000001 -0.000001 -0.017663 -0.261510 0.242375 0.219666 -0.179367 -0.000001 0.000002 0.119096
-0.000001 0.206275 -0.089086 0.000002 0.307145 -0.286750 0.000001 0.000001 -0.130210 -0.220851 0.262096 0.259484 -0.003499 0.000002 0.000003 0.247208
-0.000001 0.087281 0.469920 -0.000001 -0.311141 0.281733 0.000003 0.000000 0.441313 0.201783 0.026889 -0.083362 -0.062915 -0.000000 0.000002 -0.214481
0.000002 -0.433340 -0.308009 -0.000001 0.146116 0.573706 0.000002 0.000002 -0.296812 0.543548 -0.425303 -0.441878 0.820267 0.000000 0.000001 0.256602
-0.000000 0.019452 0.132195 0.000004 -0.072105 0.178687 -0.000000 -0.000000 0.117120 0.151290 0.021157 -0.001884 0.118389 -0.000001 0.000001 0.008461
0.000000 0.116604 0.600717 -0.000001 -0.694775 0.588316 -0.000001 -0.000001 0.625154 0.404397 0.059479 -0.180924 -0.118985 0.000001 0.000001 -0.680176
0.000001 0.101628 0.048558 0.000002 0.096640 0.106973 -0.000000 -0.000000 0.060616 0.049756 0.057100 0.099060 0.103124 0.000000 -0.000001 0.120700
-0.000001 0.304769 -0.227693 0.000002 0.435179 -0.663037 0.000000 -0.000001 -0.242510 -0.516583 0.259913 0.353127 -0.254898 0.000001 0.000000 0.372947
-0.000001 -0.091995 0.481281 -0.000003 -0.491731 0.513405 -0.000002 -0.000002 0.501308 0.313322 -0.059054 -0.179907 -0.080520 0.000002 -0.000001 -0.457295
0.000000 0.281082 -0.406177 -0.000003 0.756114 -0.399011 -0.000001 0.000001 -0.432886 -0.286395 0.309093 0.474759 0.026984 0.000001 -0.000001 0.586902
-0.000002 0.281581 0.626263 0.000001 -0.567338 0.248703 0.000002 0.000001 0.561198 0.034593 0.243402 0.137895 -0.421999 -0.000002 -0.000001 -0.526603
-0.000002 0.042807 0.000161 0.000000 0.013180 -0.007270 -0.000000 -0.000001 0.001042 0.005434 0.041710 0.026169 0.043075 0.000003 -0.000000 0.074719
-0.000001 0.435882 1.028716 0.000000 -0.969220 0.780838 0.000001 -0.000000 1.106299 0.536282 0.257232 0.013136 -0.431190 -0.000001 0.000000 -0.972320
0.000002 0.118062 0.161935 0.000000 -0.172314 0.071310 -0.000000 0.000001 0.170272 0.057316 0.041273 0.042053 -0.144074 0.000000 -0.000001 -0.125960
-0.000002 -0.105587 0.109594 -0.000002 0.021371 0.208861 -0.000000 -0.000000 0.060826 0.167447 -0.154613 -0.098290 0.114444 -0.000000 -0.000002 0.037798
0.000000 -0.490986 -0.201599 0.000004 0.208570 0.462187 -0.000000 -0.000001 -0.169599 0.481652 -0.420866 -0.419394 0.632627 0.000001 0.000003 0.187073
0.000001 0.133751 0.701727 0.000000 -0.508981 0.483529 0.000002 0.000000 0.646132 0.339297 0.048179 -0.117362 -0.150451 0.000001 0.000002 -0.471241
0.000002 0.362155 -0.340242 -0.000002 0.668880 -0.622025 -0.000001 -0.000000 -0.367894 -0.612326 0.349883 0.470592 -0.174829 0.000002 0.000001 0.546658
-0.000000 -0.117724 0.022367 -0.000002 0.010000 0.160420 0.000001 -0.000001 -0.001656 0.164210 -0.136896 -0.125647 0.155882 -0.000001 -0.000001 0.029022
-0.000001 -0.045813 -0.163599 0.000002 0.277251 -0.090581 0.000001 -0.000000 -0.106556 -0.028460 0.010429 -0.003008 0.079523 0.000001 -0.000001 0.253953
0.000000 0.118702 -0.080737 0.000000 0.149752 -0.149110 0.000001 -0.000002 -0.094625 -0.115162 0.074647 0.152702 -0.058967 -0.000001 0.000002 0.136362
0.000000 0.175262 0.116266 -0.000002 0.049971 -0.082480 0.000001 0.000001 0.078638 -0.024448 0.146599 0.069008 -0.130120 -0.000000 -0.000001 0.051962
0.000002 -0.076577 0.127229 0.000001 -0.079462 0.230246 -0.000002 0.000001 0.137858 0.211346 -0.087985 -0.107132 0.209908 -0.000002 0.000001 0.026701
-0.000000 0.081367 -0.034910 -0.000000 0.118919 -0.154897 0.000000 0.000003 -0.083216 -0.102881 0.054216 0.101850 -0.078981 0.000001 0.000001 0.096047
0.000000 0.192348 -0.141272 0.000000 0.240775 -0.466349 0.000002 -0.000001 -0.218550 -0.311925 0.147596 0.186258 -0.239275 0.000002 -0.000000 0.226940
0.000003 0.133175 0.081667 -0.000001 -0.070655 -0.055516 -0.000001 -0.000001 0.108122 -0.085713 0.105503 0.119295 -0.206661 -0.000002 0.000001 -0.069940
-0.000000 -0.086354 -0.102552 -0.000001 0.165437 0.009866 0.000000 -0.000002 -0.103139 0.041746 -0.018893 -0.025531 0.250745 -0.000001 0.000000 0.142953
0.000001 -0.681727 -0.235926 0.000000 0.291102 0.391399 -0.000002 0.000001 -0.186720 0.438272 -0.600325 -0.593445 0.742687 -0.000002 -0.000002 0.301761
0.000001 -0.065855 -0.272133 0.000002 0.633289 -0.183357 0.000000 0.000001 -0.214944 -0.257621 -0.077140 -0.012256 0.154582 -0.000004 -0.000001 0.534800
0.000001 0.025687 -0.232771 0.000001 0.543157 -0.183364 0.000000 0.000001 -0.236511 -0.078839 0.013689 0.220596 0.000383 0.000001 -0.000003 0.383769
0.000001 -0.028187 -0.086158 0.000001 0.158888 -0.001289 0.000001 -0.000001 -0.078328 0.052410 -0.054653 -0.025318 0.076508 0.000001 -0.000000 0.140582
0.000001 -0.237376 -0.171363 -0.000005 0.154237 0.163266 0.000001 -0.000001 -0.139839 0.213999 -0.204524 -0.194603 0.364728 -0.000001 -0.000001 0.156255
0.000001 -0.046586 0.265334 0.000001 -0.311950 0.321886 0.000001 -0.000002 0.149344 0.295828 -0.071590 -0.148540 0.103064 -0.000003 -0.000001 -0.380084
0.000001 0.319648 0.112049 0.000001 -0.055729 -0.005033 -0.000001 -0.000001 0.119168 -0.083789 0.209048 0.236991 -0.182372 -0.000000 -0.000000 -0.044032
-0.000000 -0.434966 -0.381697 0.000000 0.527504 -0.011117 -0.000001 0.000000 -0.422829 0.123229 -0.426652 -0.344451 0.449186 0.000001 0.000001 0.475330
-0.000002 0.130728 0.950916 0.000003 -0.676020 0.827026 -0.000002 -0.000004 0.882537 0.520965 0.087056 -0.114835 -0.278157 -0.000001 -0.000000 -0.711936
-0.000000 -0.055776 -0.163938 0.000003 0.312852 -0.051714 -0.000002 0.000001 -0.152927 -0.026633 -0.070865 -0.000516 0.227117 -0.000001 -0.000000 0.262932
0.000000 0.408589 1.297675 -0.000003 -1.026431 1.012192 0.000003 0.000002 1.191953 0.779857 0.206198 -0.260088 -0.398568 -0.000002 0.000002 -1.016708
-0.000001 0.601826 -0.673222 0.000005 0.934324 -0.912209 -0.000001 0.000002 -0.706825 -0.911922 0.609679 0.846535 -0.352285 0.000003 -0.000001 0.761008
-0.000002 0.109003 -0.100280 0.000001 0.226450 -0.173455 -0.000002 0.000000 -0.136101 -0.214105 0.172264 0.168581 -0.034288 0.000000 -0.000001 0.163970
0.000000 0.362123 0.397414 0.000001 -0.297155 0.023019 -0.000003 -0.000001 0.362176 -0.074480 0.241247 0.174423 -0.241641 0.000002 -0.000002 -0.276802
0.000000 0.770061 0.063826 -0.000002 0.319555 -0.536692 -0.000001 0.000001 0.106915 -0.632856 0.724752 0.854796 -0.852860 -0.000002 0.000003 0.127219
-0.000001 -0.119180 -0.304116 -0.000001 0.516316 -0.200991 0.000003 -0.000001 -0.313768 -0.093164 -0.121175 -0.011937 0.179272 -0.000000 -0.000002 0.428355
0.000002 0.915464 -0.564296 0.000002 1.170031 -1.025558 -0.000001 -0.000001 -0.632224 -1.080209 0.946931 1.094622 -0.614713 0.000001 0.000001 1.116334
0.000000 0.284557 0.251199 0.000002 0.087084 -0.013873 0.000003 -0.000000 0.282906 -0.055038 0.271956 0.160062 -0.177245 0.000001 -0.000002 0.081114
-0.000001 0.322334 -0.320673 -0.000002 0.534851 -0.554746 0.000001 0.000000 -0.308593 -0.472210 0.351599 0.452336 -0.149502 -0.000000 -0.000001 0.448440
-0.000000 -0.113184 0.145424 -0.000001 -0.213370 0.234826 -0.000001 -0.000001 0.151771 0.197091 -0.086928 -0.121031 0.101057 0.000003 -0.000000 -0.199399
0.000001 0.144947 0.220160 0.000000 -0.206219 0.086267 0.000001 -0.000001 0.172695 0.021054 0.167502 0.159734 -0.142076 -0.000000 0.000001 -0.154045
0.000001 -0.034110 0.316779 -0.000001 -0.299185 0.301717 -0.000001 -0.000001 0.294692 0.250975 -0.047106 -0.091025 -0.043134 -0.000001 0.000001 -0.212454
0.000002 -0.007364 -0.193609 0.000001 0.298980 -0.162453 -0.000003 0.000000 -0.191983 -0.068320 -0.031918 -0.010118 0.106465 -0.000002 -0.000000 0.228313
0.000001 -0.224338 -0.074613 -0.000002 0.016272 0.218394 -0.000002 -0.000000 -0.055052 0.254834 -0.178086 -0.206980 0.310414 0.000001 0.000001 0.030690
-0.000002 0.425737 -0.492842 0.000001 0.778287 -0.652458 -0.000000 0.000000 -0.496744 -0.577600 0.445395 0.721354 -0.205176 0.000003 -0.000001 0.622491
-0.000001 0.198495 0.140093 0.000002 0.078956 0.110112 -0.000002 0.000001 0.136547 0.061418 0.143125 0.126473 0.056102 -0.000000 0.000001 0.061446
-0.000002 -0.004571 -0.022565 -0.000001 0.055258 0.025373 0.000001 -0.000000 0.013030 0.016092 -0.045287 0.002871 0.059590 0.000000 0.000002 0.081909
0.000002 0.192965 -0.038896 -0.000001 0.164726 -0.288380 -0.000002 0.000002 -0.053352 -0.281822 0.136896 0.189296 -0.142111 0.000001 -0.000002 0.141555
-0.000001 0.127041 -0.100804 0.000001 0.209182 -0.290308 -0.000000 0.000000 -0.105049 -0.187753 0.012686 0.072276 -0.100783 -0.000002 0.000000 0.189578
0.000003 -0.046344 0.117951 0.000001 -0.079428 0.214132 0.000000 -0.000002 0.070132 0.179544 -0.060060 -0.079296 0.028852 0.000000 -0.000000 -0.092966
-0.000000 -0.008987 0.276765 0.000001 -0.160957 0.288620 0.000000 0.000002 0.360501 0.178043 -0.010296 -0.058819 -0.103487 0.000000 -0.000000 -0.187093
0.000002 0.575885 0.889520 0.000002 -1.049518 0.469246 0.000001 -0.000002 0.916804 0.175821 0.453339 0.285542 -0.616576 -0.000001 0.000001 -0.998131
0.000001 0.033383 -0.033471 -0.000002 -0.076738 -0.104588 0.000004 0.000001 0.040629 -0.026162 -0.002794 -0.021081 0.008137 -0.000002 0.000002 -0.056978
-0.000002 0.342679 0.008853 0.000001 -0.022217 -0.261093 -0.000004 -0.000001 0.026225 -0.238479 0.334612 0.404387 -0.291669 0.000001 0.000001 -0.033095
0.000002 -0.084744 0.006364 0.000002 0.106820 0.282879 0.000001 -0.000003 -0.017805 0.307801 -0.042283 -0.119272 0.354683 -0.000001 -0.000002 0.081790
0.000002 -0.012158 0.063742 0.000001 0.008891 0.085691 0.000000 0.000000 0.053613 0.102560 -0.023581 0.001684 0.059930 0.000001 -0.000001 0.019601
-0.000001 0.040761 0.309151 -0.000003 -0.209595 0.339533 -0.000002 -0.000001 0.233302 0.290264 0.028887 -0.020794 0.106208 -0.000001 0.000002 -0.242653
-0.000001 0.078837 0.220218 0.000001 -0.220059 0.152125 0.000001 -0.000000 0.245708 0.111501 0.046135 -0.022559 -0.102477 0.000001 0.000003 -0.173222
-0.000002 0.153210 -0.440758 0.000002 0.992467 -0.620424 0.000003 -0.000001 -0.427339 -0.519738 0.128224 0.509926 -0.162944 -0.000002 0.000001 1.006382
-0.000003 0.494923 -0.342173 0.000002 0.772400 -0.954577 -0.000001 0.000001 -0.497387 -0.749932 0.488191 0.716044 -0.513029 -0.000001 0.000001 0.603597
-0.000003 -0.051393 0.100612 -0.000001 0.028778 0.124121 0.000000 0.000001 0.015205 0.149922 -0.083871 -0.106253 0.180614 0.000000 0.000000 0.042813
0.000001 0.150801 0.732748 0.000000 -0.691766 0.485735 -0.000001 0.000000 0.754895 0.248641 0.124095 -0.046427 -0.243556 0.000000 0.000003 -0.585392
-0.000002 -0.103565 0.095188 0.000000 -0.123364 0.218996 -0.000000 -0.000001 0.132986 0.147284 -0.084901 -0.106774 0.144327 0.000001 -0.000001 -0.083514
-0.000002 0.182169 0.196013 -0.000002 -0.127064 0.054484 -0.000001 0.000001 0.184245 0.004791 0.208305 0.171554 -0.203095 -0.000000 -0.000001 -0.138049
-0.000001 -0.747624 -0.422580 -0.000001 0.958350 -0.005610 0.000003 -0.000001 -0.389322 0.112859 -0.685096 -0.273688 0.357447 0.000002 -0.000002 0.947226
-0.000000 -0.358514 -0.148898 0.000003 0.169716 0.193445 -0.000001 -0.000000 -0.188129 0.226100 -0.408230 -0.438654 0.356789 -0.000002 -0.000001 0.175315
-0.000002 -0.867215 -0.338902 0.000001 0.358518 0.651698 0.000002 -0.000001 -0.261146 0.625860 -0.882456 -0.871625 1.140574 0.000001 -0.000002 0.327497
-0.000002 -0.006486 0.131093 -0.000003 -0.117169 0.225432 0.000001 -0.000002 0.106018 0.197281 0.006918 -0.091530 0.117485 -0.000000 0.000001 -0.092735
0.000002 -0.290102 0.046250 0.000002 0.057376 0.407496 -0.000002 -0.000001 0.004046 0.425593 -0.246722 -0.294862 0.520254 0.000003 -0.000001 0.138576
-0.000000 -0.119172 -0.397650 0.000001 0.399843 -0.424825 0.000000 0.000002 -0.339444 -0.133707 -0.189218 -0.011294 0.104234 0.000001 -0.000000 0.445211
-0.000000 0.181591 -0.043678 0.000000 0.088553 -0.233314 0.000000 -0.000000 -0.060001 -0.148937 0.092864 0.093648 -0.132288 0.000002 -0.000000 0.091496
-0.000001 0.327907 -0.198300 0.000001 0.303972 -0.643598 -0.000000 -0.000001 -0.312765 -0.451333 0.347684 0.417233 -0.369846 -0.000000 0.000001 0.247687
0.000001 0.100108 0.289054 0.000001 -0.077094 0.159233 -0.000000 -0.000001 0.236888 0.145164 0.050134 -0.029257 -0.043500 0.000002 -0.000000 -0.044902
-0.000002 0.221171 -0.186545 -0.000000 0.461148 -0.454850 -0.000003 -0.000002 -0.147674 -0.510227 0.200844 0.243711 -0.184972 0.000003 0.000002 0.448101
-0.000000 -0.245552 0.058161 -0.000001 0.004597 0.254142 0.000000 -0.000001 -0.063687 0.229061 -0.210642 -0.231288 0.250306 -0.000001 0.000002 -0.017239
-0.000003 0.212508 0.068095 0.000000 0.053985 -0.032724 0.000000 0.000001 0.116574 -0.131427 0.189360 0.206398 -0.112765 0.000003 -0.000001 0.092559
0.000002 -0.539895 -0.172676 -0.000002 0.279513 0.234639 0.000003 -0.000001 -0.146808 0.282974 -0.439944 -0.497104 0.496507 0.000000 -0.000007 0.274823
-0.000000 0.040646 -0.000844 -0.000002 0.106110 0.076228 -0.000001 -0.000001 -0.068421 0.166787 0.033862 0.029773 0.243536 0.000000 0.000002 0.118572
0.000001 0.107052 0.134659 -0.000001 -0.043802 0.122071 -0.000001 -0.000000 0.081892 0.124664 0.119562 0.091455 -0.006154 0.000000 -0.000000 -0.028772
0.000001 -0.191192 0.171959 -0.000000 -0.219368 0.251502 0.000000 0.000001 0.182227 0.188730 -0.171831 -0.193876 0.173217 -0.000001 -0.000001 -0.085980
0.000003 0.244881 0.446511 -0.000000 -0.429644 0.237983 0.000001 0.000001 0.450861 0.071525 0.203105 0.115262 -0.370266 0.000002 -0.000000 -0.405133
0.000003 0.326985 -0.354824 -0.000001 0.508471 -0.549099 -0.000000 0.000003 -0.407804 -0.397331 0.340670 0.450187 -0.128607 0.000002 0.000001 0.376477
-0.000000 0.218978 -0.148526 0.000002 0.246165 -0.328876 0.000000 0.000000 -0.166985 -0.310234 0.199445 0.281310 -0.182279 0.000001 -0.000001 0.230685
0.000002 0.942258 -0.583012 -0.000001 1.073057 -0.856594 0.000002 -0.000000 -0.520975 -0.871276 0.944944 1.069196 -0.522634 -0.000001 0.000000 0.987636
-0.000001 -0.837062 0.149098 -0.000001 -0.512277 0.966810 -0.000002 -0.000002 0.191373 1.016253 -0.858133 -1.044242 0.691825 0.000001 -0.000001 -0.308901
0.000001 0.042512 0.473788 0.000001 -0.479362 0.449561 -0.000004 -0.000001 0.436512 0.260808 -0.081850 -0.202315 0.013363 0.000002 -0.000001 -0.371258
0.000002 0.058577 -0.435531 0.000003 0.408187 -0.406415 -0.000001 0.000003 -0.403149 -0.313757 0.054122 0.228221 -0.041565 -0.000000 -0.000000 0.310432
